svm_type c_svc
kernel_type gkm_esttrunc
L 11
k 7
d 3
nr_class 2
total_sv 8873
rho 0.219212
label 1 -1
nr_sv 4292 4581
SV
1 cggggcgcgccgAGTTATGCAGATCAATCGGCCTCTGGTTGGCTGGAGTAGCGCTGGCAggggcggggccggggcgcggccacagagcgcgcggggcgggggccgAGGGGAGTcgcccagtcccgccgcttccccaccccctctcctccctcggccggcccggcagccctgctccccgccttggcctcccggagaggccc
1 CACATGATCTACAGCCTGACTACACCCAGCGCATTGAAGGTTGTCCCTTGCTCTCTCTGAGCTAGGGTGTGACAGCCCTTAAAGATGAGGGTAACATCGCGGTAGTCAGTCCAGGCCTGCAAGACCAGGAACAACAGCAGTTACTGTATGCCTAATAACCGACGATTTTCCATCAGTGTCCACACTTACAAATAATGTCA
1 CCGTGCGCGCAGGCGGTCGCCGTGGGCAGCCCAGAGGCCACCGCCGCCGCGTTCCCACGCGCGCTGCAGGGCAGAGCGGACGGCACTTGGGACCCGCGACTCGCGGCACGCCACTCTCCCGGAGGCGGTGGCTAGATGGGGCTGGGCTGGCGGCTAGCACGGCCTGTGGCGCGACGACCGCTGTATTTGCATGGTTCGCA
1 CAACAGTTCTCCTCCTTCCTGCAACCCCCCCACCCCCAATCCAGGCCACCCCACCCAGCACAGTTAATCAGAAAAAGCTGACAGTTAGGACCTGGAGGAGTGATCTGAAATCAGATGGAGGAGGGGTGGGATGTTAAACTTTCGGACCCAGGGATGCTTGGGGTGGAGCGGGGGCATGGCTGGAGGGAGGCAGAGGATCC
1 TTCCTCAGATGAATCGAGTAAATACTAACACTTGTGAGCTAGCACTGACTTCTTCAAGCAGCATGCCTATCACCTGTGACAGCTCCTTCTGGGGGATGTGGTGCACACAGCACACAGCCACCTCCCCCAGGACCACCCTTTGACCTCCTTCAGTGGTGAAACCATCCCAGCTACCAACAAGTGCAGAGGCAGCAAAACCA
1 tcacaggtttcccattgttctcaggccacagtctgaaattcttcaacgagccctagggggccTGTAGGATTCCCTTCTCCAGCTTTTGCTCAGGGTCTGAGCTCCAGCCAGCTTCAAAGACTGAGTGAGTTTGcctggattcaaatcttggctctgcctttcactcactgtgccaccgcatgtaagtaacttaacctctc
1 CCTTTTAGCCAGTTGTCTGACCGGGTTTACTATTGTGACCAAAAAGAAGCTGTGTGTAGTGGTTTGCATAGAAGGGTCATGATTTATCTGAAATATCTCAACTTTTTTTTTTTTTGTAATCCTGTCTCTCATCCTCCCCTGACAACACTTTACTTCATTCTTAAAGACTCCTTTTGTCCTGATGGTGTTTGTTTCATTGC
1 ACAAAGAAGGGTGGGGGTGCAAGAAAAGAAGCCTGGTCTACCTACACACTTTGCCCTGCAGACAGTTCTACCTCTCAGCACGTGTGATGACTTACCTAGGAATGGAATGTGGACCTGGGAGGGGAAGCTGGTACAAAGCTGTGGAGGCTGGAAAGGAACCCAGGGCCCTATTACAAATCGTGAATAGTGACTTTTAGCTA
0.1658494893673824 ACTAAATTGTGATGTTCTGGATGGTATTGCATAGAGTGGTCAACCCTTTATTCTGTTGAGGGCCACTAGCCTATAGTTCTTAAAGAAAGCAATTAAGGGCCATTCAAAATGACAAGCTAAAAACAAACAGGTTACATAAGACCAAATTACCTCTTAAATAAGAATAGGTCACAGCATTTTTTCTTCATTTTAAAAATCCA
1 CTCGGGAAGTATCTGGGAGCCGGGCTGGAAATGAATGGGGCCCGGAAGCGAGCTCAAATCGCTGACACCTGGCACCGGGCTGCGTCCACTTTCATGCTTCCTAAGGCAGTTCTGCCTGCAAGAAGGGAACGCGCATCGCCTTTCAGTAGATCACACCGATCGTTTGCACGTTTGCATTCTCAATTTCTGCACTATATAGG
1 CGTGCCAGTGGTTACATCCTTCGGGTTAGCCGCCCGGGGCTCGGCCGCCTGCCCCGGCAAACAGAGGAAATAACTCACTTCTCGCAGTTTACTCCTGGGGCCGAGACCTGGGAAACATCCCCTGCTCGCGCTCTCGGCGCTCGGTCTCCCGTTTCGGCCTCCCTGGGCTTCGCTCCCCACCGCGTTCATCCTGCTCCTCG
1 CACAGAGCAACACAACGTCTTGGCTAACGAAAACTCAAAGCCTCAATTCACTCAGTTCCTTCACAGCGCTCGGAAACAGAGAAGTCTCGCGGTATCGGAAAATGCGCGGCGCTCACAGCCACACCTGACGAGATGGAGGGCGCAGGCGCATCCACGGCTTTCAGATTGGGCGACTGACTTCAAAGGGGGGGGCAAACAGG
1 GACCTGGGCGCCCAGAGCTGGGTGGGCAGCGGGGGGCGGCCTGGGGTCAGGGCCAGGCCGGTCCGCGGCTTCCGGAGGAGCCGGTGGGACCCGGGGCGGCCTCGAAGCCCCGCCGACCCCGTGGCCCTCGGCTGCGGGCGCCCGCGCAGGACAAAGACGAAAGAGGGAAGCGGTCCGGGGCGAGGCCTCCTGGTGCCCGC
1 CCCGCTAGGACGCTGGGCCCTGCCGGCGGGATCCTCCCCTTACTCGGAAAGGGGAGGCGCCGGCCACAGTAGGCGACGAGCCGCGCTCGGCCACCACCGCGGTGGCCGGCGGAACCCTCGCTCTCCCCCCGTCACCCCGTCGAGGGGGAAGCTGAGGAGGGTTCCTCTGCAAGCGAGTCGCTACTGCAGCGCTACCATAA
1 GGACTTTCCGAGTCCCATCAATCCCACCACCTTGGCCTATCCTCCCCCAAGTGTCACTTCCTCCTGCAGCCTAGTCGCAACTCCCCTTCCCCCAAACTCCTTACTAATCAGCAGAGGATGCTCTGGTTCTCAGGTGTGAACAACAAATGAGCTTAGTTTACTGAGGGGACATTTGTTTTAAAAGAGAAACCAGTTTAACA
1 TGGGGAAATAACCCCCGACCTGCCAAGATTGGTGACGTAAATGCCAGTCCCGCTCTCCAAGCTTTCTCATAGGCTGAGAGGTCTTGGAGCTGTAGGGTACACGTGCCGGCGGTCTCACGCGGCAACTTGTTTACCCAGAAGCTGGGGATTTTCCTTGACGACACTCTTAACCACGGCTGCTAAATCTGCGCAGGCGCAGC
1 GGCGGGGGATGGGGGTAGGCGGTTCCTCTGTTCTTTCTGCGTTCCCCGCGGCCTCTTACCACAGAGACGCGGGCCTCCACCGTCCTAGCCCTCCCGCCCTGTTCTCTAGTGCGGACTAGAGCGTCTCCTCGCCATTTCCTGTCGCCCTGGGGCCCCGCGGGGAAAAAGGGGGAGTAGCAGGACAGCGGAGGGAAGTCGCG
1 TGGGAgggcgccggggggccccccgccAATGGGGAGCTACGGCGCGCGGCCGGGACTTGGAGGCGGTGCGGCGCGGCGGGTGCGGTTCAGTCGGTCGGCGGCGGCAGCggaggaggaggaggaggaggaggaggaggaggatgaggaggaTGTGGGCCACGCAGGGGCTGGCGGTGGCGCTGGCTCTGAGCGTGCTGCCG
1 TAACGTTTAAATTCGAGGCATTTGCAGCCTTCGCCAAGGCCCCAGCGACTCGGTCGCTGCCCAGAAATTCCGCCGAGGGCCGGCAGTCGCGACAACCCCGTAATGGCCTCAATCGCCCGTAACGTGCTTCGCCGCGGCCCGGGCCTGGCCCAGCTCAGTAACCTCGAGACTCGCGAGCCGCCCCCAGGTCGCCGGAGCAG
1 TTTGTCCCTGACGCAGCCCCACCGGTTGCGCAGTCCCTCCCCGCCCCCGCTCTCCCCTCCGCAGCCTGCAGCCCGAGACTTCTGTAAAGGACTGGGGCCCCGCAACTGGCCTCTCCTGCCCTCTTAAGCGCAGCGCCATTTTAGCAACGCAGAAGCCCGGCGCCGGGAAGCCTCAGCTCGCCTGAAGGCAGGTCCCCTCT
1 GGAAGCTCTCTGGACTCTTCTTGTAGGTCTTCTGGCAATCACAGGGGAATGAAATTGCTATTTCAGTTGTTTTAcatccagctaatatttattgtacattgactgtgtgccaggccttatgatacgtgctaggaaaagaagagagtgcaaaacagaccctgtccttgtcatcatggagctacggtttagtgggggagtga
1 ACAGTGCCTGGGCTCTCAGCAAAATGTGGACCGGATTCTGAAACGCAAAGGACTCCCCGTTCCTAATCAGCGCTGCAATCCACCAGACAGTCTCCTTCTGCCGGCAGCTTGCCAGTTAAGACTTTGTTCCTTAGCGTTCTGTCCTGCAAGGACCCCCTGAAGGAGAAGAGAGGGCTAAGTGGATCACAGCGTGTCCTCCG
1 TCCTCGAGAGCTCCCCAGACACGCCCCCGTGCGTACGCCCCCGTGCGTACGCCCCCGCTGCCGCCACCTTCGGTTGACCACCCCCATCTAGACTGTACTCTCGCGGTATTTGTCCCGACTCTCGCGGGGTTTAGCGTGGCATTGGGAGGCCCGGCCTGGGGGAGGAGACGGCGTTCCGTTAGCGGCGTTGGGGTTTGGCT
1 TGGATGGGAAGGCTGGCTCTCCCTGAGACCTGAAGCCAGGGGCCCTGTGAAGAGTCCCTGTTAATTTCATCTTGCGCTGCTGCCCTCTGGTGTTCACGCGCTGTTCCCAGTGTCTTGAGAGCAAGTCAAAGCCGAGCCAGTGCGATTTAGAGCGTGAGCGCGACCCTGTCTGGCCCTTCTCCCACTTCTTTGTTTCCCTG
1 tttccccagtttaaaaaaaaaaatccttagtgttttgcaaagttcaggggaagaactcttgtggttttgcttagagctttctttatttcaagccctcagagctgatccagggacagatttgacaaattgctgctatacatgctgtgctcacccctgttctctgatgactgagCTTGTTTGTTCAAGGAAACTACCTCATT
1 CAGGCGCCCTGGAACTCCCCGCGCGTGTTGTGACCCAGAATTCCCGGGGCTGTGGAAGAGACCATAGACTCAACAGGAGGGGGAGTCCTGGGTAGCGCGCCGGTCTAAATCGTTACTTGGCGGAAAGTTCCCATGAGTCTTTGCCAGCGTCCCCCTCCTTTTGTGAGGATTGGGATATTCCGACTCCTTAAGGGCCTGGC
0.7059520764920646 tagcattcatgtcaagttatttgagtaatctccaagctgctttcctcagtggctgaactaatttacactgccaccaacggtgtataagccttcccctttctccccagcctcgccagcacctgttgttttagccatgctgcctggtgtgagatagtatctcattgtgattttgattcacaGGGAATCTGCATGTCTGAAAG
1 TATGATGCTATCCTTAGCTATCTACACCACCAGGAAGGGCCCAGTGGCCTAAGTTTGCCACTTAGGTCTTTCCACCATCTTGACTGGGTTCCTTAGGATCCCTGGGAGCCTGGGGATTGTGAGGATTTCCTGCTGCTGCAGACGCACAGCCTGCTAAGTTGTCTGTGTGGCCAGCATTTTAATTAAGGCATTTCCTGCAA
1 CACACACCCCAGCTCCCGCGGATGTTCCGGCCGTGTGAACGGACCGTGGTTCCCGGCTCCCAGCGGAGGGAATGAGTGGTgggccggtgggccggggcgccggcgcccTCCTGTCGGGCTAACAAAGTCATTGGGAGGCAGGGTCGATCCGCTTGTAACTTTTTTCCCTCTGGGTCCCTAAAGCTGTTGTTGCTTCAGGG
1 ATGCCCTAACTGCGCGGCCCCGGCCGGGCCAGGGAGCGTTAGGAGCGACTGGAGCACAAAGCGCCGCAGCCGTTCGCCTAGCGCAGCTCCCGGGGGACGCAACGCCGCGTCAGGCCGGGGGCTGACCTGGAAATGAggccccggcggcggcggcgccAACTGTTTTCAAACAGTGGCGGACAAACAGGGCTTGGGGCTGG
0.6162505357741838 AATTCCTGGGAATTATTGTAATGCCTGGTCAATGGGATAATTGACCCTCAGCAGCTAGCTCTTACTCCATAATACAGCATGGCACAGGCCTATCAGAGTAGCAGGTACTAGGGTGATTTGCAGGGGACTAAAAAGAGATTTTCTCAGCCAGCGTTCTGTGATGTACCAAGGCAGCCCAGTGGGAGTCCCAGAGAGGGGAC
1 CGCGGCCAGCCCCCAGCCGCCGTAGTTTTGAACTACATTTCCCACCAGCCCTTTCTCAACATCGCGAGAGTTCCGGAGAGATTGCCGAGAAGACTTGCGCGCAGGGGCGGTCTCGCGTTCTTTTCGAGGTCGGCCGCGTGGCTGGAAGACATGGCCACTCCAGTCGGTGTTGAGCACGGCGAGCAGTCTCAGGCCTTTAG
1 CCCCTTAATAACTCCCTCCACGCACCCTGGCCCCGGCGCCGCCTTCCCCGCCGCGCGCCCGGATGTGAGGTGGCTGCAGCGGTGCCGGGCGAAAAAGAAGCATCGCCGCGCGCTTCCCGGACGCCAGCCCCTGCGCGGGCCGGGGGGTGGGAAGGTGGTGGCGGCGAGGAGGAGGCCACGGTGGGGATAGCGGAAACCCG
0.5784512002149925 CTGATGTCAGAGCAGATCATGTGGTGCTCTGTGGGCAGCTGGGACTGGCCCGCCGAAAGCACATGGATTACAGTCTGAGGCTGTAATGGGAAAGTCGGTTCCTGGGCTGCTGTCTCATAGACATCAGCTTGCAGGGAAGCTGGGGGCTCTCCGAATTGCCCTGCTCCGGGGCCCCTCCTGCTGCGTGACTCACAGGCACA
1 ACCCAGTCTAACACTCGCCACCATCACCTACCTTCATCTTGAAGCAGCTGAACGCCTCCGAGGCGCCACGGAAAAGAGGGCCAACTTCCGCTTAGCGCAGGTCACATAGGCGCTTTCAGTTCTCGCGAGATGAGCAGAAGTACGGGATAGCGGAAGTGAGCATGGGTGGGCGGTACTTCCGGGCGAGATTAATCAGGGCC
1 AAGATCTGGTACCTTGTCTTCCAGCCATGTACTGACAGGCCACCAAGAGCTGTGCCAGGCAGAGATTGGCAGACTAATTTGAATACCAATGCTGCTCTCGGCTGGCTTCCAGTTACAAGGCGGGGAGGCCCAGGAGGGCAGGCAGGGTGGGGACAGGGGTGGATTCAACAGAGGCTTCTGGGGGGAGAGGGGGAGTTCTC
1 CAGCCTCAAGGGACTCCTCTCCCAAGCCAGCTACCTCATCGGAGCGCCGCCCCGCCTCGCCCCGCGCAGTTTGGATTCGAAGTGCGCGGGCGGGGAGGGAGTTGAGAGCACCGCGGCTACCTGGCTTCCCTGAGTCCCGGCTGCCGGGAACGGGCGCGGGGGTGAATAGGTAAGTTAGCGCCTAGTTTCCCTCGCTCATC
1 cggtgcggtgcgcgcggggcggtgcCGCGGCGGCGGAGGGAGCCGCGATGGAGGGCGCTCCGACTGTCCGTCAGGTAAGCCGCGGGCCTCGCTGGGGCAGGTTCCCATCTGTGGCTTTAGCCTACTTTTTCTCACGGTGATTGCTTGAACCTTCTCAGATTACAGTTAATCCCTCCCTTCCCTTTTCTTCGTGCTCTTTG
1 GAGGGAAGAGGAGGGGGCCGGGATCCAGTGGTGGGCACCCCAGTCCCGCTTCTCTGATATCCAAGGGTCCAGGGTCCTCTAGATTCCAGCAGGGGTCGGAGATTTGGAACTACACCTCACAGCAGGCTGCGCGGCGAAGAAGCGCGGACCTAGGGGAAGATTTGCCCTGAAACCTCTTGGGATTGGTAGTTCCCGATGCT
1 GATATGGTTGGCCATGCCAAAGCACTGAGAGCCTAGGAGCAGCGTGGCCAGAGTCTCCGGGAGTCGGCACCTGCCTCTCCTCGTTGTCTAGGCCTGACTGTCCCTGGCCTTGCACGGCCGCGCAGCGGGGCGACCGGCAGGGGGCGCGCTGGGATGGCCAGGAGCTCGGCTCTCCCCGCTCTGTCCCTGCTCTGCGGCCC
0.5228380951642201 CTCCAAGTCATCAAAACAAAGCTCTCCGAGTTGGGATACCTCCTAAAGTACCTTAGCAGCACGGAACCACACAAACATCCCCTTGCTTGCCGATTTCTGTAACCCAAGCCAGAGATAACTCGACATTTGCATTACTAATTGCTCTCTTCCAGAACTTGTTGACGCTTGGGTTGGTTTTGAATAGACCGCTAAGTGGCTCT
0.8956871891015928 TGACTGAAATGAATTGATCTTTTACCTCTTAGCGGGGAATCTTCTGTCTGGGACACATGTGTGGGTTTCCCCCAATCTCTCACAATACCATTAGCTACCTTGAAGGAGCAGATGCCGCCTAATTAACATTTCCTCTCTTGATGTCTCCCTGCAGTTCTTCATTTCTATCGTTCTGTTTTTAGATTTACAATGAGTTTGTA
1 CTTAGTTAAGACATAATCCCAGCATTCACTGTCCCCCATCCCCCAGCTCTCCCGCACCTCGGCGGCTGGCCGGGCCCCCGGGAGTGCCGTCATCCCAGCCGGCTGGCCACCCGACTGGCACCAATTAATTTCCTCCTCGGCCTGTCCACCCAGGGCCTCGGCCTGTCTGGTTGCCAGCTGCTCACCCTCAGCCAGCCCGC
1 CTCCAGGAGGAGAGAGAGCCCCTTCCTCTGCGGCGCAGGAAGCCGGAGGGAGCGTCCAACCTGTTGAACTTGTGTATTGACAAGTTGTCAAGCTCGGCAGGCCGAAGATTGCCCTGAATTAATTTGTTTGTTTAAACTGTTGGTGGTAATTGTCACATCTCCCCTGCCTTTCTCCAGCATACTCGGAGACGGGTTCTCCC
1 ACTTGCTCCCTAAGAACCCGGAAGTGGTGGAGCCAACGGCCAGCCAGACCTGTGGCAGTCCCAGCCCCAGGGTGCTCTCCGCGGTCGGCCATTTATCGGTGAAGCAACAGCCCCTTGACGTCAAGCTTGACGCATTGGAGATAAAGTCCAAGGAGGTGAACTAACCTTTGAACGTGCCAGTAAGTAAGATGGCGAGAAAA
1 AGAAggggccccgctgggccgcggcggccgggggTCGAGGCTGGGGGAGGCGGGGTATAGGCCCGGCCGGCGACTGAGAGTCGGCGGCGAAGAGAAGATGGCGGCCATTTTGTGTGGGTTTGCTGCTCCGCCGCCGCCGCAGGCAGCAGAGGGAGCGGGCCTGACGGTGGGTCGGACAGGGGAGTTAACACGTACCGACT
1 AGGAAGCCGCTCCTGAACAGGCGGCTGCGGGGCCGCGCAGGTGGAGGCCTAGCGAGCGGCGCGGGGCTAGGTTTCGGGGCGCCTTGTCGGGGCCAGGCGGGAGGGCGCACGGCCTCTAGCGAGAGGACGCAAACCACGGCCCAGGCTCTCACAGACCTTTGGCCATCTGGACACACAGCGGCCTCCTCCTATGAGGCCCT
1 TCAGGACGCGCTCTGGTCCTGGAGGGCCGGGCCCGCCCGAGGGCAGCCGATTCACGGCGGGCGCGCTGCGAAGTCGGGGCGCCCCCTGGTGGGGCACGGAGGTCGAGGGGGTATCCTGAGAGCACCGCGGGGCTTCGGGGCCGCGGGGGAGCTCCCAAGACAGCCGGCCACCGGGGGACAGTGGATTTGGGGTCTCCTCG
1 AAAGCCTAGGGCAAGAGTTCTACGCCCAAGATGGCCAGCCGGAAGCGGGCTTCTCGCGACCATGTGGCGAAGCCCCATTCGTCAGCTGGCCGCCCGCGGCCCTGGTACCCGGTCACCTCTCTGATCTGCGCATGTGCTGGGCTACGCCCGGGCGCAAGCGCCAAGAGCGGCTGCGTCTATGGTCATGACGTCTGACAGAG
1 CTTACCACCAGGGGGCAGTGTTTCCCCTCTCAGCTCCGAACGGGACCCGGGGCCTCACGGCGCTTTCTGGCGGGGCCTGGGGTCCCTGCGCTGCTGGAGAACCCCCGGCACGGCAGGTCCCATCCGTTAGAGGGGCTCCGGCCTCGGGGTGCTGGGAGGGGGCGTTCAGGGAAAGTGAGGCCGTGCAGCACAGGGGCTCC
1 CAAGTACCTGGTCTCCAATGGTATGTTGCTGTTCAGGACCCAGCTGTTATGCAGATGGACTGAATCCTGCGTGCTGGTTGGGGGAGCTGGAGCAGCTGGGCTGGGCTGGCTGCGGGTAGTCATTGATCTCCTCTGAAGAGAGTCCGCTGCAGGGGGTGGCTTCCTGGCACAGGTGCAGGCATGAGGAGGCGGAGGTGGCG
0.1347264270611548 aGAGTCACCTTTTGAAAACGCAAATGTGCTGGGTCCGTCCCTGGCTCAGGCATCTTAAATGACTTCCTGCTGTTTACAGCTAGGCCTCCAGCTGGGGAGTCATGGATGCAAGCAGGTTGCCAGGGATACCcgaggcctcaagagaaataatggcatgtgttcctggagttctatgtaaaaatgttaattgaactgctaag
0.9907418210194049 AAGCCTGTCCCATTCCTGCAGCTCTAATTGACTCTTCACCCCACATCAAGGACACTCTGAGGAGAAACTAGTTGGAGAATCGCTTCCAGCAGTGTGAGGCTCTCCCCTAACAACAGTGCAGTCTGCCCTTCTCAGGCCCCTACTGTTAATTCCTAACCCCTAGAAGAAGGAttttgtttttgttttgttttgtttttgag
0.1010113736163836 GAAACCGCTGAAGGCTTCCAGCGGGGTCCCTTCTAGTGATAATGCAGGTGGATGGATCAGTTAATGATTTAAACAATTAGCGATTTCCTGCAAAATTCCAGCTGTCACTGCCCCCTGGAATGCAGACTCACAGTTCTAATTGGAGCCTCCAGTATTGAAGGCGGCATGAGTTGGTGTCACTGATTTGCTTCCCCTGACCA
1 aCCGTGCCCTCTCAGCCAGCCCTTCTTTGCCTTCAGCAGCCCTCCCTCTTCCTGAGTAGTGGCCCTTTGCAGGCCTGCGTCCCAGCCCCGCCCCTCTCTCTGGACGCATCTCTGGGCCCCATCATCACCCGGCGCCGGGccctccctctgcccccccctttctcctccctccttccttccctcccttcctccctctctcc
1 TTGACACCTCCTTCCTCCAATCGCAGGGCAGCTCCTCCCAGCCAATGACAGGCCTCCGAGGGGAAGCCCAGTCCCTCGCGGATATGTCAATGGGCGAGCCCTGGGAGGAATGGAAGTCACGGATCTCGCGAGGATGCCCCCGGCGCCCCTCAATTCCCGAGGCGGGCCGTCACGTGACCCGGGCTCGCCCAATTGGCGCG
1 TTGGGGGAGGGGAGGAGGCGGGCCGTGACCCTGAACGGGGTGGGCTCTAGGACCCGCCTCGGGCGCCCAGCAGGCGGACCCGCCGCGCGCCCCTATCCCTCGCGCACTGGCCGCGGCCCGACGGAGCAAGGCACTGCCTGCAGCCGCCGTGTGCACCGGGGCGGCCGGCTAGCTCCGACCTGCGCCTCCACCGCAGCACC
1 ATGGGCGGGACAGGCAAGGGGTGGCCAGCTGATCCCGCACCTGGAGCTGGGCCATTCCAGCTCTTCCCTTTCCGGTCTGCAATTTGACCTTGGACGTGCCTTCTAGCTCTGCAAGCTTCCCCAGTTGGAGACTGGGCTGTGTGAGGCCGAAATGCAACTTAGGCTGTAGGCAAGTGCCTAGCCGGGGTGCAGACAAACAC
1 CAGGGGCCGCCCGACACGTTTCTGTCACCTTGGCTCCAGACTGAGCTTCTCCATCCCTTTCTTTATTATACAAATAGGCAGTATACACAGTGAGCGCCCACTAAGCGCTGGGCTGGGGGCCTCCAACCCGGAACAGAAGCCGGCCACAACCCTCGCTCCCTGTCGTCGCGGCCGTTATAGGCCGAAAGCAAAATCCAATC
1 taaagaagatctatttgttttgagggggaggcactgaaaatgctcttgaatgagaaaagagagacatatagaatacctagctcacctgcaggtgcagttttatgaaaacaatcaccatttgcaataccattttgatgctaagtaccagagttagcatacatttcacagggtgagggcacactctcccacactgctcccct
1 GGAGAGCTGCACCCTGCACGTCTGGGCTTGAAGACAGAAATCCACCGTGAGGTGCTCCAAGGAACACTGATGGGCAGTTTTGTTAAAGTGATTGAACTCCGTGGGTACAGGAGTACGTGGAGTAATGAAGGATAATGCCCTGTAACCGCTTCCTCTTAGGAATGCTAGCTTTCACAATTGTGCAAACGGTACGCGAAACG
1 TGTGGCAGCAGCCCCCACCTCCGAGGCCAGCCCCGCCTGCACCCCCCCCCCACCTCCGAGGCCAAAGCTGTGAATAGGGTGACCCCTTCTGGGCTGTGGAAGCCTCGGGTTTGAGGACAATCCTGGGGAGGGACCCCAGGGCGCTTCCCGCTCTCCTGGCGTGTGTGTGTTTGCGGGGGAGGTGTGGGGGCCTCTGTACC
1 GCTAGCATGACAGCCTGATGGACACAGTCCTGGTAGACTTCACTGGAAAACCTCCCTGGAGTGAGCAGGCCCCTTATGCAGGAATTGCCTGATTCTCACCCCCCTGCTGTCACCCCTCTGCAGTAGGTAGCCAGCATCAATAGATTAGTGACCTCTGTGACCTCTGGGTCTTCACCGTCATTCCCGTGACAAGATGAAAA
1 GCGCGAGTGAGTAATCGCAGCCAGGCACCGGGGAAAGGGGAACGCAGAGGGCCTCCCAGTGGCTGAAGAGGTAAATCCCAAGCCCTGCGCATCTCAGCTGCCCTGGCTCAGCTCAGCATCAGACTCGGTTAAGCGGGGAAGGCTGGGGAAATTCCCCAACCTCTACACAACCATTTCACCAGCTCTAAATGTTTAAGAAA
1 ACCCTCTGAGTCCTCCACAACGAAGTCGTCTGCCTAGAAGGGCCGGAAGTACTTCAGGGCGCGCCGCGGACCCACCCCCTCGCTTCCGGCATCGGCTGTGGGGAGTACCGGCTGCAGTCGGCTGTGCCGGGAGGGTAGGATGGCGTCTGGCCGATGCGGTGATAGCACCGAAAGCAGACGGCCGCCAGGCGCTCCCCCTA
1 GGGCGACGTCCGAGGCTTAGCCTCTAGCCGGCTGCAGGGACGGGGGCCTGGAGTTGGCAGCTGCTACGGGAAAGTGCCTGCCCCCCAGCCCCCGCCCCCACTTACGTGCGGCAGAATTCCGCCAGCGCCCCGGGAAAGTCCGGGGTGCCGGGCGCGCGGAGCTGCACTCCTGGGATGTGCATTAAGCGGCGACAGGCGGG
1 ttgactcctagcgttggaggtgggctcggtgggaggtatttgggtcgtgggttgggaatccccatgaatacgttaatgccctccctaggggaggaggactgagttggttcctgctccatcagttccagagagagcccgttgtcaaaaggagcctggcccctccccctctctcttgctccctctctcgccctgtgatcttt
1 GCTCTGAGAAGAGATAATCTCTGGGGAGCTCATGCTAATGTGAATGCAGCAGCAGAGGCTGCAGCCAGGAAGCAGAAGATTGTGAGGCCATTCTTTAACCAAAAGGAATCTGTCTCCTGCAGCTCACAGAAGCTCCCCGCTCCCCCTCTGACTTAGTGCACATTCCCAAAGTATTGCAATCTGTCTGGGCCTCCTGATGA
1 TGCATTTAAGCGGAATTTCCTGCCTGTACTCAATGGGCTCTTCCTGCTCCTTCTTCCTGGACGGGGACCCACAAGTGTGTGCTGGGAATTCGAGACTCACTGCCCAGTGGAGCCATCCCCTGGCCTCAGAGCGGTAGGGGAGGCCCAGGCCACACAAACCACACTGAAGCAGGAGGGAAGGCCTGGTGTCCTCCAGGGAT
1 GCCCAGCACCTGAACCCCTGGAGGAGGGAAGCAGGGGACAGCTTGGTTTTTCCCTCACCAGGAAGAGAACACTGATACCAATTTGTATATTCATTGAGTTCTCCATCCATGTAACCCAGGTGGTCACTGTGCCCCTCCCCCACCCCCAGCTATTCACACTTAAACTTGTCCCAGGATTTCGAGAGTCGCAGCCCTGGGCC
1 GGGACCCATCTCCAGAAATCAGCCAGCAGGGACAGCTGGCTGGGGACCAGTCCAACCGCTCAGCCATAAGCCATGGAGCCAGAAGAGGGAGCTAACGGCTCAGAGCTGGAGACCCAGTCCACGCGGCGCTTACCTGATGGACACCGCGAGGGACAGCACCTCCAGCAGCAGGGCTGCACTGAAGACCGCCAGGGCGGCGG
1 TTTCGGCCGCTGAGCGTTCTGGGTGATTGCGTAGTGCGAGGGCCAACGAAACCTTCTGGGAAGTGTAGTCCAGCAAGCCGCTCACTTTTCGTGAGGCGTCACATCCTGCTGCTTCACCCTCTGGTGCACGGGAGGACCAACTATTTCAGTCGGTATGTCCTTTCTTTAGGGAAGCCGAATTCCTCCGTTTCTAGGAGAAA
1 CTTACGGCCAGGAGAGGGGCCCTAGCACCCCACCATTCACTTCCCTTTCTGACTTTGGAAGAGTAGCCTCGACCCAGAGATCTAAGAATCCAGCCCCGGTGTGGATGCCAGGACCCCTGCACATCCCCTCCCTACCCTCAGTGCCCCCTCCCCAACTCTCCTAATGGGGCATCTGTGGGAGGTTCGCATTCCAGGCTGCA
1 CCAGACCCTCACCCGGGTCCCGCGGCCGGCAGAGTTGGCCCCACTCTGCGGCCGCCGTGGCCTGCGCACCGACATCGATGCGACCTGCACGCCCCGCCGCGCAGTAAGTATCCGCGCCGGGAACAGCCGCGGGCCGCACGCCGCGGGCCGCACGCCGCACGCCTGCGCAGGGAGGCGCCGCGCACGCCGGGGTCGCTCCG
0.9566654127732137 AAATGCCGCACTACAACTTCCGTCGGGCTCCGCGGCAGGTCCCGGAAGTGCGCCTCAGAGGCCCTTCTTTCGCATACGGCCGCGCCCACTACTGCTCAGAGATTCTAGGAAACTTAGTAGGTAGGCTCTCGCGATAGCTTCCTGGCGCCGCGCTCTCATGGGTGCTCGCCCCCGGCGATGGCGTCATGCGCGGTGCGCAG
0.8055443545997469 atagatacgctgtttaacaaagacaaGGTAGTTGTTAAAGGCCCAGTAGGGATCACTTTACACAGGGAAAAAGCTTTGCTAGAGGAGACGGGGTTTTCCACCTGCTGCTTCTGGGCGGCCGGTTTGGAACGCAACGAGGCATTGTGCGTTAAGTGGAGACGTGGGACTCTCTGGCAGGCCCACCTCTGGCCAGGAGCCAG
1 AGGAACATAGTCCTTCCAGCAGTGGCAGTAATAGGTCGCCAGGTGGTGCTGTGGAGCAGAGCTCCGGAGCTCAGTGAGAAAAAAGGCGCGGCCGCTCAAGGGAGCACGTGACCTCGGCCTCTGGCGTGGGCGGTGGGATCACGTGATGAGGTCCGGAAGCGGCTGCCGGGCAGCAAAGGAGGATGGCGAGGGGCTGATAC
1 CTAGACTCTCCCGGCACGTGACGTGAGAAAGGGGCCGGGCTGGGGCGGGATAAGCCGCTTCTCCCCTCCTTCCGGAAGCGTAACACTGAACGTGCCTGCGCAATGGGTGTCGGGTCCGCTTTTTCCCAATCCGGACGTAATCGTGGTTTTTGTTCTGCAATAGGCGGCTTAGAGGGAGGGGCTTTTTCGCCTATACCTAC
0.8228896149069684 CGGGGACTGAGGCAGTGGAGAGCCCTGTGGGGTGCTGCTGGCACCTTAGTGCTTAACTTTAGCCAGCTGAGTTTTTCATTGTCTCTGCAGCCTCAAGTACCAACTGCTAGTAGTTACCACCTATTAACCCTgcggttctcaaacttgagcatgaatcctcatcacctccaagacttgtttaaacggattgtttgctagtc
1 CGGAGCTAGTGCACGGGGGCATGTTCTTCCCCCGCAGCCCTGGCAAGCAGAGGCCGGCGGCCTGTGGCGCGGGGCAGTTGTGCTGGCTGCCGGGCGGGGCTGCTCTGGGTCTGGGTGCACGGAGAGGAGCGCGGAGTGAAGCGCACGGTGCACACTGCGGGGCGCTGCTTGTCACCTCCCTGCCCCTCCCTCTGCCCTCC
1 GAACGAGAGCTCCCCCCAAACCCCCCACCCCGACTCCCAGCAGGAATTAAATACTCCCTAGTCCATCTGCTAATTTATGTTCTCTGGCCCCTCCCCTCCCTCTCCTCACCCCTCTACAACCCCAGCCACTCTCCTTACCACCCCTGCAGCAGACACTCCCCCGCCAGGACCTCAATCCTCTTGGCAGGCACAGCCGGCTG
1 GGAGCCGCGCGAGCGGGCGCTCGGGTCGTGGAGGGGGCGGTGCCGCGGGATCTCTATGGTCCCGCCCGCCCGCGGGCTAGAgcggccggggcggtgcgcgggcggcgcgcAGGGACCGCTGGGAGCGGGGCGGGCGCTCGCGTCCCTCCTTCCCTCCCCGACTGTGCGCCGCGGCTGGCTCGGGTTCCCGGGCCGACATG
0.7056631863590658 TTTCCTGGCAGGCTCTACGCCGAGGAGCCCGTCCAAATGGTTTGCATGTCTGCATTTTTTACTGCTCCGTTTAATATGTATGCAAATGCCGGCCGGCTGCGCCCGCCGCGCGGCTGCACAGTCACACGCGGCGCCCCATTAAAGCGGCCGTCCCGGGCGCGCGCCTCATTCGAGGCGACGGGCTCCGGGCCCTGATAGAT
1 AACCCTGAGAGCCAGAGTCCCTTCTTTTTTAAGGCCCATGAATTTAGATCAGGGTTTTAGGAGACAAGGAAAGGCTGAAGTGAAGGAGAGAGGAGTGGAGAAAGGAGAGGACAGAAGGGAGCAGGAAGAAACTGCTTAACTACTGTTAAGTTGCCAGTGTTTTCTCAGTGGAGTGTGAGCGGCCAGCAGGGGCTGCTGCC
0.8005998790276597 GCATTCAGACATTTTGACATTATCTGGGTCAGAAGGAACATTTAAAAGCAATAGCCCTACAAGTACCAAAGCTCTCTTACAGGCAAGCATCACAATGCATTAGGGAAGAACGAGGCCATCCCTGAGCATCTCCCTGCATTGGCCATGTTTTATGACATACCTGCCTAACCCAGACATTAATCTACTGAAGATGGATTGGC
0.5937253585079899 GCATGCCTATCCTGTTTAGTTTGAGAATCTAGCTGATCACTTCGCTAACCCAATTAGGGGGTGCAGGGAAGGCATTCATTACAAGGGCTTTGCTCTAAGGGACTGCATTCCTCCCCAGGCACTCTTGACCTAAGTCCACTTGAAGGCCGCAGCAGCGCAGTGCAGGAAGCCAGCCCCTCTGCTGAGTGGCCTGGATTCCA
1 CTTGAAAAGATGGTCCAGGGCTGTCCTTCCCTGTGGGGGTCATCTGGGGTCAGTGAGCAGCGACTTGGCTTATGCATTTCCTCCCAGGGCCCCAGACAAAGAGAGAGTCCTTGGCAATGCGGTTACCTTGACAACTCTTTGTGTTGGAGAGTGAGAGAGAGAGGGGGAGGAAGGCAGCTCAGGGAAGCGGGGTGGCTGCT
1 CGGGGAGGTCGGAAGTACTTTGTTTTTTATGCTAATGAGGGAGTGGGGCTTGTCCGTATTTACGTTGAGGCGGGAGCCGCCGCCCTTCATTCACCCACATGGTCCTTCGAGGTGCCGCCGCCGCCGCCCGACCTGCGCCTTCGCGCCACTTCGCGCCCTCGGGCGAGGCCGAGGGGGTGGGGACGACTACCGCAGCGCCG
0.4067484817072657 TTTTTAGAACAGCATACCCAGCGAAATCCTTCCTCACTAAAGAAGGAAATACTCAAGATGAATGCTGAGGCAGGGCCTTTGAAAGCGGATTTAAGTACTTTTAATATTGAAATCGTGCAAATTAGCAAAAGAATCGCACCTAAAAGTGGCCTGCGCTGGCCTGCCCCTCACCGCCCCCCAGCCCCCACCCCCAGCCCGCC
1 atccatgtcatcactttaacatgtaaggccctgcctgttcccttgtctctgaggtacgttttccttcttctccttcccagtggtggccttgcacttttgtgtctgaaaggactcatgctgtgagggacttaccctccaaggcaagccagtcaaaagtaccatccaaggaaaaattgtgtgctactgcctccttgtgatct
1 ccgccccctgccccgcccccgccgcccgggcgggggccgcccATTGACGTCGCTTTGACGCCAGAGCGACGCGCGGCCGAGCGCCGGGCGGAGGGAGAGCGGGAGATCGGGCGGTTGCCAAGAGACTGGCGGCTCTGACGCGCGCGGGATGAGGCCGTTGCCCTGGCGACCGCGGGCCGGTGACGTCAggggcgcccgcc
1 CCGACTCAGTGTAGACGTCGCCATCCCGGTTCCAGATTTCCGCGCTCCAACGCCTCCGCAGCAGCCATCTTGCCAGAGGGCCGACGCCTTTTGACTCTGGCGCCAACCCGTAGTGCGTGGTCGCCGCGAGGGGAGTTCTGCGCAAGTACGGAAGCTGAGGTTCCGCGCTTCCGGGAGGCCGTCCGCCCCGCCCCCTCGCG
1 CAACTGCCCCTGGGGGTGATGAAGGAACGAGCGGCCCCAGGAGACCGCCCAGGAGACCCGCTGGTACCTTCACTCCCAGGTGCCGGGGCGGGGGCCGGCACCCCTTAGCCGGGGAAGCGCAGGCCCTGCTTCTGGCCGCCAGGAGGCGCGGGGACGCCGGCCGGCCGGTCGCCTGGGTCCCTGCACTCACCGTCCCCTCC
1 AGAGGCGGGCCGCCCGGTGATGTCACACGAGCTCCGGCCCCAGCTGGCCTGGCCCCTCCCGCCCAGCCCGCTTTGGCGGCCTCGGCAGGCCCCCTCCTTCCTTGGCACGGGCAGCCTGGCCAGCTCTGCTCCCTGGCCCGCCCTCTCCCCAAAGCTCAGGCAGCTCCCGCGTGCTGCGAGGCGGAGCGCTTCCCCTTTGA
1 TGACTGCCTGGCACTGCCGCTCCGGCCTCGGGCTGCCCGTGGCGCCCGCAGGCGGCAGGAATCCTCCTCCGGCGATAGGTGAGTTGTCCGCGACCCTTCTCTTCCCAGCCGGCAAAGAGCGCGGAGCGGCGGCGCCTGCGCACAGCAGGAGAAAGTGCGTGGGGGCAGCTGCCCCCGGCAGAGGCTCGGGCTAGCGGGGC
1 CTCGGTCCTTAGTGAATGGTTTCCGCTAGGCAAAAGCAATCGAGCCATCGTAACATACTTGTGCGTCCGCCCAGAAATGTGGGCGTCAGCGTTTTTGGTTCCGTAACGTCGGCGTGCAATTGGGATTTAGAGATTTGAATCGGTTTACGATCACCACCAAATTGATCTGGAAACCAGTACTTCCCACGTTCTGGGTCCTA
1 TGGCGCCCTCCAGCTTTTTGTTGATGCTGGTGTTCCTGTGAACTCAAATGTGATTAAACATTTTGTTAACGAAGCTCTTGCTGAGACCATTGCTGTCATGCTGGGTGACAGAGAAGCAAAGAAGCAAGGTCCTGTTGCTACAGGTGTTTCTGGGGATGCTTCAACAAATGAAACATATTTGCCGGTATGGGGAATTTTTG
0.7655512069000524 CGCCTGACAAATTGTCCTCCAATGACTGCTGCTCTGCCCGCTGGGCTCCCACCAGCTGCCCCCGACCCTGGGAGGTCTTTGCCTGATCCCTACTTAAAGTGTAATGGGTAAAAGAGCTTTGAAATCAAACACACTAGGTTTGTGACTCAGCTGCTAACCTGAGATGCCCTGGCTTTCCATTGGAGCGTGGCGGGGGGGCG
0.5509651955382394 AGCATTTCCGCAATTCTACCCTTAACAAATTAAAAGTACCAATCCCAAAGGAATGGATAGCAGCTACTTAAAGCAGAAAGTGTCTTTGTATGTGGGAGCCAGCATACTTCCTGTGCTCAGCAGGCATGTGGTGCTGGTGTGGGGAACTTGTCAATGAGTGCATGTCGAGTGCCATCGTGCACTTCACACATGGAGGAAAT
0.2495739864015691 TTGCCCACTTCTAATCTGAAGGATTAGAAAAGGAAATTAAGAAGGAAACAATGAAAGCAACCCAGCATGCTAAATGTCCTGTGAGAGAATGGGCACAGCAGGATAGTAAGAGGCTGACAGTGAAACCCAGAAAATGAAGGGGAGTAGGCAAATACCGACTTCGGTGCTGGCAAATCTTTGCAACGTGGCTGACTCAATCC
1 CCACGCCCCCACGCCAGGCCATGACCCCCATATGGCTCACTGCGCAAGCTCACACCCAGTCCCAGGAAGCGAGCCCCACGTCGCCCCAGCTCTGCATTCACAGCCGCCAAGCGGTCCCGGAAGCCGAATGCCGGATAGGTCAAAGACAGCGCCGCTGCTCCGGCACTGCCGCCAGAGGGCGCGGAGTCGCCGTGTTGGCC
0.2587516198964385 GCCCAAAACCTTCACAATAACCATGGGTGGGCATTCATTGAAGGTCTCATTGTCATGTTTATTTACTCATTTCAGAGGTAGGAGGTTGCCTCTCAGCAACTCTGGGGATGAACGTAGATGCTATGAGGATTAGCAGTTGAAAGCTAGTGCAAGCTAACTGGTTGGGCTTGCAGGAAGCTGGCTGGAACCATAACCCAGCC
0.8633540096899297 ctactatctgtaaCCCAAAAACAAATTTCAACATCCCCTGTGCCCCCCCCATCCCCCGCTGCTCCCTGTgccccacaaccatctgaatggacttcctccttggccagggcactctaaaatttaacctgaaagactggttcaggccatgacaggaaacctcattattcccctccagcattaacattaacacagaccttaag
1 gagccacctgtaaaatcaatctgcagacataaataagcaagctggaagcttgcataggtaaatgccggcagctgtgcctataggaaaaggctacctgggggccaggtgtgttcaacatgggaggttccctcttcccttttctttgtaaccacatgtgaagtagaaaggcaggcaacccatgccagccaggtagagactcc
0.7162376719343343 ATCACAGTCTGAGGTATGTTTCACAGTATGATAAGAATGTTGCCTGTTCTGGCAAGCTTTTTCTATTGCTCTGGTCTACTTTCTATTGCTCTGGTCTAAGTCCAACATGAAAGGCTTGCTAAGTGAGCAGTGCAGGCAATTAGTGCTGCCAGTGCCCAGATAAGGGGTGTGATAACTGGATGGGCAGGATTCGGAGATCT
1 CGGAAAAACCCACGGAAGTCGTCCCCGGCGATTGGCAGGGGGCGGAGGAAGTCGCGGGCCGGCCAATCCCAGACTGACGCCGGCACGGACCGCGCGCGCCTCGGCCGCGACGAGTCGGCTCCGCCGCCCTAGGCCCTCCCTACTCCTGCGCGCGGCCCTCGGCTGCGCGTTTAAAACTCCGAGCCCTAACGTGAGGTGCC
1 GGCGACTGGCGCGGCAGCTCCGGCTCTAGCCTTTAGGCTCTGGCTGTGCCACGTCACGCGGCGGCCGCGGCGACTCCAGCAGCGGCCCGGCCCCTCCAACGCGGACAGAATCGCGTCACCGCCGCCCCATCCCCCTGCGCTTCCGGTGCGCCCGAGCCACTGCGCTTGCGCCTGCAGGGGATTGGCCAGTTTCGCTGACG
1 TATTTCACCTTAAGTAGCATGGAATTGAAGTCTGAGACTGTATCAGGCTGATTTCAGGTCTCTTTTGCTTCCCTTTGTGCCATCGCAGTAGGGGAGAATTGTCAAGCTGTGCTTGGCCAAGTTAAATGAGGAGACCAGATGGTCAGAAAGAAAGGAATTTTGGTTCAGGTTTAGGAGGAGAAAAGCTGGGGGCAAAACTC
1 aaaagcaccttcatcagaacaaaaaatcaggtgagcactcacactacctagttttaatatcctatccatgaaagaggcaatgaagaggtagaaaaaatctcgaatcgctaatgcaacccctcccccaccccccagcagtggcagggtgtggagagtgtttcagtgtgctgagggagggagagcacagcagttatgaggca
1 CTCTGACATACCACGACTCTGAATGAACAGGTGGAATTGATGGGGAGTGAGGAGGCTTGGAGAGAGAGCCCCCGGGTGTGAACCCATCCTGTTCTAACAATAATGAGCTTTGGGATGAAGAGCCTCCCCGCAGGCAGGGGACTGCTGGGAGTTTCTGGTGTCCCAGAAGAAGCCTTCAGGGCAGCTCTGATCAGTAAATA
1 CTGTCCCAAGGTCGGGGCCGGCAGGAGGCGCCCTGGAGGCCGCACCTCATGCCCGGGGCACCGGGAAGCGGCGGAGCCTCACCATGGGTTCCAGGTTCACTCGCAGGACCTGGCGCGCCCTGCGCCGCGCTGCCGCCAGGCTGCGCTCGCCCCACACGTCGCTGCCGACGCGGATGGTGGGGAAGGTGGTCAGCGTCGGG
1 ACTCAGCCGCTGCGCTCTGCTCCCTGCGCTCGCCCCTCCCCCGCACCCGCAAATGCAGCCAGGAGGAAGAGGCGAGGAGGAATGCAGGAGGCATTCCAGCCCCACCCCCGCAAGCCTCCTCCAGCGAGTTCCGAAACTACTGCTAAGTGGGCTGCAAGGAAGACAGTGAACCAGCTGGTGACTGTACTCCTCCAGGCTTT
1 TGATCTAATTACACCCCCTCCTTTTTTCCCCCTCTCTAAAAAAGTTAAGTCGCGGAGCCAGGGACTCCCAGGGTAGCTCCGTCCACTAAGGGCGGCTGGAGGCTGGGGAGTCCCGGCGACGGCGGCGGGGGCATCCGTGGATTAGGATGTGGATTGCAGGACAGACCTTTGTTTGGTCACATTCGCGACAGGGATTGGGG
1 CGTGACCGCCCACCGACACCAGCGAGAGTGCAGTCGTAACCGTCACGTGACCGCCCACCGTCGGCCCGGCGCTCCCCTCCGCCCGAAGCTAGCAAGCGGCGCGGCCAATGAGAAAGGCGCATGCCTGGCCCCCGCCGGCCTGCAGTCTAGCCGTAGTGCGCCTGCGCGCGGCTAGGAGGGGCCGTCAGGCGGGGATACAG
0.9213404938079628 GAAGCATTTCATTGCAGTTTCATTGACAGGGTGGTGTTCTGTTACAGTGGAATCAATAGCTCAGCGCTTCCCAGCACACCGATTAGCTTGTCAGTCAGGGCCTGGGGGAGGTAGTGTAAATCCCAGAATACCAGGGGCCAGGGGTTTGCAAACGGAGGAATGCACACAGGCCCCGTGGTTGTCTACCACCTGTTGCTGTG
1 CAAACCCCTCCCAGATGGGGCCCGCCCAACCCGGTAATCACGTCTCAACTTTCCCCCCAAGTGCCCGCCTCCGGGGCCCTTCCCGCCGGAAGAAAGCTTCTCCGCTCACTAATCACTCGGCGGCTTCCGGAGAGCCCGCCTCCTCGCTCGGCATTCTGGGATTGGTAGTTTTAGTCCAGATTGTGACGTCAATTTCGGGG
0.3234516703315453 AAGAAGCCTGAACAATAGAAAGTAAAAAGGATTAGGGGACTTCACATGGGTGAATCCCAAAAAGGCCACCCCAGGGAGCCTCTGGCCCTATTAGCATCCCTTCCATTCATTACATCCACTCTGCTTCCAGGCAGCTACCTCAGCTGAGCTAGCAGCCTCTCAGAGTAAGGAGGATAGATAGGAAGCGAATGACCCATGGC
1 GCAGCCCAGGTACTGCTTTGTCGCCTCCTGGATCAGCCCATCTGCCAGCATTTTAAGGTCCTTGGAGAAGCTGACATTGCACTTAGACCCGTTCTTTTCCTGGAGCAGCAGCTGGAATAGTGGTGCCTCCTGCTGGCAGCATTGGCCACTGCCAGAAACAGGGCCTGTAATGAGGACCCACCATGGGCCCAGAGAGGGAG
0.7294368484870315 GGGTCTGGAGGCTGAGCTGTGAAGACACCGCTCTGCTGGTGTTCTTGCCTGGCTTGAAGAATTGTCCTTCACGGATCCCCAAGGCAGCACTGGGAGAAGGAAACTATTTTTCAAGATGCATGCGCATATCAAATACGACTTCCTGGAGGCTCCTTCTAAGCCACTTCTGCATTTCAAAGAGGGTTTATTTATCCCATTAG
0.8059884321900236 cagaagccatatatctgccctgagatgagctggtggatcctcacactgttacccccagacccagggcttatataccacagggaaagacaattgcagtaatttgcttaacggcaggatttacggcaagtacatgctcttaagagtagattaagtagtaaccttagaggcattcctagaactggagttaatcagaagtcaac
1 ggtcttgcagccgtggatgccagcacctgctccagttgaagtagcaggggaatgaagtggactctgtgagggtcttttgttgtgtttagtgtgctggttttgtgttgattggcttccaatcaggaggtggcgcttttaagagtgcatcagctgtggccctataagtaggatgcaaacttgccctagggacacctggttaa
0.3767391102997321 ctttttcagcagaggaattcaagcaggctgtggagcaaccacttgccagagatatttgcataactaagaaggagtcaagtgctaacactcaagacaatggggtaaaggcctctaaggaatttcagagaccttcctggcatctcctcccatcacagggcccagaggcctagaagggaagaatggtttcatgggccagccca
1 GCCCGAGATTCCCCAGCGACGTGGTGTTGCAGCCCCGTTGAAGGAGTCAACTTGCAGGCTGTTAAAGACCTCAAGTCATTAGCATCAGCTGCTGCACTAAAGGGGCAAGTCAGCGCCTCTAAGTGGCTTAGCGCACAAACGAGGCTCCCGAGACGGCCTCGGCAACTCCATCCCCTCCTCCACCACCCGCTGGATGTGAA
0.7248238952459578 CGCTGAAAGCCCACGGAGCAATTTCCCGGGACCCCGAGCGACGCCATTACAGGAATGTAATTTTGCCCGGATGAGGCCCCGAGTTTAATTATCCTCGCGGAGGAATTTCAATGCGGCCAATCCATCTTGCAGGCGGGCGGCAGAGGGATTTATATGGGCCCGTTATTTCACACCGATCCTCCATCTGCATTTTTATGGCC
1 TGGTTGAGTGTGGGAAGTGTAGCTTTGCCCATCTAAGCTTCTGCCGCTAGGGGGCAGGAAGGAGGAGAGCAAATCCAATTCCCTCTCTGGGCTCCCCTACAGAACTCCCCTACAGTTCTGGGCACTGCCGGCAGGGGGCAGGCCCTCACCCCTGCATCCCTGTTAAAGAAGGGAGTGGGGAAAGCTCTTCCTGCCTTTCC
0.4247451839441114 cctgggatgatggggacagaggactattgcctcctggagtgtagaagccacatagaggaggtgatttagagtatgggctctggattggttagtttgcatatgaaagccgtttgctctctcaaagaattggctagccctgggaggggcagtctattctcagtcagtgaaaccccagatgccagaacatggagaatacagaa
1 AGCGACGCCAGGAGCCCTTCATCCTCCACCTCGCCGAGAGCCGCTGCTGTGGCCGTGGCTACCGATGGGATAGTCGCCGCGGTCGCCATCTTCCCAGCAACAACGTCACTTCCCTTCCGGACCACAAGGGGCGCTGACTCCGAACTTAGGACAGGAAGAAACAGGCACATTTCCGGTCTCTATGCTTTCTCATCCGGCCG
1 GTTGGTGACGAAAGGAGTGCGTGCCCGCTAAGGGAGGGGACGCCCCGGAGCGTACACTCATAAACCTGGTCCCGAGGCCTGCCCCTCACCAGGATGGTGCACGCGGAAGGGGCGGCTTTTTAGTGGCGCAAGGGGGCTGGTCGGTGGTAGTTTGGGGCGGTGCTGATTGATGGCgggcggggcggggcggtgctgattgg
1 AAGGAGCGCGCCTGCCTTCTCTCGCCGCCGGGAACGGGCTGCACCAATGGCCAGGTGAGGAGGCGGCGGTGGTCGCCCGGGAGGAGGGGGTGGTGCCGACTCCGTGTGCCAGGAGTGCGTCCCGGGGACGCTGCCTCCCCCGCGGCCGAGTTGGTTGCCGCCGGTTGCGCTGCGGAGGGTTGGGGGCGGAGAGGAGGCAG
1 GGGGCGGGTCGGGTCCGGGATTGCGGGGCGGGGTGGGGGCAAGGCGGCCTCCGCAAATCTCAGGGCGGCTCTGGCCAGTTTGGAGCCTGGGGTGACCCTTGGAGCTGACCTCGCTGGTCCCTGTCGGAGCCCTGCGCGCTGCGGAGCTTGGCGGTTCGCAGCTCTCGGGGTAGCATCTTCTGGAAACAAGCCCGGAGGCC
0.6825793236057821 CGGATAATTACCCCTAAATGGCCACGGCAGCCCCTTGTGTTTCCTGGAGATTAGAACCCCGCAGTCATCAATGGCAGGGCCGAGTGAGCCGCCAATCACCTCCGCTCACTCCCTGAGAGCCGCTGGCCTGGGCCGCAGGAGGAGAGGCCATAAAGCGACAGGCGCAGAAAATGGCCAAGCCCCGACCCCGCTTCAGGCAG
1 TGACGCGGGGCTGACTCCCCAGCTTTCACTTTGGCCAAGTCCCTCGCCTTCCTCCCCAAAAGAGGAGCAAATGCTGGTCCTCTGACAACACCAGTCCTCAGGGCAGAGAGAGAGAGACCTCGATGGAGAGAGAAACAATGAAAGGCCCCAGTCTTGGTAGGAGACGTGCAGCCTCGTCATCACCATAATCATCAACATCA
0.7472645105953015 GACCAAAAGGCTAACTAAACCGTGGTCTCATTAAGATTGAGCAGCAGATTTCAGTTCTCTTCCCAGTGAGGAATTGTTTTCATGAGTGTTTATAACGGGGAGAGGCTTTTCCCAGGAATGCTACTTGTGCCACAGCCTGGGAGCCTGGCTGCTGAGTCAGCACAAAGAGAGGTGGCCTCCTGCCAGCACGCAGAGGCAGC
1 CCTCCCGGTACCTCGTCGTCGCCCCGCCCCGCAGCCTGTAGAGGGCGTGGCTAGAGGCCAGTCCGTGCCCCGCCCCTCCGGCCGCGCGCCAGCGGGCGGAAGTGACGTGTGCCCAGAGCCATTTCCGGCGGCCCGAAACTAGGAAGAAACTTGGAGCTGTTCAGGCGATCCAGCCTCCAATCGCTGCTGCTCTTGTACTC
1 TTTTTCTCCAACTCCAACTCCTTCCTGCTGAGACAGCCTCTGGTTTGTGGGTGGAGAACAAAGCCTGCTCAGTGTTTGGCATCTGAAAAGACAAGGCTTCTTGCTGAGTTGAGGGCTTTGGTGCATGAgtgtgtgtgggtgtgtgtgtgtgtgcgtgcgcgtgtgtgtgtgtgtatgtgACTTCCTTCTGCCTTTATATG
1 taccttagcacactccaacacaatctcccaccaccactggccacatgagagcaggtgcttctactcatcatcacctacctgagggcaatcaagctcttacaattaactgccacctactgaactgaagcttgaactgcacaaccaaataaaaaacttgcttccagaagtgcatagtgctagtgcagtagataagcatcctg
0.2861632837629383 CTGAAGTGGATTTGACATGTAGACGAGGCTGTTAAGCCCAAGACTGAAGTCCACACTAGTTGCAGCGTTCCTGATGTCTGAGCATGTATTCATGAATTAGCAACACAAGTGTTTAATTTTCATGCAAGTGCTTATGTGTTTACTAAAGATTAGCATTTTAATTAGTCTATATTTTTCTCTTAGACAATTGACACGAATAC
1 CAGCAGGAAAAGGGTCCTCTAGCCCAGCAAGCTTTGGGGAGGGAGTAAGCGGAACTGCAAAAGAGCTCGCTCAGCTGTTTCTGGATTGGGGCGCAGAGAAAGAAATCGCGATCAGGGAACTGAGTACTGGAGTCCCTCAAAATAACCCGAAGGGTCAAATAGTGAGCTCCAAGCAAAGCGTTGACCCGGCTACCCCTGAG
1 AGTccacccccattccccccacctcctactccctctccccttcccccagtctcctccctccgctccGGAGACTGCTCGCTGGGCGGCGGGGCCGGAGTCGTCGCAGCCACCTCATTGCACAACCCGGCTTCCCAACTGTTTACACAGCCCGGCCTGTGAGTGTGTGTGTATACAGCGTGAGTCACCaggaggcggaggag
1 CTCCCCGAAGGGAGAgtgcaccgttcctggaagtactgcaataccaggtcgatgcgtggagtggacggagcaagctcctattccatctcctatttccaaaaatccatttaatatattgtcctcggatagaggacgtatcagatattaaactgataagaacagatactacacttgatcttagccaaaaggccgagaagcga
1 gagctactaggatgaatggctgccttgtgccacagctctacaggctttcacgtgtgtcatctcacgtgatcttctggggcgctggtgtctccgtttactagaggaccaatcggaagcttaaagagaatgagtaattggcccaagaccacccagctaaggagtggcggaggtggggcccaaacGCGCGATCCAGCCCTCGC
1 GTATCCCGCGACTATTGAAATGGACCAATGAAAGCGCTCGCGGCCTTGACGTCATTCAAGGCGACAGGGTCGCAGGCGAGTGAAGGGTAAACCAAAGGAAACTGAGCAGGGGCGGGGCAGGAGGGAGAAACAAACTGGCTGGGGCGGGAGAAAACGCCTGCGCGGGGCGGGGAGAGGTAGGATTTAGGGCCCGACGCTTC
1 gggactgatctgggttcgggctggggtggaggctgaggctgaggctgaggcggaggcGCAGCGGAGGTGGCCGCCAGGGGACGCTCGGGAGCCCCGTGGGCCGTCAGGCTGTGGTGCAGCAGCTCCTCCTCCTGGCTGGAGCCGAAACTGCACAGGCCGCACTTCCAGGGCCTATGCAGGATGTGCAGGTGGCGTTCGCG
1 TTACTCGAGAGCTAGCTGAGCGAATGGGCCGGCGACTGTGGAGTTAGCGTCCTCAATGTGGACGCCCTGAGCTCCCATTAGGAGCCGCTGGCTGCGGCAGCAGGGGACTAGCGTGAGAGGTAGGGGCAAGGGGCCTGGTGGGAGGTGGGTGTGGAGAGCGGCAGTGGGGAGAGTCGAACAGGCCCTAAAGAAAGCTAGGG
0.3419416054363547 GTGACTGGCATTTTCTGTTGCCCTGGAGACAGGCTCAAGACTCTGCTCCATTGTTTCAACTTAATGGGACAATACAATAGTCTAGTGTCTTTGGGATCCCGCTGTTTCCTGTGTCTTTAAATTTATCACTATAGATACTGGGTACAATTAACAAAGACTTTGGAAGGAGGAATCCTGAGAGCATTTGACATCACTGAATC
1 CCCTCCTCCAGCCCCAGCCTCGGGTCGGCTGAGAGATGACGCGTGGCCCGGCCCAGCCGGAGCGTTGGTCCCTAGAGCGCTAGCGCCCTCTGCTGGCCAAGGGCGGGCGTGCAGGCCCGAGCCAGAACGGGGAAGCCGGGCGCCAGGAGAGCGGGGAGGAGCTTCACTCTTCTGGTCGGTGAGATGGGGAAGAGCAATAG
1 cctccccctcccttcctcttccttctTTCGCTTTCGCGCGCCCAGCGACTGCTCGCGCCTGCTAGAAGGGCCCGAGCGCGTGCATCTGCCCCGCGGCCGCAGCTCGGCAGCATTTGCTCCAGGGGGCGGGGACCGGGAGGGGAGGAGGGGCGCCACGCCGCCGTCCAAAGTACCGGCGGACGGGGACGGGGGCGGAGAGA
1 CGTGGCCTGGGGCGCTGCGCTCCCTCACGGGTCCGGGAGGTGTCGCGCGCGGCCGCCAGCGAGCCCAGCCGCTCCCCGAGGCTTGCGCGCCTGCGCCGGAGCCTCCTGGGTTTCTGCCTCTTTAAACACTTTGAAATGCAATTCCACCCGAAACGACTGGTAGTAACATTTTGACGAAACCGAATCTCTGTTTTACTAAG
1 CTCCGCAGCGCCACCGCCGCACCGCCTCCTCTCCGGCTGCCAGAGCAGTCTGCGCCCCGCCGCCGTGCGCCCCGCTATAAGTGGCGCGGCGGGGAGGGGAGGGGGCGCGTATGCAAAGAGACCGACACCGGGGGAGGGAGGAAGCGCATTAGCGCGGCCTGTGGTGTaggaggaggaagaggaggagaaggagtgggagg
1 GAGAATTTCAAAATGCAATCACTGCTCTGGCCAGTTGAGGGCGGAATTGCCCTTCTTTTTGCACATACATCGTGCTTATGCGTTTGGAAAAGAGGAACCATCAAACCATCTGCCGAAAGGGGGCACTCAGCTAAGGAAGGAAAATGAGAATGGACAGGCAAATTGGAAAGCTGCAGCACAAAGCGACCCCAGTTTCGTGA
1 GCACTGTTGAAGGTTGGCTGAGGATCTCACCTACTGCACAGAAGTGGCACACTAGGAGTTAACTTCCTCACTAGTAGCCTGGCCTGGGGCTGCTTCTCCACCAGGAGGACACTTGCTGGTTTCAATTCTCTCTTGAGAATTAGTCTCTGCTACTATTGCAAATTAACTCTTTCTAAGACTTTCTTTGCACAAAGGCAGGC
1 AGTGCTAAGCTGGGAAGTTCTTCCTGAGGTCTAACCTCTAGCTGCTCCCCCACAGAAGAGTGCCTGCGGCCAGTGGCCACCAGGGGTCGCCGCAGCACCCAGCGCTGGAGGGCGGAGCGGGCGGCAGACCCGGAGCAGCATGTGGACTCTCGGGCGCCGCGCAGTAGCCGGCCTCCTGGCGTCACCCAGCCCAGCCCAGG
0.9788222107956137 CTTCTTCAGATGGAGGAATGCGTTTTGGGGGGAGGGACATTAAAGGGCCAGTCGCTCATGTTACAGCTCTTTTTAACTTCATGAGTACTAATGCCCTGAAGAGGTTTTAATGAATGCCCTCTTGTGATCAGTTCCTAGGGCAATCCCAGGTTATAAAAGGACTGCCCCTGCCTGTGAGGGAACTGGCCTGGCTTCAGTGG
1 TCAGGAACATTTTTACTGGGAAATTTTTAACTTTCTCCAACTACCTTTTCTGTGGCTTCTTTCCGTCTTTGTCATGCCATCACTCCCCACTGTTTCCAGGCTTTGTCCCGGGGTGACACTGCATGCCCCAGCCCAGCATGATCACACCTGGGCAGCACGATCTCATCTGTTTCCCTGCTTCCTCCGCCCCTCCTTGGTGT
1 AATACACTCATACAGCTAGATAACCAAAGATAACAACTCGCTTCCCACACAGGCCTCTGTCTTCCTCTTGCCAGACTCCAGGTCCTGATCCTTTCTGGCAGTACCGAAGAGTGGTCGTCCAGGATACTTGCCGCGCTTAAGATTCCTCCTTTTATGTAAATATGACCTGGTTTCTGTTTGTGTGTGTGCGCGGCTAAAAC
0.7008211723651584 TTTTCAAACCGTTTGCAAAGCGCGGCTCCATTGTTCGCCAGGCGCGCAGACCCCGCCCCCTGCTTTGTGTGCGGCGCGCGGATTGGCCGACGCGCGCGGGGGCCGCGTCAGCGCCCGCGAGCCCATTCATCTGTGCACTTGGGCGTTGGACCCCGCATCTTATTAGCAACCAGGGAGATTTCTCCATTTTCCTCTTGTCT
0.2287087362346482 ATGCAAATTGATAAATAAACACTAAAACAATGAGGCTCTGCTAATTCTCTGACAAAGGACAAATTGCTAATCTAACCTCACTGCCAGGAAACCTGCCTCAGTTGAACAAAGGCCGCATTTTCAGCGGCTGTTGTATATGTAAACTGGCTGTGCTGGTCAGTTAAGTGGATTTACTCTCACCTGCCTCCCGGGGGAGGGGT
0.3250036907680194 CTTAGCTTTCTCACCTAAGTCAACAGAAAGGATTGGCTTACTAGATTTGCTAATTATCAGCCTGAAAGACAAAAGGACCTCATACAAATTCCTGGGGACCATCAAAAGGATGAGAGACAATTGGGACATGATGCTGGAGACTTCTGCATGGGGCCACTGGCGGAGGTGAGTGCCCCTTGGGGAGATGTTGCCAAGATTTG
1 TGGAAAGCATTCCTATCATTGGTTAATTTCCTCCAAGGAGGCAACAGGTGTTGGCTCCAACCACTGCAATTGGATCACCTCCAACTACCCACTAGGGGGCGCTGCTATGCTGCAAGAAGTGGGGCAGGCTTGCGGAACTCATCCCTGCAAAACCATTAATACCCCCGGGAGACTGAAGTGTGAAGTTGTAAAGCTTGGTG
1 GCGAGACTTCCTTCTAGCTGCGCCCTCCCTCCTTCCCAGGCCTGCAGGAGCCCCGAGCGTAGGACTGGGCTGGTGCCGGCGCAGCAACGCTCCTTCTCACCGGCAGGTGGCGCTGTCTCCCGCGTGGACGGACAGAGACCCATCAGGCGGGGAGGGCCTGGGCGGTGGCGGCGCCCCCTTGGTGGGGCCGCAGAGCGGAG
0.7017803295634655 GAGAGCTGGTGCAGGAAAAGACTCAGCAGGAGTCATTGCAATGCTATTTGAATAAGTGATGGAGTGGGCCTGAGGGAAGAGGGAGTTAGGGAAGGTCACACAGGAGGAGGCCTGCCTGGGGACAAAGGGATCTAGGCAATTGTCTCCTGAAGCGCTCTCAGCCAGGTTTATGGTTAGAAAGCTAAAGTACTCTGTGCTAT
0.7402207802266388 ACTCAGTCTAAGGACACTTGGATTTGCATGTTTGCCCCTTTCACTGTTTCCTCCCCCATGCCATTGAAGAATTTTGAATGGTGAGGAATTTGTGCCCTTTGGCTCAGGTTGCAGGCCCACTTGATCAAGCCACAGAAGCCAGGGTCAGAACTATTCATTGCTTATCTTTTCCTTGGGCCACTTGTAAAGCCTGCTTTCTG
1 AGCTTCCCTCCCCCGCCCTGGCGGTGGGAACTTGATTTCTCCTTTTGGTCGCGCTTCGGGGGCTGGAGCTTGTTTCCCCACGTCGCCCAATGAGCGCCCTCTAAAGGGAACTGCCTCCTTGGCCTCCTCTCGTCCGCAGCTGCCTCCACCTGGGCGCCAGGAGCTCTGTCGGGCCAGGTGGAAGCTTGAGCACCCCAGAT
0.79196751325696 TTCTCTTCAGGAGCCTGCAGACAGGGGGATTTGCCTGGGAAGGAGAAGTAGAAAACAACGTGTACAGCCAGGCTACAGGGGTGGTCCCCCAGCACAAGTATCACCCCACAGCAGGCAGCTATCAGCTTCAATTTGCCCTGCAGCAACTTGAACAACAAAAACTTCAGTCCCGGCAGCTCCTGGACCAGAGTCGAGCCCGG
0.9741591333272487 aacctctagatctaactgtcagtttagagaaaatacaggcatgagagagaagggcatgttaaagaaaacgtagtcaccaaatccagagggcattaaaaagaatttacaagacaaacagccagcttgctcagtgacagatggcttgaaaggagtggggaggaacatacctttacagattaaaactatttaggaggcacagc
1 taaaagagtactgtaacacttctgggcctccaggggtcgcaggcatctccctagaaactgctgcggggccggtgcggagtttgctcctgctggtgcccaaaaacgctcgccccagctcctgcactcattcttctgcttgctccctccagcaagcagcggaatgcagcaggtccgagtgaatggagtttgcccctaccagc
0.1912539133453912 ccaggctgcagctcttgatgggctccattcacaccatcccctcagcctaggggtggtaatggcctcccactgctgctaaccccagggagcgtcatcattcctctttgtttcctgaaccctgtccatacctctataaatactggcttctttaaactttgtttcagctaaactctttcgaatatgccatctgtttcttTCTT
0.8897433469376093 GACGAGAGCTCCCCGCCGGCGGAAGAATGGCCTGGAGAGGGCCTCGATGCTTGCTGGGACCTGTAGTCTTGACGCATGAGAGCAACTGGCGCAGGCGCGCTGCTCGGTGGGGAATGTACTTGTGGCACTGAGGGGGATCCTCTGTCCCCGCTGGGTCATATCAGTCGGGATTCGAGCCCCggtgaccaatcgacccggtt
0.1599118568647077 cttaagtcacttaagttagctacgaccccagtgagggcagatgcaattgaaaggcaaggctagaagctagattacagtccattgaagagtaaatgACTTGTAACCTCACGAGATAGTTAACCTAGTCACTTAGAAAGCTATTGTATAAAACACAAATTTCCAGGAGTGAGGTTTCTGCTATTCTTTCAAGTGCCCACAGC
0.6559463582186571 TATATTCATGACCCAGCTTGATTGATGGAAGGACAGTGTTTGGTGACACTGTCATTTGCAAGTTGAAAGGTAGACTACAGGCTGGAGCCAAGATCAGATGTGCTTTAAAGAGTACTACAATAAACTCATTTGGATGCTGATGATGTTCACATATGCATTTCTTTGTTTCTTACTGTTTCTCAGGGACATCTGTTAATTTG
1 CAACAGCGAGGAGTCGCTGCATTTGCCCTTGTCGCCGCACTCACAGCCGCCAGCGCATCCTCTGCTACACCTCAGTGACCGAACGCCTGCCATTACCTACAAATCGCCCGCGCCCCAGAGCGCCATGGGAAAAAAAACCGCCGCTGCTCATGCGCGGGGCGGGGAGCGGTGGCGGAGGCCGAGAAGGGGCAAAAGCCTGA
1 CGCCGGGAGCCCCGCGCCTCGGGGGATCCCGGGGCCCCCCCTCCGCTTTCCCAGGCTTCCCCCACCTCCTGCCTGGAGAGCTGGGCTGGAGGGCTGCCCAACGGGGCGTCTGCGGCCACCCCGAGGGCCTCCCGCCCTGAGTGAGGACAAAGGGGGCGACCCCCCGCCCCGCGCTGACTCGGCTCTCAGAGGGCGACTGG
0.06976645161906705 ctcatgtggtcttaagattaacctttgatgtaccacgggtgcttaagtgccttttacttgggaagtccacaatgtcaattactctccaatggtgttgactcaagcttttgttagttaaacttactgaataaatgcaaatctccctagctcatggaggccaactgcagtgacaaacttctcttggtgtgtaggtggtcaga
0.9915064642016944 AACATATGGTAGCAAAGCATGCAAATCACTCAGAGCTCCTTTCTAACCCCGCCCCATTTTCCTCCACGCGTAACGCTGACGACTATAAAGCGCGCCGGAGCGCCAGAAACCGTCAGGGAAACTGCCCGGTTTGGACTGATGATCGGAAGCAAGAAGGCCCTTCGAGAATAACCAAAGAGTGAAGGGAAAGCGATAATTCA
0.9460511277997422 ATGAGAACATATCTATTAATACATTCGCTAGACTGGGGAGTTGAGTCGCTCAATGCAAATTTTCTTTCAAGTGCAAAACAGCTTAATGGGCTCGGCTAGCCTTTGGTGGTGCTGCAGTTAGAGGCTAGTGAAGCGGAGAGCAGCTGTTGCAGTAACCTGTTGCAGAAAAGTGAAAGTATATCCGCAACAGTTGGCTCTGA
1 GCTCTGGAATTCCCCCTGCTTCCAGCCAGACTCAATGAATCACACCTTCTCCCTGACCTCCCGACTCTGCCTCACAGCTGGGAAGGCTGTCCACCCCTCCCCCAGCCTCCGGCAGGTAAATTATGCCTGGAGGTCGGAAGCGGAGTGGGGCGGGGACAAGGGGTAGGGAAAGTGAGGGAGGGGGCAGATGGTGGGTGGAG
0.7373209870509205 caggcatgaggcactgtgccGGTGTCTTTGTCTTTTAAAACAGCTTGAGGGAAGGAAAACACAGTGGAGACTAATTCCCTCTTGAAAATAACTCTTTGCTGACTCAGCCAAGGTGCATTAGAATGCACCCTCCTGATGGGTTTGTTACCTGTATACCTGCAACAAGTTGCATCGTATTTGATTTGTACTTTCTGTGAGCC
0.8522122597673064 cgagggaaggtgccaggttctttttaacagccagctatcaaggaaatttatagaacaacaactcactcatccccaccccgcagggatggcattaacctattcatgaggtatctgcccccaagatgcaaaatacctcccattaggcccccatctccaacactggtgatcagatttcaacataaggtttgaaggaggtcaaa
1 AATGATACAGACGGGGAAACTGCGCTGGAGCAGGTCAAGCAGCAGTCGACAGCGTTAACCTGTCAGCTATGGGAGGAGGCGGTGCGAGGCGCGGGCTGGTCGGAGCCGCGTACCACGCCCCCCGGCCCGGGTGGAACGAGGACAGGTGCTGCCCTCCCGCGGCCGCTTCGGCGCAGTGCAACCCCGCGCCGCGGCTGCGC
0.4043568886943292 CCTTAGGGAATCCTCTGTGCctattgttatgctaaattctactgcttatgcaacagaatccaaaggtaccccttgctgcgttggtgcccatgtgtgataaaactcaattcttttgggtcctccactcaacaacctgtgcagcccaccccagctgcagctcctgaatggatgcttggcttcactttgggattttatgatct
1 TCAGAAGCAGAGCTGCGCGATGTGCCTTTCTGGGCTGCTCAGCCCAGGGCCCGAGACCTGCTTGCCTGAGGAGGGGCAGATGCACGGCGGCTGCACCCCGTGGGGAGGCCAGCATGCCTGCGGCAGCTGACCCTGGCAGTGCGAGGGCCCCCCATCCGGAGGCCGCAGCCTAGCACAGTCCCGGGCAGGACAGGGGAGAG
1 TAAAACCGACCCAAGCGCTAAGCGATCTGCCTAATAGAGGGAACGCCAGCTGAGACCAGCGCAAGGCGGGCGCTGGGTGGCGTGCGCGACTGCAAAGTCTGGCATGCCCAGGTTCTGCTCCTTGGGCTCCTGCTGCGTGAGCCGATCTGCAGATCCAGCAAAAGACCCGAGAGCGGCTTGAACGCCAGATGATTCCTCCC
1 GTTGATTCTGTGACCTGCATGCTGCGATGGATCATTCAAATGCACAACAGGCTCCTGAGGCCATCACAGGCCGCCTGGCTCTTGTCAGGCCCTCCTGGTGGGGAGATTTTGACCACAGTTAGCAAAGGATAGAGCAAAGGACAGTTTCGCTGTCTAAAAAGCAAAATCTCAGAACACCGGCAGAGGGCGCAAACGGCAAG
1 AATGGCGGCGATGGCCGCCGAGCTTCTCGTCGCCTTCCTCAAAGGCCAAGGATCCCTCCGCGCCTGCTGCCCCGCCCACCTTAGCCGGATCTATTTTCTGCCCCGTAAAGATTAACGCCATCAATGAACTCTTTAATTGAGTTCGGAGAAGGCGGGTCCAGTTGTGCCTCCTCACAGCTAATCGTTGCCAAAAAAGCGAG
1 caataggcctaggtttgaggccagggatctatatttttaataagatcccaggtgattctgagacaggcagttttcagagcacatgttgaggaatgctgGCCCCTAGCctcaactctggctatacattgaatcaacaggggagcttttaaaatctcaaatggccaagAGCCACCGATGAAGGGATTTGCAAAGTGTTGAGA
1 AAACATCCAGCCAAGTTTCTTTGTCTGAGGTTGCCAATTCCTAAATCAATTCCATTGGTAGAAGAACATCCTGGGAAGCAAGGCTCAGCGGTAAACTCTGTGAAACAATCATTGCAGTAGGAAGAAGGAGATTATCCTGATGAGGTCACTCAGGCTACAATTGCAGGTGGCATGGGCTCAGGGTCTCCTCTTTCCTACCC
1 ACATGAATATGGTGAGCAAACCTCCCTATCATTGGCCCTTTACCTGTGTCCTAGCTCATGGGCAATTGTGAAAGCCAGAGGGAGTCCCGAATCTTCATTGATGTTACAACTGCGGTGAGGCTGACACATTCCTGAAAGGTGAGACAGGCCCAGGGTCTCGCAGGGGCGATTGAAACCAGCACAGATGTCCTTTCTGAAAG
1 CGCCAGGCCCCGCCCCACACCAGCCTGCGTGCCTCGCCTCTGAGGGCTGCCGGGAATCCCGCTGCGTCCCGCCCCGCACTCCAGCGAACCGCGCCCATTGGCTGCGCTCCCCGGAGACGTCCCGCCCCGCACCCCTAGGTATGCCGGGAGCCAGGCCCCGCCCATGCGCCGTAGGGGCCGCTGGGGGTTCCGCGGCAGCC
1 CCTGAGATACAGGCACTACAGCAGCCAGGGATGGGGGGAGGGGTCCCTGATTCCCGCAGTGCTTACACTGGCCCTGCACACTCCCTGAGCAACTGGCAGGGGCCTCTGGGTCACCTCTGCTTTCCATCCCATCAGCCCCATTTCTCTACCAGAGAATCCTTTTATTATGTTAAAATAGGACGTCATTACTTGAATTAGAA
1 GAACTCCTGCTCCCAAACCTCCTCCCCGACCGCCCTGCTTACCTGGCGCCAGCTCCGGGCGCGGGCCCCGCGACCGCCATGACCTGAGACCCGAGGGACTCTGGAGCCCAGCTGCCCCTAGTTCAGTACTGGGTAGAGTCCGAGGAGGGGCGGGGCCCCGGCTACCACAGAGACGGCGTTTGATAGAGAGGAAGGTGCGG
1 CTGTCCTGCTGGGGAGCGGCCATGGGGCAGGTCCCCGAGCTGAAGTCGCTCGGCCGGGAGACGAGTACCCGCCCCGCGGGAGGGCCCGGACCCGTGCTTCCGGCGCCGTTGCCGGAAGCGGAAGTGCCCGCGCGCTGTCCACTTCCGGCCGGGACCCcggaggcggaggcagcgaaggcggagggggcggcgggggcggc
1 CCTTGCTCACCGAAACCCGCGCCCAGGAGTATGGCTGAGGCCTTGCCCACCCACCTGCCTGGGAAGTGCAGAGTGGATGGACGGGTTTAGAGGGGAGGGGCGAAGGTGCTGTAAACAGGTTTGGGCAGTGGTGGGGGAGGGGGCCAGAGAGGCGGCTCAGGTTGCCCAGCTCTGTGGCCTCAGGACTCTCTGCCTCACCC
0.3999149229158063 TGCCAAAACTCTGAGAGTTCTTTCATGCGGATTATGGTCTTGTTTACATATCCAGCTGTACTGAGGCCTTGTCCATGGTGGTAACCTAACAATGTTCCCAGTGGGGGTGCCCATTAGGGGAGGGGAGACTAACTGAAGTTTAGTTTGTTTAAATTGAGCAAGAATGCACAGCGGCACTCAGATCTTTGGGGAATGTGTTG
0.9288791606689363 GGTCTATCTTCACTGCGGATGGCGAGGTGCCTTTTGGAGGAGGAGGATGGAGAGAAAGGGTCTCCAACAGCGAACCTTTGTCCTGCAATGCAAATGAACCTCTGCAAAACAGGGCGCAGACAATGCCAGCCTAGTCCTCTGCGCGAAGCGATCCATCTGCAGCTATTTTGTTAACCTGATGTTTCTTACATTCTTTCTCT
0.7054921738792772 GGGGCGAGGGACAAATGTCTTTGTTAAACAGAATTTGTCAGTTTCCGCTTCAGGCCCCCTGGGGAGGGTTCAGGGCCAGCTAATTGAATTAAGAGCATGTGCGCTCCAGCAAGAAGGCTCAGGGCGGGGCGAGAGGCAGGCAGGCCGGAAGGCGGGCACTTTCAGCACCAAGGACAGCAGCTGCAGCCTGGCTAGTCAGT
0.5231161522418666 CAGCTCAGAGACATCTGCATGTGATCATCTGCATAGTCCTCTCCTCTAACGGGAAACACCTCAGATTTGCATATAAAAAAGCACCCTGGTGCTGAAATGAACCCCTTTCTTGAACATCAAAGCTGTCTCCCACAGCCTTGGGCAGCAGGGTGCCTCTTAGTGGATGTGCTGGGTCCACCCTGAGCCCTGACATGTGGTGG
0.2994620724834855 GAGTCGACCTCTTCTGATGAAATCACGCCGCCTAAGAAGAGAGAGCCTTTCAATGCCCAACAAAGGAAACACTTGGTTAATCTGAGCAAAATCAGGAATTCCTCAGGAAGAAAGGAAGAGGCAGATGGGTTTCCAGCTGGGTATTTAAGTGACTTCCTATAATGCAGTCTATAAACTGAGTCCAAAGGGCTAGGCTCTGT
1 gggtgttcagggaggcgagtgtggctccagtggattgacagggagaatgggagggagtgagcgagaatgcaggacccggtgggccacagtaaggacattgggttgtgctttgagtgaggtgggagtgatgggcgggtctgagcagcagcggggaatgctttgactgaagatctagcaagatttctctaactgccctgtag
1 AGTAATAGCTCAGAAGAGGAATGAGGAGTTTCTGCCTATTACGCCAAGTAAACCATCCTGTAACTTTAGCCAAGCTGGGGTCCCAGGTCTGGGAGTGTGTGATGAAGTCGTGCAGACACAGCGCCACCCAGTGGCTGTCTGGTGAGGACGGGATTGTTTGCAGGGATGAGTGCAAAATccctgggaactcctagagatgc
0.2654917173381005 TTAGAAACTCCTTAGCTCCCTTGCCTCTGGGCAGGTCTGTCTATTGCATTGCACAAAAGAAGAAGAAAGAAAGAGTAGAGAAAGGAATGTCTAGCCCTAAGCTTTCTTTTGCATTTGTATGCTTGGTGGCCTCGGAATCCCCCAAAGCAGTCAAAGGTAAATAATCCTTTGGTCTTTTCTTCCTTTGTTCTCTGAACTGA
1 GTATTGAAGATGGCCAGGTATTCTGGAACCTACTCTAAGAAGGCTAATGAAAATCAGCTGCTAAATTAGCTTAGTTTTTGTGAGGTGTTCAACACGCATGGCCAGTAGATGGCAGCATTGGATTGCTGTTTCAGAGATGCCTTCTTGTGCCATTGATGGCTTAGTTTTTGTGTGTTGTGTGTGCTTCTAGGTTTCCTCGG
1 CTCCCGCCAAGGCCAAGAGGGCTCCCGCCTCCCCTCCAAGCGGTGGAAACCCGCCCTCCGCCAGACTCTGGCGGTGGGAGCGGCTCCCCCTGCAGGATCTGCAGAGACGCCTCCTGGGCTTTCTGTTCTGGCCTCGCGTTTCCCGGGCGCCTCGGTGTGAAGGCAGCTTAGTGCTGTGCCCGCCCGCCTGCTGCTTCCCA
0.715629703683699 ctatgaaatggtctgttactcggtcatttcacaggtcaaaaagctgaggccacaggggctcccaggactctttagagcagagctagactagaactcagctgtctggactcctggCTAGAAGCTTTATCTTTCATCAGGAAATTAATTAACATGTGAAAAGCATGTGGAATTGTCCCTGGCCTGTGTTGACTGTTTTACAG
1 CGCCCGTCGGGCCTGGGACTGATACCCGGTCTGGCCCGGAACCCCCCAGGCGCGCCCCTAGCTGGGGCCCTGGCGACCGCCGCGCCGCAGGGGCTAGAAGCCGTCGAGACGCGAGCGCCATCGAGGCGCGCGGTCCTCCAGGCCTCCCAGAGCGGCGCAGCGGCCGTTTCCGGGGGCGGGGAAGGAACCGGAGCCTGAGA
0.3282398022452587 agaagggtgctgtaaggagtcgcagctgtgaccccaatcagccagcgaagctcgcatttattcagtatagattaaataacaaaggtcttgagtaaacaccaccagagggtaattgacattgccgacctcccgagtagagagcaattatatacccgcaggtaatcaaaggttggtcttaggaccgcatgagtaaacaagct
0.3366210235439782 CCACTCTTGGACTTTAACAACTCCATGCTATAGTCTCAGATCTCTGGCTCCTGATCATTTAACTCAAATCCTTTGAAATTCAAAGGAAAACCAGTCCTCTTTTAAGCACCCAGCTCTTGGAATTGAGTTCAAAGGCAAGAATTTAGCTCTTTGTTCTGGTTTGACTCTTCCCTTCCTCCTCCCTGCAGGGTGGTGCTGGG
0.3986490600713496 cacttacaataaaacctgacacatatcaagtggttaataaatgtcagctGCCATCAATTTCAAGGCACAGAGGTTGACACCGAGGAAGATTGGGGAACACTGTAGGATCCCAGCAGGGGGCACTCCTGAGTTCAAGAAGCAATAACTGGTTCCTGCTGGGTCCTACTTGACTATGGGGAAGGACAGTTGCCAATGATGCT
1 aaatggcagtggagagagaagatggaaccatataatgaagggccttctaagccatgccaaagtgtttggagtttattctgagagcagtggggagcctttgggggtctttgagtaaaagcagcagggatcccacttaCCCTGCTCTGGAGCAAATGGATTGAAGAAGGCAGAAGACAAAGAACAAGGAAGAGTCTAATGAC
0.1301009889905715 TTTGTAGCTGGTTGCTTCCTGGATGTTTGAATACCAATTGATTTGTCAGCAATGAGCCATTGCAGcaatgctgtcaaagtctggatccctgactggtggctgcaaactgtttattaacagcttgatgctcattaaggacattgagccagaatataagtcaactgtgtcactaagtgtgctatttagcatagctggcatta
1 GTGGCGCGGGCTCCCCCTCCCGCCTCCGAGCGAGGCAGCTGCTTTCGGGGAGAGTTTAGGTATAAACTCTGGGCGAAAGGAGGAGCAGCTGAGAGCCAGCgagggaagttaagcggagatgagagcggggagggagaagagggtagtaatagaggaggggcgggaagaagcgggggaggggaaaggTGCTGCGGGCGGGA
0.8953213324806681 agaaaaaAATCCCAAAAAACATTATTCATATTCACTTATAATTCAACGAGAGAGCAGGTCCTACTTAAAAAACTTTCCTGCAGTGAGGATCCGAAGAGATGAAGGTAAACATTCAACCTTCCTTTGTGCAACCATCAACAGTGTGTGATTCCTTTGATTCGAGCAGCAGCTGTCTTTTGTATTTTAAAAATGCCCCCCAT
0.528795948140608 tagccagttgagtacggaagggaagaatttagcattagaaaaggtttaaatcacctgaaacacatgcaaatttgctctgagctgtgtcacatgtagcaatcaggcaccacaaccagaaaagatagaaaaTAGTCGTTTAGAGtggcctgagcagaaacctgcagttgccacgtctttagctgctgcccaccaagggttcc
0.4372981326962402 TTCATTCTTTGCAAAACGCTTCAGGGATCCTTAGATGAAAAGAAGGCACGTACTGGTACAAGAAGAAATGACGCCTCCAGCCACCTGGGGAGAATGGAATTGCTTTTCTCTGCAGGAAAATAAAGTGCCAGCTGTCCTGCATAAAGGCCGCTGAAGGGATGGTCCCTATAGAAGTCAAGGCTTAGAACAGCCAAGCTCCT
0.4208252075238088 AATGGCTTCAATATACTGTATCAACATCACGGCAGGGGACCTATAACTGCAAAACAAACAGGTCTTCCTCAAAGGACAGTGAATGGTATTGTTTAACCTGCAGCGCCACCTGGTGCCCATAGAGAGAATTCCTGTGCCCACGCCATGCAGCAGCAGTTTGGTAGGCTTTTTGTCACCTATTTGAAACAATAAAAGCAACA
1 AACTTCTCATACGCTGCCACTCTTAGTCCTGGGCGATCAGACTGGTCCTCGGAGGAATGCAGCCCAACGACTTCTACATTTTAAAATCTGGTTTTCTGCAGCTCGTTCGCAGTTCTCCAGGGACCAGCCTCTCGAGAGGGGGCGCTTTCCCGGTGCAGGGGAAGCCGGGGCTCCGAGAGCAACAGAGGCGGCTGAGGCGT
1 GAGGGGCTTTAACCAACACTTCCGGGGAAGATCCCACCCCTTCCACTCAACGAGGCTTGCGATTGGTTTGCTCCGTGCGATATTTGAATTGATTGAAAGGTGAAGGGCCAGTTCAAAAGATGGGTGAGAGAGGGAAAATAGGCGGGACCGCGACGCGGGATGAGAAGGAGTGGAGCAGTCGGGGCGCTCACGTCAGGTGA
0.5411944118121476 CACCAAAGATTCAGTGGCTTACTCTGTAATGAAGAATTTCActggcctttgtccccagttcctgggtggtagcctctaagtcctggggatttcctgagccatagaagtggctttgttattcatgatgggccctgagagttcactcagaagggagattggtcatgccagaaagaccaaccatatgtttggatggttgagtt
1 CTGATTCCCGAGAAGGGAGCCTGCTTGCGAAGGAACTGGCACTCGGGCCTGCCTGAAGGGGGCGCTGTCCAGACAACACCCAGCCTCCCGTCGTGGCAGGCGCTGTCGGAGCCATGGATGATTGTGACCAATAGGGGTGGTCGCCAGAGTTGATTGTCCAGCCAggcccaggggctgagaggaggctgtgtggagaggtg
0.5212419894942759 CGCGCTGGGGAGGGGGCTCCGGCGCAGGGCGCGCAAGGCTGCCCGGCCAAGCCCCCCGGAACGCTGGGCGCCGGGTCCGCCGCTCCCCTCCGCGCCGGCCCCTAGCGCGCCCCGAAATAGCCGGCCTGCCAACTTCAAAGGGCCGCCCCGCACATCAAAGCGCGCGGTCCGCCCGGCCGCCTCGGCCTCGGCACTCACCA
1 GCTCGGGGTTGGGGGCGTCCCAGGATAAATGAGATAAATGAGTTAATCATCTCCTGCAAGGCAGCCACTTCAGAGTTATGTCGCCCGCCTGCGGGGACTAACGACTGCAATTAAGACGCTCCTTCTCGGTCCCGGTCGGGTTCCGTGCAGCGGGGAGCCGACTGTGAGTCACCCCGGCCCCGGGAGCCCAAGCAAAGGGG
0.369881361391376 CTAGCCACAGCGAACAAGCATCTGACTACATGGTAATGAGCCCTTAAAATGACAAAAAGAAGTGCTTACACATTCAAAGGAGTTTTAGCTTCTAAAGAATAGCCTTTGgttgaaagcatgttttgaactgtcttttggattgcgttcagagtcagtgtatgagacccacaagaaacaatgcctcatttaattacggcggc
1 AATAGTtgtgtgtgtgtgtgtgtgtgtgtgtgtgtgtgtgtggtgtTTAAGGGAAAGTAGAGGAAGCCTTATGGGCCACCCAGGGGGTAAACTCACAATGGGAATTCTAAATGAGGGCTCCTTAGCTGGTTGTGTTTGAAGCTCTGATCCTGACTCCCTTCCTTAGCTGCCATAATCCACCGATGGAGCCTTACCTCGAG
0.7275202957843764 CCCGTGGCTCAGTTGACTCCCGGCTGGACGGCACGGAGGCAGCTCGGATCCACAGTGTCTGCGGCCTTGCATCCCGGCTTGGGGGTCCGGACCCGCTGGGAACAGCTGGTTCAGATTTAGCCGGGGAGGCAGCGCGCATTCCTGGCAGTTTGTGGTGAACAGGAATGTGCTGGAAGGCCGGCGGCCgggcagcggggggg
1 CACCCTGCACTCCAAGCTCCAAAGCAAAAGAGCGCCTCTGCCCGTTTTACTGCTGTCCCTCTTCCCTCACAGTGTGGCCCAGGAAGCTCAGAAAGTGGCTGTGGCTGGAGCAGAAGGCCAGGAAGAGGTACTAAGCCAGGCTTTGGGGCTTTCTTATTTGATTATTTGGAATTGTCAGGAATTCCAAGAATGTTGGGACT
0.2344392651784054 TAGCTAACACTGTACTGTATTCAAAAGCCAACCAGTCAGCATGAACTTAATTACACTGAGGCATGAATGCACATTGCTTAGCCTTTGGAATGGGTAGCTTTCATaggcaaattgcctgttttctaatcctggctcactgcctgctagctgtgttacttaacctcttaaatttgagcaagttacttaacttctctgagcct
1 GGCATACGGGTATTCCAGGCTCTTCCTCCACCTCTGAATTGGCATATCCAATTAACCCCCCACAGTTGCTGCTTCAAACTCAAAGAATGTGTCTTCTATTCAAGAGCAGTGAGACAGAGCAGATTGGTCTGACCTGCGATCCGTCATCGCCTGCAGTGATGTGGAGGGACTCTTCGTCTTTGGGGACTGGTTTGCAGCCT
1 GCGGGGCTCCGGCCGCGCTGCATGTCCCATTATAGTCGCTAGAGGGCAGCGCTCTCCTGCGTAGGCTGGGCTTGCGGGGACTGGGGTCTCAGTTCTCCGCAGGCCTCAATGTGCGGGCTTGACACGCAGCCCTCGGATTAGCCCCGAAGCTGCACCCGAGCACCGCCTGCCTCCCGGCCGGGGCATCACGGTAGCAAGGT
1 TTCGTAAAATTACTTTCTGCATGTAAATAGGTGTAACCTCACAGAACTGTTAACAGAACTGTAGCAGGTGCGTAATCCACCAGAAAAACTCCAGCCtggcagcggtgggattcgaacccacgcctccgaagagactggagcctaaatccagcgccttagaccgctcggccacgctaccTGCACGAAAACTTACTGTCCCC
0.7338019241932087 AAGGGGCTTGGCCATTTCAGCTGAGAATAGCAGCAGTGGCTCTAGTCAGCTTTAATTAGCAGGGAGCACACAGAGAGGAACAATAAGGAACCAGAATTGAAAACAAATAGTAAACTAGAGACAATGGAGACAAAGAAATGGAGACAAAGCAAATAAGTAGAACCAGTTCAGAGGGCTGGGAAGACAGAAGCCACAACAGT
1 GCCCGCACGCCGCCGGAGACGCAGGGATCGAGGTCGGGGAGACAAAGAGCAGCCCGCGAAGAGCCCGGGCGGCGAGGGGCGGCCCGGCTCCGCCCTGCGCCCCTAACCGCCCGGGTAGTTGTCGGCACCGCCGGGGCGCCGCCGAGTGCGCGCCGCTTCTGTCCGGGCTCCCCGACCGTCGCCCGACACCTCCGCGGCCC
0.1962941428295678 tgtcagagcttgttagaaactcagcatctggggccacacccgagacctgctgaatcagaatctgcatttcagtgagatcaccaggggattcacatacacacaaacagctgagaaaccctgCTGTGGGCAACTCTGTTAGAAACACAATGAACAAAGGAGCCCCTGTTCCAGTTGAGCTTGTAGGTTAGAAACCAGGGTTC
1 ATTAAAGGTAGTTCGCGGTATAGCCTAGGCAGGGATTAACCCGTGGTCCCAGCGCTCCTGCTATTTGCATTCCAAAGCAGACACCTCATGCGCTCAACCCCGCCCGCAGGCGGCTCCCGCAGTCTAAGGGACCTGGCGCGAGTCCGGGAAGCGGAGGGCGCAGCTGCGCAGGGAAGGGGGCCGGGGGCGGGACCAGGGCG
1 ggctttctgccttttccttttcctcttccacaacatcttttgttccccactcctgtgcctgcatcaagatgaaggctttctcaggactcccaccatgctcttaatctctcttgtaagtacctggtgagctctgtggtgatcatgcacatacctgcaatttccccttctgactgcagctcccagggattctatgcactcat
0.7785486518327343 cagggcctggctctgaaatgagctcagtgcatattaatggatcaatGCCTGGAGGGACACACCCGCTGATCTGATCCTTTTTTAGAAAAACACGATCTGGTTGCCATGGCGCTGAAAGAGCGCTTTCTATACCTGCTGTTTTCAGGATGAGCAAATCACTTTCAGCTGACCACACTGTGGCATCTGGCCAGCAGGATCTG
1 AGACAAGATTAACAAGAAGGTTATATTTAAACTTCCAAGAGGCACTGCTGTGCCATTATGGGTCTATTTAAAATCCTCCGGGCAGCTGCAGTACATAATAACAAATCAGCAGGAGAGAGGGGGGGAAAGGAGGAGCAGGGAAGGAGGACTGGGGGTGGTCAGGAGCATGGTGGATTGTTTCTGAGAAAAATTGACTGTCA
1 GTCAGCTACGCGACCGCGGTCTGCCCCAGCCGCGAGTGCGTCCCCGGAATCAGCCGGCACGACAACCCCTACCATTTGCACCTGCGCAGTGGGGCGCGCCTTCTCCTCTTAACTCGCGGTCCCGCCCCTTCCGGCCAGTGTTGGCCAAAGCATTTCCTCTTTCGGCCTCAGTCAGCTagcggctgctaggtgcgggcacc
1 CTCTGGGAACGCCGCCTTTTCTAACTTAAGGGCAACAGGTGGTGCCGGTGGACCGAGAGAGAGCTCAGCTCCGCCGCGCTGGGAGCGGCAGTTACCCTCACCAATTAGGGAGCGGGGGCGGGAGTTGCATGGCTTCCCTGATGCGGGTGACCAATGGGATTTGGGATCATGAGTGGACCGGGAGGAGTGGGCGTGGTCGG
1 acagcagctgtacctggaagccatgtacattcagtatggcctctcctgccctcttttccttgtcaccccttttatgggtgtcatggcagtctccaggtaaaaccacgtgtacgagtatcaaggccacggccaggtggaagccacgtttgcataataaaagactaggatgggagggccagtcttttcctgggctatgtgaa
0.1251576020274073 ccaacaccagagccacacagattctcaacagcctctcagctggaatctgcttaagcctaccaagctcctgcagggaggggcaaccagcaccacagctgtaactgcgtgctctgtaagcagtttgagctccttgggggaggggcagcagccagcactgggactcacagccgcctaacatgctaagctccctgggcggggga
1 GGAAGTCCCCTTTCTTATCTGCAAGTCAGAGGAGGGTGAGTTCCCCAGGCTTTCAACAGGTACTTCCCCCGGCAGCGGGAAGCCCAGGAGCCCGATCAGGACCGAGGATCTCACCCCAACCCCTGCGTTTGGGCCCCGGGGTCAGCTGAAAGTTCCCCTGGAATAAACACTTCGGGTCCAGCATGCCCCTCTCCCCACTC
0.9242665672440726 GAGATCTCTCCAAAAGGTTTCAAAGAGGTGGAATTCGAGACAAGTTGGCTTCAGAGAATCTCTCCCTCCCCCCAGATCTCCAGGACAAAAGCTCTGTTAATATGCACCTCTGTTGGGGGTGGGCTGGGTAGGGAGGCAGGCAGAGGCTCTACAGCCACCATCCAACATTTGAGCAGCTTAATTTGGAGCCCGGGGTGGAG
0.5498667879688567 TGCTGCATCACAAACATTGTGAGTGTCATGGGAACCACTACTGTGATACACTGGTACAACACTGCCCCGCCACATCCCTAACTCAGCTGGGCTTTTCCTCCTGCATTCTTTGGAGAAGCAGAATGGAGATTTTTTATGTTAGGTAGCCACATGGATTCTCTCCCTTTGTTTGCACATTCCTGGGCTCCAGCTTTGCAGCT
0.9897577622030875 taaacattccagagccactgggagTAAGGGAATACATGGGTGCGGACAGAGGGGATGCTATTTGAAATCCAAAACATTTGTGCCATTTGCAACTCAAAGCCTGGCTGGCTGAGCCGCTCCTGGCTCCTCGCGCCTCTTCTTCGCAGGCATCCCACTGCTCCAGCCATTTGGTCCTCGGCCCAGGCAATACCCCCACCTAG
0.5983926694780703 CATTCATATGCAAAGAAGTTCTTGTCTTTCTCTCTCTCAAGTCATTGTTCAGTGAGGAGTCAGCTCCCACATGCTCCTCCTATCTGGGCTGCAATCAGCACAGTGAGGAGAGGAGCGACAGAGCACATGATTATGACCGGGGCTTGCTGCTGAGCTGCAGGGGTTCAGAGTACTGCTACCTGTGCAATGGCAGCTTCCCC
1 TGCCAGGGAAACCGTCTGGGCGTCCCTAGTATCTGAGCCCTCGCGCCTGGGCCACTCAGCTCGACCTCTCTCCAGCGTTAGCAATAGGTGGAGCGCGGGCCAATCGGAAGAGGCCGGAGGGGCGGGGCGGGCAGTGGCCCTGGGAAGGCGGGTCCGCGGCCTCGCTCCCTGACTTCCGGGTCGCGGTGCTTGAAGGGAGT
0.8748462045861404 tattcacagttccttgccacgtggccttctcacagaccctctcagagcacagcagcttttacatcttcaagatcatcagcaggagatctgtctcctgctgcttctctcttacctcgagactgtctttcaaaggacttacttaattaggtcaggcccacacaggataatcttcccttgattcgctcggtgaactgagtaag
1 TGGGGGAGTGGGTGGGACTATAAAGTCAGCCGGCTTTGACTGCTGCCCTGTTCTGTGAGCCTCCTGGAGGGAGGACTCAGCATCTCAAAAGGGACCACTGAGAAAACAAATGCCCAGAGGCTCCACTTGGGGCGAACAGGACATGATTTGCAGGGACGGTGAGCTGTCGGCCAGGACCATGCCAGCTCACCGGGACCCTG
1 CTCGTCCGCCCACAAGTCCTTGGAAAGCGCAGGCCTCGTGCGCTCTCCAGCGCCCTTCCAGGGCGCAAGGGCAGGACAGGTACATCCCGCGTGCTGCGGTGGCGATCAGCGCGGACACGGAGCCTGGCTCCACCCGTCCGCCCAGCCTTGGGGTTCTGCCAGAGCGCCGGGCGCAGAGCAAGCGGGTCTGAGCTCCAGCA
1 TGCAGGGTAGTGGTAGACCTTGCAATGCTTTGTGGCCGTCCCCAGGGGATAGGGGTAAGCTCATTTGTTGACAAGAAACAATTTAGAGAAAACACTGGGCCACCTGTGGGCAGAATCTATTTAAAAACCAAAGGCTGGCCCAGCAGTGGAGATCTCATGGCTGCTGCTCTACGCGTGAGCTGTTAGTTGATTTAATAATA
0.2973428284915188 AATGTCCAGATTAAATGCAAAAGCAAAAGCATTAAGTAGCTTTCTGGCATAAACATATTGCAGCTGggtagcgtggccgagcggtctaaggcgctggattaaggctccagtctcttcgggggcgtgggttcgaatcccaccgctgccaGGGTTGCTGTCTTTTTGTCCCCGCTGCATACACTCCTGGCTCAGTTTTGCGC
1 ACAGTCTCGGTCCCCCGGAGCCCGGCCCGGCAGCCTCGCACTGTCCGCAGAGGGACTGAGCACTTGAAAAGCCCACCGCGTTCCGTAGGGCGCCCCGGCGGGGCTAACTTGTTCGGCTGCGGGGCACAGCTTTAGGGGAACTGGGCTAGCAGGCAGGGGCCGGAGCTGCGCGCCCGCGGTGGCCAGGGCGGTCGCCGGGT
0.4453857973260237 tgaaacgattggccattggtgatcaactcaacagttcagcaccccctccactccccagaagttgggggtgggctgaaaaccccaaccttccaatcatgccctgctctttatggtgaccagcccccatccggaagctacctagggcctgccagccatcagttaacattagcataccaaaaaaatcactttagagatttagg
1 GTCCGGCGCCCAAAAAGCCGCCCGGCCTCATGCTGCCCCCATTCACTCCGACACCGCCCCCTGACGTCATCACCCCGCAGCAGCCAATCGTGTTGCCAACTGTTTGGCGTCCACCGCCAACGTCCAATCCGGGCCGGGCTACGTGGCCGCCATGCTTCTGAGGGGCGGAAGCGGCGAGGCGGTGGCCGAGTCCGGGAACC
0.8556805224220857 TGCAGAAAGGACCTCTTGATATGGAACCCAAGTTTGCATCGTTGTTCTGACCTTTGGGAACACTCAGGACAACTCTGTTTCCCTTCCCAGCCCTTCTCCATCTGCATGCCAATTGCTCCCTCACTCTACCCTCCTCCCAAAGGAATGCTGTTTACTCCAGGGACAAACAGCCCAAGGCAGGATTCCCAGCACCCCTTCAT
1 CGCCTGCGCCCTAGGCCCGGGGAGGGGGCGGAGGGCGTGGGCACGCGCCGTGTTTGCGAGCTGGTGAAGCTACGTGAGGCGAAGGCGAGGGGGTGGTGCCCTGGGCGCCAATGAGTTCCCTACGGCAAGCGTCTAGCCCCAACTGGGGCGACTACAGGTCCCGACGCTCAAGGTTGCCAAAAGCCCTTTTATCCTAAAGT
1 TCAGCGCCCCTCTGGCAGTTCCGGATTTGCAGGGTCCGAGGGAGAATACATCAAAGTGATGTCATTCATGACTCCGAAATGGTTACCATGGCGACTATCAGACATATTAAGCTGTCAGGGAAAGAGCCTGTTTAATCCAGTCTTCAATCACGGGTTTCCTCGGGCGTTAGCCACTGCCTGCGGAGTGTGGACTGGCAGAA
1 TCTGGCTCAGGAGAAGAGCGCCGCCAGGACCCCAGGAAGCTGCAGACAGGAGCCGCTGACACCTCCACCTCACGCGGACGCCACCTAGTGTGACCATTACCAGCCACTGCGCCTGCGCAGACTCGGGTTTTCTGTGCGCGCCAGAGGGGCGGGGCCTGGGCCGGGAAGGGGCAGAAGTAGACCGACGGCTGGGCCGCCAT
1 TAGTCCTCGCCCCCTCCCCCTCTCTCCGGAACCCGCGCTCTGCTCCGGGCTCCCGGGCTTCCTTCCCCCCTCCTTTTCCCGAGCAATGCCTCTCCCGGAGGGCGGGGCATGCAGTTATCCAGGTTgcggggccggcgggcgggcaggaggcggcggcccgggccTCGGGATGGAGTTGCAGCGCCCAGGCGTCAGAGGCG
1 TTAGAAGGATAAGAGTAGATACAGGCCCAGTGGAGAAGGGCCGCAGACCTAGTAGCAGCATGGTGTCCTCTCCTAAACACACACATGAACTGTTTCATGCAGCAAGGACACAGTACAAACCATTTGGTCTATCTGCTATCTATCCTTTCTTGAATACTCTGCAGTTTTCTTAATAGCTATTCGAAGGAGATACAGCATTC
1 TGCATGTCGGCAGGGGCGCCCAGGAAGTCGGGTCCCTCTAGCTCAAGCTTGTTTGGGCTCTTACAGCTTCAGGCCAACAGGGGGCTGGGAAGCTGAGCACTTACTCATTCCGTCCCCGTTGGTAACTAGGGCTGGTAGACGCGTCCAGACTGCAAACAGTATTTCATCATTTTGTCTGTAGCATGCAGCGGCCAAAGCTG
0.5480293557084612 CAGGCCCTTCAGGCTTGTCCCTGCTTGATCTTACTCTGGTCTCTGTCACCCCCCAGTGGACGCCACACTCAACTACAAGCCTCGCCCATCAACGGCCTCTGAGGCCTTAGCAGGTTTTTGCACCTGACAAGAGGCGCATCATTGCAGCAAAGCGCTCTAAGTGCTCGCTCTGTGAGCAGCATTCTACCTTTACACTTTCA
0.7406824067672118 GTGTTGGAGCCTCTGGAAGCATTTAGTTTGGCAAGAAATGCCAGGTCAACTTTTGCCCTATAGGAATCCCTTTCATAGGCAATTAAAACAATGCCCACCCTTTGGGACTCTGAGTGATCTCAAAAGATTCATTAAAAGTCCACAAATGGAAGGAGATCAGAGGACCATCCTCTCACTGACTGAATTAAGCAGGTAGCCCC
1 ATCTAGAGTGACTTGAATGGTGCAAATGCCAAGCCAAATCAGTGGTGGGGGTGCAGGACCTTGCAATACCCTTCAAGCACACGCAGACCTGCCTGGGCATGTGATCCCATTCTTTCCCATGTGTTTACAAAGTGAGCAAGGCAGGGGGTCTTCTTTCATTTTGTTATAAGTAGCTACATGATTATAAAACGGGATAACAG
1 GAGACCGACGGATGGGGCCGCCCTAACCTCAATGAGGCTCACGGGTGAGTCACTGGGAACATTCCTCGCCGCTCGCACGTCCCCGCGCCCCTGCCCCCGCCATTGGCCGGCCGGCTCGGCGGCCCGAGCCCGGATTGGCTGTGCGGCCCGGGGCGGGGGCGTGGGCGAGGAGGGGGCGAGGCATGTGAACAAAGCGTGAT
1 TCTTACAGCCCCGGCCGCTTAGCCCTCCCGGCGGGAGGCAGAGGGGTGGGCGGTGCTGGCAGTGATGAACGACTCCAGGGGGGCCCGTGGCCCCGAGCGCGCATTCATTACTCGACTGACAGGCGGGTGGCGGGCCGGGCGGGCTGCGAGTGGACGTGCCGGGAAAGAGGCCAGTAGCAGGAGGGGACTAAGGCAAGCGT
0.2627170793133237 CTCTCAGAGGCCCAGCCATCCCTGGCAGGATGGTTTCAATCACTCCTGCCATCCAGTCATCGCTGACACTTCTTGGCAGGCAGCCTGCCTCTAATGGAATGTGTCCTGCAGCTGGGAATTAGGTCATCAGTAATTTACTTAATAGCATTTTATGAGCTGGGCTCTGACAAAAGAGAGTGATCTGGCCTTAACAGCAGGAG
1 AACTTGAAGCTTACACCCTCTTCACTTTGATTTCCTCGTTTGGACAATGGGTTCATTGATAGCCTTGGCCGGCTCTTGTGGGTCCCTCCACAGCTTCACTCTACACAGCTGGGCCCTGAGCTCTGCTGGGAGCTCTCCCTGGTGCTGAATGTGGCAAGAGGATGCTGGCCTCGGACAAGAGGTCTCTGGCCAGGGAGGGC
1 CATTGTAACATGGGCTACAAAAGCGGCCCGTGAGAAGACAGGATCCAGCCTCCCTCCCTTCTTCCCGAAGGCTGCACTTTGGAGGAGGCACGGTGGAGCCACACTGGCCCCAGGTGgcaggaggcagaatagcagcttccaggctctggcctcacttcccgctctgctcttcctcccttacgtgctttggagaggagtga
0.6725809395839437 AAGGATCCCAGTCTGAAAAACACCAAAACAAAAGAGTGGTTTTACAAGCTCTGCCAACTCTCAAAGGCACAAAGTGTGCTATGTGGCAGGCGCCACAACCTGGCAAACAGTAGCAGGTCGGAGGAGAGGCTGACTGAGTGGCCCATCAGGGAGCATTCATAGCTGCAGAGTCCACAGACTGCAATTTACATGCTTGCTGT
1 GATCAGAAGACTGCCACCGTGCTTGGAGAAGAAAGAAAGCCGCGCGTGGCCTTCGCAGTGCTCGCCGGGACTCGTAGTTCCAGGTCTGCGGGCTCCTCCCAGGCGGGGATCTACTTCCTCTCTCGGCCGCGGCCGCAGCACCCGGAAGCTGAGGGGGCTTAAAGTCTTTCGCTTCCTTTCCCCGCCTCTTAGTCCCGCAG
0.9299632146231086 ctcttcTCCCGAGAGGCGGCCGGGCGCAGGCAGGGAGCGATCCCAGCTGCCACTCCAGTCTCCTCTTTTTCCCTCTGCCCGTCTGGCACGGGCCTCATCAGCGCGCAAAGCTGTTAATGTCTGGTCTCACAGCTCCCCCTTTAGTCTTGCTGCGCTCCATGTCTCACGTTCCAAGCCGGATCAATAGCCGCCTCTCGGCC
0.4865238769904773 ggagatatttgcatgggtgaaagagagccaactgctaacattaaagacaatggagaaaaggctttgaaggcattttagagtccttcctggcagcccctcccatcacagtcccagggccctgctgctctaaatagcctctggagggtgttcccaacatcccagctgctctacctgtagctcaaaggggcccaggtacagct
0.747710967150459 CAGGTAGGAGTCTACCTTCGAGAGAGCATGGATTCAGGGTTTGCTTTTGTAATCTGAGTTTAGATCCTTCAGGCACTCAGCATGTTGGCAATCCCCTGTAAAACGGTATCAGCGGGGGACAAAGTAAAGTAAAGCGGATTGTATCTGACAGAGCTCCTTAAATAAGTTGTTCAATTGACGGGAGAGGGTAGGAAGCCTTC
1 GTCAGGTGGCGGAGGTCAGGTGACAGCGGACCCGCCTCTCCCAAAGTCTAGCCGGGCAGGGGAACGCGGTGCATTCCTGACCGGCACCTGGCGAGGCTCATGCGTCCCGTGAGGGCGGTTCCTCGAGCCTGGGGGCGCTCAGGTGAGAGCGGACGCGGCCTCCCCTGTTTCCCAGGCGGACCCCTTGAGGCACAGCAGGT
1 AGCCTCAGCCTGCCCCTTTCTGGCCCCTTTGGGCCTCGGTGATGGAAATACACCATAATCCTTGACAAAGCCCCCCTCCTGGGGGAGGAGGCCCCAGCACCATTGGCGGCCTGAGCCCTGCAAGGGTGTGGCCAGGAGCCACCCCCACCCCCGCACCTGACTTCACACACATACCTGCCTTCAGCGCCTGCCCCAGAGCT
0.473880296863706 cctaaactgaagtgttacctggccttctgagaaatcaggagagaaataacagccaatttcccaaacatgccagttttgatctttaattatcatgacaatgaggttcccctctgctttaatctgtaCACAAAAGAATTAGCCAgctgggcatggtggcttactcatgtaatcacggcacttcgggagcccaaggcaggcag
1 GTGGCGGTGCGCGTAATTGCAAGGCTGTGTCGTCCTGTGTGGGTTTAATTACTGAATTCCGCCTAGACTGCGGTGCGGCCTTCATGTGCACGCCCCTGCCGCCGTTTACCGCCAGGTGGCAGCGTAGACCAAGTAAGGAAGCCGGCCCACCCAGAGCTGGGAACTACAGGGGTGTGCTTTGTGGCTTTCAGACTCACAAA
0.4268060625097399 GACTCTGATCCCCACCCTCCCGAAAAAGCTTTGGTTTCCCCTCCCTAGTCTCCATTTAACGTTGACAACCCAGCGGTGCTCCCTAATGGCCCAGCAGGTTGCACAAATTGACAGTGAGCTGAGATATTATCAGGACAACACCCCATTGAGCAAGTTCTTGAAACGCAGAAGTGGAGGCCCTTTCTCTGGGCCACTGGGCG
1 GTGATTCGGATGATGCAGCTCTAGGTGGATTGACTATGAAAGGGTGAGCCTTCCATCTCCTTACCTTCTCTCTAGTTGGGGTGCCTGTGAAACCGGCAGGCTCTCTCCAAATGCCTGGATTCTGCTGGGGGAGTAAGAAGTCAGGAGTAGTTTGTCTGATGGTATTGGGATCTGCTTTGCAATTGCCAAGCGCTAAGGCA
1 CCTCCGCCGCATTTTTCCATCTCCCCTTGAGTGAGTGGATGTCCCGTTGCCTTTTCTCAGCTTTGCGCGACGTGGTCCCACAACCGTTGCCTTTTTAAGAGAGGCCCGGCCCATCCAGAGGGGGTGGGGCAGAGGCGGAGTCTGAGGAGCTGGGGAAGGAACAAAGCGAGGCCTgcgggcggcggctgggctccggcggg
0.2797666541009252 TGGTGATGATTTCAGTGAAGTGAGGCAGATTATTTTCACACTTCCCAAAAGAGAAAATGCTAATCACGATATGCATGAGAAAAGCATTGTGGATCACCCGAAAACATAATGCTACTCAAAACATCTAGATTCTACAGCGTTCTTGGCCAGGGTTGAAAGGAACGCAAGGGAAACATTAGCATCTGAATACGTAGAACAAT
0.2891580885815651 agctccaaacagctgccttaactgactgagtcttgcagtgacccatgataagcacttggcatctacctctaaaggctctgccacatcaaagactcttcctttggagagtccatttggagaccaatggaccagaccaggaatccttttgtcttctttgctcccgctgggacttgctcattaaccctttctcctatctcttt
0.8717400762707617 ggcctcactgaaatagtaactgaataagtaactgaagcaggaggaaagcactctatggatacctgaggaaaagcattccaaggcattccatagcaaatgcaaaagtcctgaagacaaaggcaggcctaacacactcaatgaaagtgaaaggcaaaaagctcaccactgccgaaccagagtaatctagaggaatgagtTAT
0.2097898282939258 TTAGTCTATGAATGGCTTAAATCAATTTGTTTTTTTGCTCTAGTATTTCCTGTTTCTCAAATCAAGAGCCCTAATGCATCTCAATAGTTTCAAAGTAGCCATTTGCTTTCTTTCCAAAGAGCAGTCATTTACCGCCTGCAGGTTTGTATTAACATAAACTACGCAGACAGCTTTCTGTTCTAGCAAAAAGCCTCTCTATC
1 atgtcacctctgcctgcctgctccatcacctctcctaacaacctccatctcgaccccctgttggcttcttttgaaaaattgagcacagctattgttttactaatctgtttttgcacttgtcctttatctatggccatctagaaagcatgcttcatgaaagtaggggccttggccattatattcccagtgtctagtacaga
1 GCCATCTGGAACTGGAGATGCAAAGCCACATCCCATCCCTGATCCGTATGGCCCAGGCCCAGCCTGGGAAGGTGTGGGGTATACTGACTGCGGGGGTCCCATCACTTCTCCTAGAACGGGTTCTCCGCGCGCTGTGCAGAGAACAATACTGTCCTCTAGCGCTCAGAGATCAGAACTGGAAATCAAGAAGCTTGTTTTTA
0.4378129739446595 AGCACCGTTTGACAGATAGAGACATTTAGTATGAGGACGGAATGTTCCAGAAACCATCCAGAATGGGTTCCTGAAGTTGTGGCGTGTGGCTTCCCAGGAAGGATTACAGACTCAGTGCAATGGATGGATTTGTTATGCTAATGCTTCAAAATGGTTGGAGCTGATTAAATGAATTTCAGAGGCTTCACCAGCAACCAGTG
1 GCCCCTCTCGAGCCTCCTCCCCAGGGCGTGAGTTCTGACCCCAGCTCCTCCCCCCATCCCCACTCCAGCCCCCTCTCCAGCTTGCTCCACCCTCTCTACCGCCCACCGGGACTGGGCATTGTCTGCCAGTCCGGGTTTCTTCCTGGGATTTGGGATGCAGAGAGGATGGGTTTGCTTGGGCGGGGGGGTGGAGAGTGAAG
1 TAGTGGTTGTGCCAATTAAACTAAATGAGAGTTACAAGGAAGAGATCTGTTCCACAAATTATCTGAAAGTAACCCAGTTGAGAGAATCAGAgaagccacaaatcagcatttccacaatatgtgatttgttgttatcagccagcactattcaatgtgggaagggactaccgaagagcaccacaggccagaataaatgaata
1 CCCCAAGAGCTGCAGCACCGCGCTGACATCATGGCCCGGCCGCCCCACTTCTCCTTGTTTATACTACACGGCGTCTTTAAAAAGCTGGTACGGCCCAGATTGCCCAACAGACCAATGGCGGACCACCCATGCAAACGAGCTAACGTCTGCCGGGCAAGGAGATTGGCCCTGCTCGCGCTGACGTCACAGAGACATTTAAC
0.1113616851329152 tgaaaccattccctcctaggcctttgggcctgtgatgggaggggctgccacaaaggtctctgaaatgccttcaagtcttctcattgtcttgtctattagcactttgctcctctttacatatgcaaatttccacagcctgcttgaattccttccctgaaaatggacttttcttttctaccacatggtcaggctgcaaattt
1 GACCTCTTTTGTCTAGCTGAAAAATCTAAATTTTTCTGGCTCCCCCTGCTGGTCGCTCCTGGGCAGTTGCGTACAAGTGCCCTGATAGGATTGGAGCCAGAGCCAAGTTTGGGAAGGGAAAACAAAGCATTGTTGGTAGAGTGCCCTGACCAGTCCAGGCAGGTTTGAGGAGGAGGAAAGCAGCTTGTTGAAAACAGTTC
0.5516696551607589 AACAGCAAGCAGCTAATTATGTTAAGGGATGCCTTCTTTTTGGTCTCTTTCTTTTGTAACAATCTCAAGAGTTCAAGTTTCCAAAGTGAACTCTCTTTTTCAGTCGTTTGGAGCTTTGTAGCTTGATTGAAAAGAATGCTGTGATTCAGCTGGCCACGTTGCTAGGCTGCCTGACAATTTACCTCTAGCAGTGGGGAGGA
1 GCAGAGGTAGAAGGTCACATGGAGCCACGTTAAGTTATAAAAGAGAAAGAGAGAGTCAGTGTGCTGGATCCGACGGCCATACAAATCCAAAAGCCATTGTCTCCCTCTGGGCAGTAATCTATCCAACTGTTTCCCTGGCGTTCCCACCAGGAGGCCTCAGCAGCTGCTCAAAGTTAACACAATGGAGACTGAGCTCCCCC
1 agggatggaagctgctgctgtgtcccctagagaagggaagaaaggcacctggactccagcttccctttctgctctcagcagcgcctcacagtggccaagtccagctggaaggcagcaggcagagagggcagcacccagggcagaagaggccgctctcctgggctacagcagagcaggagagggaggaggaggggcactga
0.9304750108116644 tgaagctgctacctggaagcttcatctacatgacaagaactttggcttccacaaccgcccaccttaacttaactcaagctgacttcacctattcaggaagagtttaactctttcagctgattgccaatcagaaaatctttgagtctgactggatgcggtggcttatgtctgtaatcccagcacttttggaggccaaggcc
1 CAAGATGTGAAATTCTGTGGCAGTCTACTGTCCTAAATCAGAGCTGGGAACAATCACAAGCACCCCTGGTTCCAGGAACATCAGAAGGAAGATGATCACACAGCACAAAGGAACAGCACGCCTGCCCACTTCAGCTCCCCAAGCCCTGCCAATAACCTCTGGGAACATGGGCATAGAATAAGCAGCTGAAAAAGGATGAA
1 TCCCGCCCACGGCGCGGGGCCTTCTGGCAGCCAAGAAGGAAATACAGATGAGGTGGGCGGACAGTATGCAGATGACGGGGGCGGGCCGCGCCTGGCGGGCGGTGTGCAGTTGAGGTGGTCCGGCAGGATGCAGATGAAGGGGGCGGGCCGCGAGGGCGGGCTTGATGCAGATGAGGGGGCGGGGCCCACGGGCGCGGGAG
1 GCCGCGCGGGCGAGGACCGGCCTCTTTCCCCCACCTCCACCGTCTCGCTGCTCCGCCCCCGCGGCGTAGTCGGCGCCAAAATCAAACGCGTCCTGGCCTGTCCCGCCCCTCTCCCCAAGCGCGGGCCCGGCCAGCGGAAGCCCCTGCGCCCGCGCCATGGTAAGGACTGAGGCTACGGTCCCGCGTCTTCTTCCTCCCTA
1 caactggtatggtttgggcaccaacccttcagtacagctcctgagtctaagcaaccgatcgggcaatgagtaccagcAGTGGGCGCCCTACTGAAGAGGCCAATTGAGCACTCAGTGTGGCAAGAGAAAGTTGGAGGAAAACAGGGGCTACTGCATGGACAGACTATTTGATGAGAAAACAACACTCAAAGATGATTTCT
1 TCTTAGAATTTTCCTTCCCCACTTTATACATACGTACAGTGGAACTGAGGGTGTTTGTCTCAGGTAACCGATCAATGAAGTGAATAACCTGTAGGGGGCAGCAGAGCCTAAGGCCAGTGACACCCTGCTGAGGCCAGTCTGGAGCCGGCAAAGGGAGGGAAAGGGAGCTCCCCTGGGTGTTTCCCGGGCAGCCTGCCCTC
0.02724030506984803 TGAAGGCCCAGCTGTCACTGTTTATTCACTTGGTGTGTACATGACTGTTTGGACCCGTTTCCTAGTAACGGCCCTGTTAATTTCAATGAGAAAGGCTAATGGGGTGCCTTTTTCAGGGGCTGGGGGGAGGGATGATGTGCTCCCTTTAGCCCCTCTGTGTCTTTGGTCCTTGACCTCACTGTTTCCTGGGGGATTCTTAT
1 AATGGTCAAGTTAAACTTTTATTCTGAAAATGGTCCTTCAGGGCTGCCAAGAATCCTAGGAATTTCTGTAATGTAGTCTGAAACACTTCTGGCAGAGTGGTCATTAAGGTTCCTTTTAGTGTTGGAAGCCTTTGAGGCCATGGGGGTGGGGCATATCtctctgtctctgttcctgtctctctctctctgcctgtgccttt
1 TGGGCTCCAATAAACGATTGTAACAATTGATCTCTGTGTGGTGAATCAGATACTCATTACATCTTGCTAAGCAAGACACTTAACTGAGCAGAATTCCTTTTCTAGTGACCTCTTCTCTCCTCTTAATGGGCAGTGATCCCTGAACCACAGGGGCTTGTTGTTGGTCCAGGTCACAGGCTTACAGCCTCCAGCGACACACA
1 TTCTGGCTGCGGCTGCGCGGAACGAACAAGCCCACCCCGCTTCGGCGACAAGCACAACTCCGCGAGGTCCAGTCCCGGCTTTTCGCGCTGGTGAGGAGGCGGAGAAGCAGGGGACGGCGCAGCAGAGCCCGAGGAGGCCCCACCCTCCGTGCGCTCGTTGGCTGGCGAGGGAGACGAGCCTGGGCGCCTTGGGCACGCCC
0.6715295840829822 attcagttgctccctcctagatccaaaccaggaaaggcctggctgcatgaatggggaccctgtacagatgcaaatttccaccacaaaagacagctttgcagggtcatttcagtctgctgaccctgcattaatagccctcAGCTGCTATACTAAGACCTTCCTTTCGTAATATCTCTGAACActcagaattccttccaaaa
0.6918378687473117 AGACTTATTAAAGCTATCTAATTAAAGGCAAGAAACAACTGCTTGGGGAATACACATTCACGCCACAGGAAGCCATTTAACTGCAAATAGATCGTCTAACGACTCACGGAAATCTAAAGGAAACTGCGTGTCCGCATGGGGTTCTGATGCCAAACTACGGATTGTTCTCTCAGGTAACACCTAACCTAAGTGAAGTCCTT
1 GCATCGCTCCGCCCAATCTAATTCATCTTTTCCTTAGCCCCGCCCACTCCGGCCCCTGAGACCCCGAGGGTGGGCCTGGCGGAGACACCGCCAACTGAACTCCAGCTGAGTGCTCTCGAGGCCGAACCAGCGGGCCTGGCGGTCTGTGAGTGGGTGGCCAGCCGCTAGGGGCGGGGCCTCAGCGTTGACGGGCAGGCAGG
0.8365728538940488 TAGATGACTCCACTTTCTAAACTGAACATGGGAACTCATGCTGTGTCTCGTTAGTACAACTGCACTGTGGAGAACAGGTGCAGAGCATTTGAAAGCGGCCAGTCCAAGAATCCTGGAACAGCTCATGACTGCACCAGCTGGAGGCCTCACATTCCTGGATCAGATCATATTACAAGTTAGCTGTGGCCAAATCCCTGTTA
0.8358481463323831 CTTTTTCCACCCACGCAGGGAAACCAGGAGGAATTCCAGAATCAAAGAGAACCGCATTCCTCTCTACCACAAAGTACTCACACTTGGCAAATGGCAAAGATTTGGGTCATCATTTTTTAAACGACAGCCAAGCATTAAAGAGCCCAGGCAGAGAGCAAGTAAAAGAGTCTCCGTGGTTCCTCCCAGCGCTAGTCTGTGGC
1 GCATGCCTGGCGCCATCCTGAGACCGGGAGCTGCTTGTCGCCGTCGGGAAGAGGCGGCAGTTGCGCGTCATCACCACCAGGGGGCACCAGTACAGGTGGGACTAAACCCTGGGAGTTTCACCATCCACCAGACGTGCTCTCTGAGAACTTGTCAGTCCCCGCGGTCAAGGAGTCCATCTGCTAATGGGATAGACAGGCCA
0.204525152627565 cacatgaggtaatccctgtggagccttcagctggcgttaagggctcaatagatgttagcgattgttCTGCACAAAAGTGCTTCAGGAACCAGCAAGGAGCCACTGTTAACTCTCACAGGGGCTGGAGCAAGCCACAAAGAAGCTGTTACGTGAGTCTTTATGGAGGAGTCAAGGTTTGTTTGATTGATGGACAAAGGTGG
1 CCCCTGGCATGCAGGGCTGGATGGAGGGAGAGGGGTGGGGGGTGGCGGGGGACCGCGTTTGAAGTTGGGTCGGGCCAGCTGCTGTTCTCCTTAATAACgagaggggaaaaggagggagggagggagagattgaaaggaggaggggaggaccgggaggggaggaaaggggaggaggaaccagagcggggagcgcggggaga
0.6017855556925515 ATAAAAATAGTTGCTTGTTAGGACCTGGCAGGCATGCTCTGGAGGCTCCCTGTTTGAATTCAGTTGCTAATCAGGAGGTGGGAAACAACCTCTGGTTCCTGCTGTTAGCACCTTTCTTGCAGTTGGCCTTGTCAAGAAGGATAATGGGCTGGAGCTGAGAAAGAAGCATCGTGCTCACTCGCTAAACTGGAGTGGAGAAC
0.9807731397169726 acacagactcaatgtgtccaaaatcaggttatgctggtaactcaagtttagtggcaagacagatgacaggagagagaaaggaagaggtgtggctagcaaggggtgtccttgttatgtagatgaagcctccctcagagagaatagatagtaactgtttcctttcagacttttaaggatatcaaattccatcctctcctgga
0.2716465969097238 AAAACAGAATTGCCCAGTCTGAGAACTATTAAGAGCTCCCAGCCCTGGGAAGGATGGATGACAAGGGAGCACCAAAGAGGTAATTGGGCCCCTGATGTGAGGAACAGTCATAAATAAGCCGACAAAGTCACAATAAGCCTAAAGCATCCAGCAAGGATTAAGCCCCATTAGCTAACCTGTTAACATAGAGGTATTTGGCT
0.971766656518707 CCCGGATGCCCATGCTATCCAGCCAAAGGGACAGGGCTCCACCTGGCCTGCAGATGCACCCCGACCCCTCCAGGGGGCTCCTGGGCTCTGTGATTGCAGCCCGCTCTGCTGATTGCCCGCGACACATCTGGAGCTGGAGGGCAAGTCTGTCCACCCCTggagtttgtaatgtcgggatttatcttatttacttggggaga
1 taagatgttctacctctgccatcacttctggattttagccaggcagaaggggagaagacaaaatagaaggcacctcttctctttgggaatggcctggaatttgcacgcacatcacttttcctcacatcattggccagaacttaaatcatgtgaccacaatgagttgcaagggaggctgggaaatgtagtcttcagctggg
1 AACTTGGCAGAGGTTTGGGGCCCACACACCTGTGCTGCTGATACTGGCCTCCAAAGCCGTTGACACCTGCTGTGTCCTTTTTGTCTGCCTTTCTCATACTGCCACCCAGCTCAGGTGATAAAACAGGATTGGGGCAGCTGGAGAGACTGAATCACCTGATTCCCACCCTCTTCACAGTGTCCAAGAAAATGCCAGCTTCT
1 GCTCGAGCACAGCAGCTGCTATTTACCTTCTTGGCTTCTCCCGGGGACCAGGAACCGGCCCCCGCTCTccgccgcccgtcgccgccccccgcctccctgcccccggggcgcgcgcacacacactcactcacacacgcacgcacacacacatcctcccggcccggccgcagccgcggcggcAATAAAACATCCTGGCACGT
0.8013701086999384 TTCACATCATTAGAAGTGTAACTTTTCCTCCAATAAAACATGAGATTGGCATGTCAGGAATGCAGATGTTTGTCAGTATCTGTGGATTCCAGCCTTTCTCACGGTCTCCTTGCTAATTGTTCTGCCAGGCAGCTTTGACTTTTACAAACGAAACCTGATCTGTGTTTCACTGCTCTTTTTCACAAAATTCAATCTCAAAG
1 ACCTTTACATTTTTTTAGGTGTAAGATTATCTTCTTCCTGCTGCTCTGAAACATCTGATCCACAGGCCAGCACAAAGAAAGCTATGTTTTTTAATTGAGGAAGTAACAGACAGAACAAGAAAGGCTCTATGGTACGGCATACTGAGAAGACAACTACAATTACCACCCTGCAAAGCTGGGATTTGTGAGTCCTGGCAGGG
0.9705307228573401 ACTCAGTGACACAGCTCGTTTACAGCGCCTCCATGGACCAGATAAGTGCCATCACTGACAGTGCCGAGTACTGCGAGCAGTATGTCTCCTATTTCTGCAAGATGTCAAGATTGTTGAACACCCCAGGTAGGCTGAGAATGGAATGTTACTTTTAATCACTATCTCAGCTGGTGCTTAGAATTGCCTAAAGAATCCAACAG
0.2972953431809762 gtctcacgatagctggCCAATGAGGATCCACTACGTTATTTGCATTTCATGGATTTACTTCCAGCCGGCATGAAAACTGAGTGAAGCTGGCCACCAGGTGGCGCTGGGAAGCACTTAATGGTCCAGTGCATCTGCGGCTCTTAACAGGAGATGGCAGCCTTTTACTGTCTTTGATTTTAAGACCTCTTCAACTTTGTACA
0.9199510932979501 agctgctatcaggcgctgtagaatttagcagctctttgcatagttagagacagtccttgttagggacaaactgcctcaggaaagcttcttggtgctgcccacccctccccctaatactctgcaactcttctccatgctgcccacccttcccccaagcctctttacattcctaagcccttatctaggtgctgcagtgaagc
0.2372961769723051 ATGATTAAAATGCTAAAAGCGCGTCTTCCTGAGTTATTCTGCTGTAGCCCCAGGAGCCTCAGCCGAGCCAAGTGCTTGCAATTCAGGCTCCATAGACCCAGAATGAACCCAGAATGAAGTTTCCCTTTGATGGCAATGAGGCTATTAGTAGGTCAACCAGCTGCATTTAGGGCCTGGCTGGTCATTTAAACACTCAAGGG
1 ctcctcctcgccctcctcctcctcctcctcctcgccctcactcctccgcctcATTCACTGGCTGGAGTCTAGGCGTCCCACACAATGGAATAATCAATACCCAGGCGCCCGGGGCTGCCCCACTGAGCAGGTGCAGCGACCCGCCCGCCGCGGCGCATGCCGGGAGTTGTAGTCTGTTCGCGCCCGCCCGCCTGCCTCGC
0.6266853606186137 TTGGAAATGTACTACTTTGGAGTGGGGAGTATGGCAAAGGAGAGCAAAACAATAGTTCAGATCAAGTAATCTTAGAGCCAGGAGGCAGCCAGGACTTCCGCCTGCTGGGCCATTGTTGCAGGACCACAGCTTCGAGGTTGCGCAACACCTTTAGTAAACACTTCCTGAATCAGAGACAAGAATGAACCAGGGAGTTTCAT
0.1816207780793283 CTCCTAGGGACCAGAAGGGAGCTGTTGGTCTAGGCAGAAGCAAGTGTTGGTTAAAGAGTATATACGGCTTGCTTGCTCTGCATTCCAGACAGACAATTGCTCTGGAAGTGGTGTGAATTGCACCCCACCCCCACAATTAACCTCAAAGATGTGTTAATTTCTCAGTCAAACTGAGGACCATTTAAATTCAGGCAGTGTCA
1 GGCAGCTACGGAGGCGGGCGGGGCTAAAGGAGATTCAATCCTTCCGGAAAGAACCGCGCCCGCCCGCCTCCTGCACAGCACCTCTTCCGCCTCCTGCCCAGCACCTCTTCCGCCCCCATGGTTTCCGGTGCACGGGCTTAGGGGGTGGGAAATACCCCGATTGGGTGGGACTTAATGGACTTTCCGCGCCTGCGTCCAGG
0.7483269665190199 TGTGAAAGCTGGTGGAGCACAAAGGGCTTGCCCGGCCCTAACAAGCCTGGCCCCAGCAGGGCACCGCGGGCAGCCTCTGATGCGCGGCTCTGGGCCTTTGTCCTCGGCTGAATTAATTTCCTCTTGAATTGCCTCAACTTTAGAATGAGCCCTAGCCTTTTCTGAAGCACACACATCTTGGGGTTTTGTCCTCTGTATTT
0.5859661202387061 gccgagtggttaaggcgatggactgctaatccattgtgctctgcacacgtgggttcgaatcccatcctcgtcgGCTGCATAGCAAGCCTTTTGTTCCAGGAATCACAAATGATATGGTAAGCACTTTATTTGGCAAATTCATTCCGTATTCACCAGCCATTTCAATAATTCCCTCTGATCTTTCCTGCTCTCTGCTTCTT
0.7651261940369837 AGTTTAGTGCAAATGTCTGTAAATATTTCCTTGCATTTCAAAGGAATCGATTCGTCCAACCAGAAGGCAGGGCCAAACAGCTTAGTCACCAGCAGGCAGGGCAAATGGCTCTATCGGTAAAACAAGGCATAAAGTAAACATGGTCATCATCCTCCCCCACCTTGAGCACAGATTCCTGCCCAGTGCATCAGCTCCCGCTA
1 TCCTAGATTGTAGCAAATGGCTCTGAAGTTGAGGAAGCTGTCACAGCTTGGCACCTCCAGTTTACGATCAAATGCAGATCATACCATTGCAGGGGAAAGTGGGGGGTGTGGAGAGACTCATTGAGGGTTAAGGCGAAACCACtgtgtgtgcgtgtgtgtgtgtgtgtgtgtgtgtgtgtCTATTTTAAATAGCTGTGGTG
1 CTATTGTTTGGGTCACAGACTTGTGAGCCAGACGTGATTTTCACATGCAAATGGTGGCCACATACAGAGATAATCCAGGCCCCGGGCCAGGCAGAGACCCCAGCCGGCTGCCTCATCATGCTCTCACGGGGCATGTGGCTGAGCTGTAGTGCTGTGATGAGGGAGTGTGCCATCCAATGGGAGAGGCCATGTGTGGAAAA
1 CTCCATAGAGCACAGCTCCCGGGGGCCGCCATCTTGGTAGTCGAGTGACAACGGCCAGAGAGTACGCCTTGTTGCGTCACTCCACGAACGACGGCGGCTGGCCGGCAACATTATTAGCCGAACGCGCCCTGAAATCTGATACACAGTTGTGCCGGCATTATCTCTAGGATCCAAAGGGTGGTCTCTAAGTATCGGAAATC
0.9475050702171974 AGTGTTGTGTGGATCTTGTCATCGTGGTGCCTTGACCCGTCCTAGCTGTGTTTCCGTCTCAATGATAGGATACAAATGGGCTATTCCAGGCATCTCAAGAATGCCCCAACCATAAAAGGAATTCTCCTAAGTGGCCCCTCTGTGACATTACACAGAACTCCTCTTTACATGGCAGTTTCACCCAGCTTCAGATTCAACTC
1 CGCCGCCGCCGCCATTTTGCCTTCCACTCAGTGTCGCCGCCGCCGCACTCCGCTGCAGGTTTCCCGGATGTGGGCATTTCCCGGCGTCGCTTGCGCGGGGGCCGAGGACTGGGGGCTTTTGCCCGCCCGGCTGCTGCGAGGGAGCGCGCAGCCTGCGGCCTCCGGGCTTCGTTGCGTCGCCCGCAGCTCTGATCGTTCGT
0.73566839576176 TTTCCTTAGTATCTTTAGCAAAGATTGTTTCATGTCTACTGGTATTGTTATGGACACAGAGTCGTCAGGCACTTTCCATAGTCATCGATGAGTAGCAGTAGGTCTTTGAGTCCTGCAGTGAAGAACTCTATTACTGCCATCTTCTTCAGATGGCTGTCCCATTTGGCAAATATTCTGCATGACTGCTATTGAGCTTCCAT
0.2645592778877987 agacaaatagtatttgatttcttcctctgtgtttactttacctcatgtaaaaatgcagagtcactgagcaatgcacaattgactatttctctaacccctcctttcacatgtaacatgtggattcagtgactgatgatcaaagcctcaaaagaatgcaacagcttgccccttttatctattccccctgacaccctcccccc
0.2343471823803194 agtagaggtttaacgcccacctgacctttcccgcccttctccctctggtctcctgctggggctctccattgtcttaacccacattgaagccacaagacaaaggagctcgttggtgatgcccatacaggtcagctgcctggacagcgaacaaactgtaaagggacagagagtgggcctggagggaacaaacAAAGGTGTGT
0.5316406357366853 acctcctaaagtgctaggattacaggtgtgagccactgcgcccCCGCTGGCGCTTTGCTTTTTCTTTACAGTCTTCCTCTCATTAGCATGTTTCCCACCCTGCTGAGAATGCTATCCCTGACTCGTCCTCTTCTATTATTATTCTCCTTTTATGCCTTCCTGGGAGCTCGGACATCAACAAAGTTCAGCATTCCAGATTC
0.5293214414392501 ACATTTTCATCACAAAGGTGTTGCTTGGCTGGCCTGAAATGTTTGCTGAATGaatgcaatgagctgcctcgagccagcatgagctctctgttcctgcagatgtgcaagcTTGGAACGCCTTAGAAGTATCTTAGGGGTCTTGTCTACATGCCCTTTAAGATTCTCTTCAATACACTGAGCAGTTGGTGTTCCAGGCCAAA
1 CACTTTACCAGACAGCAGGCTCACATCTCAGGCCCCATCTCTCCTAGCCACTTCCTTCACCAGGTGCCAGGAATGTGGGATTGATGGTTCCAGCTCTACTCGCTAACACTGACAAAGAGAACAAGGGGAGGTCACTGGGATAACAGGGCAGAAAGCAGGAGGGAGCCTGCGTACTTACAGCAATGCGACTTCACACCTCC
1 AGACAGTCATAGTGATCCAACACAGAAGAACAGCAGCAGCTGGGGAAATTGTCTTGTTCCTGTctcatctcctgctgctctccatcacagtactaaactacttgcattttttctaaacacatcatgctgtttcattctcttgcatctgctattctcttatatgtggaatgttcttctctactttctctgggaaacttcta
1 CTTCTGCAGTCGGCTTGGGCGGATCATGCAAACTGAGAGGAGAGACATGGTACCTGCTGGGAGAGCAGCTGGGGGCCGCTGAGGAGAAAGGGAAAACAATACAAGGGACAATGAGGGTCAGGACACAAACATCCCTACACACTCTCCTCAGGCTGTCCCCTTCACCTTAGGACACTGTCCTTCCCTCCTCCTCCCTCCCA
1 CCCGGGCCGCGGGGTTGGTTTCCACCCTGGAGGTTGCTGACACCCTGTGCCCTCGGCTGACTTCCAGCCGGTGGCACAGACGCCTCCAGGGGGCAGCACTCAAGCGCATCTTAGGAATGACAGGTGAGAACATCCTCCGGGCCCCAGATTTCTCTCCTCGCCGCTCTTGCCCATTTCTCCGGAGAGCCAGAGAAAGCCGC
1 AGCGTTGGCGCCCCAAGCTCGGTTTCACTCCCTCCGGAAGTGGGACCAGCCGGCTGCTTTTCCCGGATGGAACTTCCGCCTGCCATGTGACCGGCGGGTGTTCTACAAGGGCTGACCAGTGGGCGGGACAGAACGCAAAGGGCGATATTAAAAGCCGGACTCTTCCGGTGAAGCGGAGGTGTGGTGGGGCTTGCTGGGAT
1 CTCACAGCGGTCCTTCCGGCAGGTGCCTGCCCGGGGAATGCGCAGTGCGCCGAGGGCGGGACTGGAACCCTCCGCTCTCAGGAGGCGCGGTCCGGGCGCCAAAAGGTAAGCCTCTGGGGGCCGCCAGGGGACGCTGCCCCGCCGCGGAGGCCGGCACGACTCGGGGCGTGGCCTCCAGCCTCGCCCACCGCCCACGGGGC
0.31303586651406 TTTGTCCCTCCTGCTAGTCACATCAAAACCTCCCAGCTGGGGCTCTGACCATCCGAGCTTTATCAAGGATATAGAGCAGCTCAGGAATCCAAACAATTCTGACCCATCATCTCCCCAAACCATGGTTCACTACAAGCAGAATCACAGTGATATTTTTAACTATCAGAGTGAATTCTTGTGGATCTTTAACCTCCTATACT
0.2897323241880565 tgtactagcagatctgttaggtggggatcctcagtgggggtctgttcagatgttgtctttaatttctatagggaaagcaaacatccctggagctttaactcccttggctattgttaagactactattaccttcttgtttagcaagttacttaattacctctggggctagccagatgcctggaatttctctttaaaaaaac
0.690524960881271 gttagCCTTTGTATGGAAAATGTAAATTTATTCAGTGCCTCTGTTTTGATATTCACTGTCCCCCTCCCAACACCAggggcagtgatcaccattctttggtttccctctgtctcctgatggttactttgcacttgaataaactctgctaactggatactgagccttctttagattgagtcttttttaggttgacaCCCAGT
0.5083402197319214 ATGCAAACACATCCCCTGGGGCTCCCTGCCTGGAATCCAGGTCACTTTAAGAACTCATTTAAATACAACTATGCTTTGAAAGGTAACTACTATTGGCATGCACAGAAGCACACTGTCAGAAAGCCGACCACTCCTTAAGCATTGGCTGCTGAAGGCAAGGGCCACTAACTGGCCTGTTTTTCATCACAGAATTCTCCCAG
0.4017107441961467 CCACGAGGCAGCAGGCGCGGGCCCCGAGCCCAGCGGGGACCCCTCTGCCAGTTAGGGGTCACTCTCTCCATTCAACGCTTTATTAGCCCCCTCAAGTCTCAGGGCGAAGTCCTGCTGCTTTGAGACGTTTACAGCTTTGATTGAGGAAAGCTATTCAGGGCTGGGGCGAGGATCTGTTTGTTTTCAGGAGGAAGCCTCTG
0.4066099534550252 TCCTTTAATAAACACACAACAAAGGGTCCTGTAGGAGAAACAGCTGAGGCTGAGCTCAGTCTGTGGATAAAACAAACAGTTCAGAGACTGTCAGCAGGTGAGCTTTGTTTTTGATGTGTTTATTCTCTGAAGTGCCTGAGCTGTCAGCAACCAGGGCCCTCAACCCAGACAGCTCCCCTGCCTACCTTCCCACAGTGTGG
1 GGTAAAGGGTAACCTCTCCTTACAGAGTGGCTAAGGTTAGGCACGCTAGAGACAGATCTTCAACAAGCTTAATCCTTTACTCCACTTCACAGCTGGGTGTCTGAGAACAGGAATTCTTCATGACTGCATCCTACAAAGGACCTCCTCTTTGGCCTGAGACAGCCCCCTATATGTCAGCCCAGCAGCACCAGATGATGAAG
1 ACGGCGTCCTCATCTTTTAAACTCTCCTGTAACTCACCCAGGTCATAAGCTGAAGAATGGAAGGAGATGCCAAAATGCTATGAATTCCACACTCAGAAATGCAGCTGGCAGCAAGCCCTCCCGCATTCCTCCCAGGTGAAGCAAACTCAGTTATGCGCATCTACACTAATTATCCCACATTGCTGGTGACCAGGCTTACT
1 GGAGTAGGGACAAGGAACGGAAGTGGGAAGGGGAGGAGCGTGCACCCCTCCTGGCCTTGGTGCGCGCCGCGCCCCCTAAGGTACTTTGGAAGGGACGCGCGGGCCAGACGCGCCCAGACGGCCGCGATGGCGCTGTTGGCCGGCGGGCTCTCCAGAGGGCTGGGCTCCCACCCGGCCGCCGCAGGCCGGGACGCGGTCGT
0.06835557835388381 GCTTGGAGCCTGCCGGCCCTCTCCCCTCTGGGAACTGTGCAAGCAGCTGTCTCCTTGGGAACGTGGCATTAGCATGTTTTGCATGAGAATGAACACCAACCAAGGCTGAATATCAATTGGATCCTAGAGTGCAGCTGCCTTTGAAATGTTCCTTTGTGTGGCCGAACTTCCTGCTGCAGTTGATTCCTGGAGCTTGTGCG
1 CGGGGACGCGAACATCGCCTCCACCCCTAACCCTGGAACAACCGGTAGTGGCCGTTTCCCCGCACCGCCCCCCTTTCCGCCGGCTTTGTGTGCGTGTGAAATGTGCGGCACATTGCAGACGAACCCTAAGCCCGGCGAGTCGAGTCTATTGTTCCCCGCGAGGATCTGCCGGGGCGGTGTGGAGCCAGGCGCAGTGCCGC
1 GTCAGCACTCCCAGAGCAGGGACCGCCGGGCGTGCTTTCGGAACCGCTTTTGTCTTTCAAATGAACGCCCAGCGACAGCAGACGGGAGTTCCAggaccttagagaccggctaatgcttctctttaagttaggaaacaggcgcaggcgtgttcatggccttgcctaaggttacgtgctggttacagggctCCTCCTGCTGC
0.9330215933534503 tacaggcactagcctcagcacctggccccaaacacttatataacctcttttcagaggggtgggggagatggggaatataggtagttcagtagaggggcattaagtgatgatttaggtgaataaatggatgggggaacacagattgacttgcaaatagttttctttggaagttaaatgaacctgagagacagacattattt
1 TGCAAAACAAGAGGTCCTGTCCCAAAGCTGCCACAGCAGAGACAAACATTGACAGGGATCTGTGATTCACGGTTCCTCCCACTGCAGTCCTGCTGGGAGCAACAAAGCCCCAGCCACCATGTACAGCCTAAGGGACAGGTGTCCCACTGAGGCCAGGAGTACCCTCCTCCCCGCTCCCTCCACCCTCTATGCATGCACAC
0.9135610137440692 TGCAACAGCTCGGCACGACTAGTCCAAAGACGAGCACTGGAATATAAGAAAATGGTCCTGGCGCATCCTACCCTCCCCCATCGATCACCCTCAAACAAGTCAGTTACCCGGCTGGTCCCCACCCCCCTCTGCGGGCCGCCACCGCCCGCCTGGGCCCGGCTCGCAGAAGGTAGGAGCCCGGACCGGCAGAGCCGAGGCTC
0.2307212453720644 TGAACTTTTGAGTAGCCTGAGTTTTGAGTTAGCCTCAATTAAGGTTTTTGGTTGTTTTACCACCCAGGCTCCAGATTAGCAACTGGAGACAGGAGCTGTGATGGAATTAAAGTAACCGTGGCAACCATTATAATGTAAATGAGCCTTCTTGGGCAGGAAGTTGAGAGCGTGAGCACTTGTTAGGGCATTCCTTTATTACA
0.5269516133019254 GGCCCAAGCTTGAGAAGGCCACTCCTAAAGCAAGGCCCCTTTGGACTAGGGCCTGGGCAAGAGTTAACTGGCACCTGCTATGCCAGCACAAAGCTTAATTCCCCTGCAGCAGCACACCCGCAGGCAGCTATTGAAGCAAGGATGGAATGTCTTACAATACAAAGCCTTTGTAATAATGAGAGGGAAATAGAAACCAGAGG
0.5974319991898256 CCATTTCTAGAATATTAGTAGGCACCAGAGAAAGAATCCACTGTTATCTTCCAAATCAGCATCTTGGCCTCGCGGGGAAAGAGCCCACCCAGCAGGTTTTTAATTGCCTGTATAGCTAACCATTCAAATATCTTTGCTGTCTTCTCTTTTTTTGAATGGCATGACTCATCAGACCACCAGGTAAAAAGCCCCAGGTCAGC
1 AGATTTTTAAAAAGTCATCATTTAGCATTGTGAGTGTTCTGTCTATAAAATAAATTGTTACTGTGACCATAATTATCGTGGTGAAGGGAGGAATGCAGTAGAAGTGAATAATCATCAGACACATTGACAAAACATTCCTAAAATGCTATTCAAATGAGGAAAGACATTATGGGGCTGCAGCCAAGTAGCCAAGCGTTGAG
1 TCGGGAGGTTGGGCGCGGCGAACTACTTTCAGCGGCGCACGGAGACGGCGTCTACGTGAGGGGTGATAAGTGACGCAACACTCGTTGCATAAATTTGCGCTCCGCCAGCCCGGAGCATTTAGGGGCGGTTGGCTTTGTTGGGTGAGCTTGTTTGTGTCCCTGTGGGTGGACGTGGTTGGTGATTGGCAGGATCCTGGTAT
1 GTGCATCCTGGGTCTTCTCAGGCGAGGCTCCTCCTGCCTGTGTGAGGTCTGCACCTCCTGCTAGGGATGCTGCCCTTGCCTCCAGGAGTCCTACAGGAACAGTCACTGTTGGGGACCTCTCAGCCCTTTGGATTGCAAAAGTGCCCTTTGGACTCTTGCTGAGCCCTGGCTGGTCAAGTGCCTGGAGAATTGTTGTGTAT
1 GCTGTTGTCGTCCGGTGCTCTGCCCCCTCTCGCACCCACCGCTTCTTAAACGGCCGCGTCTCCTCCGGCCGCTGCCATTGGCCGCGCTCCCGGCCCGGCCGCCTCCCATTGGTCGCGGGCGCGGGGGCGAGGCTGGGCGGTGAGCGGTACTGCACGCCGGGTTCCCCAGGCTGCAAATGGAAAGGCGAAGACAGGAGAAT
1 caaaaccttaggttgaaatttgatcccgggtgttggaggtggaaccttgtgggaggtttgtgacagatcccccatgaatagcttgatgcctttctcacagtaagaggtgtgttctcattctatcacttcccttgagaacaggttgttaaagagagcctggcacctccctgctctctctctctcttgctttctctctcacc
0.9937113614978589 AAGTTCCCTCCTGCCTTCCTGGAGCCCGTGCTGGGGATTTATCTCCTCCCAGAGGCCTAACTGCGCCCCAGACACTCGCACCTGCATCCTCCAGGGGCGGGCTGGGGGCTGGGAGGAAGACGGGCATTCAGGTGCTTTTGTTACCTTTGTGATGTGGCTGAGCCAGACAGCCTCGCTCACACTAAGCCACCCCTGGCGTG
1 GCCAGTCTAAAATTTCGGCgttcccacaccgggagtcgaacccgggccgcctgggtgaaaaccaggaatcctaaccgctagaccatgtgggaGACGGCAATAGCGACTCCAAGCCTAGACAAATTGAGTCTTCTCGGTCGGCTTCCGCCCACTCCATCGCGTTCATCCGTAGGCGTCAAACCTGCTCCTGCGCCTGCGCG
1 CACTGGCGTATCGCGCCGCGGGACTGCAGAGCCGTGAGCAGCGGTCGCCTTGGTGCAGGGTTCCAGCCACATCTTCCTCGCCCAGCCAGCACCCTCTGCCGTTGACCCGCCTCTGCGCCCGGCAAGCGGCTTCCAGCAGGGGGCGCGCGCGGACCAGGCTTGGGCCCTAGAACAGCGCGGATGGAGTCGCTGGAGCAAGT
0.7373550547680837 cccccaaatcactaagctaaagggaaaagtctagctgggaactgcttagagccaatcaccctgattgtctaccctggagaggctaatcagaaactcaaaagaatgcaactgttcatctcacctatctctgacctagaaggcccctccccacttcgagtcttcctgctttttgtttcaagctgtctcgcctttccagacca
1 GGGCAGCGACGCGTACACCTGCCGCCGGAAGAAGAGCGACGGTCGCACAGCTCTCAggccgggggccggagccccggcagcccggccgcgcccatccacgcccagccacgcccagccacgTTGGCCGCCCGCCCAGCCTGCTGGGAAACTGCTCGCTGCGCATTCGCCCGCCGGCGCCGACTTGGCGATGGCCAGCTACA
0.6540527877772678 ACACAGGATTCAGCAAGCCCTGGCTGGCTCTCCAGCAGGCGCTCTTGAGAATGTTAAGGGCTCAGCAGGCACACCGTGTTTTCATGTTCAGGGCCTGGCATCTGAAAAATGCTAGGCGGAGAAGGGCAGTGTTTTGCGGAGGAAGACCAAAGAGTAATTGCTACATTTCAACATTCCTTGCCCCACGGCTGCCCTGCTTC
0.8439525279001087 GCTTGTTCCCGGAACACCAGCCGGTTCGGCCCGGGAGTGGGGGTTGGGGAGGCGCCGACTGGGAAGCCGGCAGGCCGGCCCAGCCTTCCCGCTGTGCCGATATTTACAATAATAATGTCGCGATTAACGTGGCGGGGCGCTTGGGGCTCGCCGAACGACCCCGGCGGCTTCTCCTGCCTGAATCTGGACTCCGAGAGAGA
0.215661781507708 tttcctctgagctccttattccttttgtttccttaatctccttcttgtgagagaggctttcctcaagtgtttggtgatccttggctgaccattcatgtttgagaatgagTCCTAGTGAAGGAAAGTATGGAAGACATATCCAAATGCAAAGACATGCTGAGAGCAGAACAAACAGAACAGAAATGCAGAATAATAGCCGG
1 CCCCGACCACCTGCCGTCGTGACCACCTCGCCCACACGGTGGCGCTGCGGGGACAGCCCAGCCTCTCCAGGCTCCGAGGGCAGGGGACTGTTGTGGCAGGGAGGGGGCGGCGTGTCTTCGGGACCTGATTGATTTCTTTGGCCTCCCGCCGACAGCCTTACCAGGTGGCATCCGGAGCGCACGCTGGCAGCCAGTCAGTC
1 GCGCGTCATCTGCACGCGCCGGAAGCCACGAGCCGCATTTCCTGCCGCGAGGCTGAGTGTCTCCAGTTCCTACCGGCCCGGCGACCCCGCCTTTAGCTAGTGGCCAAGATTCGCAAAGCCTCGCGGCGAGGAAAGCACGAGTATTCAAGCGCGGCTGAGGCCCTCCTTGGCTAGTGCTGGGACATGGAGCCCCGGCAGCC
0.8570385864919874 gaaatttgcataggtaaagaggagccaattgccgatagccaagacaatggttaaaaggcttctaaggcatttcatggactttctttgcaacccctcccatcatgggcttagaggcctacaaggacagaatggtttcgtgtcgtggccagggccttgctaccctgcacagcctcagcatcctcatggccctgctccctgca
1 TGGCAGAGCACTCCCTGCCAGTAAGGCAAGAATCCAGGAGTACTTCTGCAAGGTGTCTGAATGGGGCTCAGCGGTGAGCGCTCCAGGGCCCCTGCTCTCTCTCCTCTCCCCTCCTCACCACTGATACTCAGAACACACCTGATTTGGTGCTAGCAACAGTGCCATCTAGCCTTTGAAAGCTTGTACTGTAAGTGAAGGAC
0.7532970797458264 CTCTGTCTCCCCCAAAAAGCAATGAAGGCTCTTCCTTTTCATCTTCTTGGCCTCTCTGAGCCTCCCGCTGTCTGTTAACCATCCCCTATAATTCTGCACAGCTTGATAGCTGCTGGGAGTGGTGGGGTGAATTCAAATAACTCAGGAAAGCTAGTTGACTAAGAAACTGCCTCCCAGCCCTTCTTCCAAATTAGCAGCAA
1 ATAACCGAAAGCTGGAGGCCAGGTGCCGAGAGTCGGAGGTTTCCGGAGAAGCGATGAAGCCCAGCCAGCCCGGAGGTGACGTCACTCGACAACCCAGTCGATGATGTCATCATTGGATGCGAGAGGGGCGGGGCTTGGTAGTCCCTCAGGGGAGTTTAAGGACCTGGGGTGTAGGACCCATGGAAGGCTCTCAAATAGCA
0.9803328305312689 AGGCCACTTTTGAAAGCTGGAGATTCTAGGGGTAGTGCCTCAGACAAAGCATGTAGGCTCCTGAGTGATTTCCCCCAGCTGCCCTCGTTTGCATTTGGATAGAGCTTGGTTGGAGTTCCAAGGGCTGATGCTGGGAACCTTGCTCTGGATGCGAGGCCTGCCCCTGGAGGGAGCCGCGGAGGACTGGCAGCTGCAGATGC
0.7961170659428281 GAGTTTATTTTAAAAATCTGGGGAAACACAAAATGGTAGAAGGCAATGCATGGGCTATACCCCATGGTGTTTTCCTTTGAAACATAAGCACCTTTAAAAATAGCCTGATGGACCACAAGCCCCAGGAACTAGCTGTTCATAGCTAATTATCCAAAGACTTGAAGAAGTCAAGCTGTGCAAAGTCAATTCAACTTTGCTGG
1 TAGCTTTTATGCTGTTGGGGGATGGACAAGTTGAGTAGAAACCCAGGCTAGAGTGATTTAATTGCCTGTTACTAGGGACTGAGTGCTGTGGGCACAGCCTGCCTCTAGGTGTCTCTATCTGGATCCACAGGTCTGCAGTTGTGGATTCCCGGACCTGCAAAGCAGTAGGGGGCCTGAGAGAGCCCTCTGTGCTTTCATCC
0.1406877548412822 TAGAAATTATAATGTGATTTTCTTATACATTTTACAGTCTCATCATTATTGTTTTCAGCAGCGACCCCCTGTGGATGAAGTACTCAGGGAAGGTCACATCAATTTGTCAGGTCTCCAGCTGAGAGCACACGCTATGTTCTCAGCAGAAGGTCTTCCTTTGGGAAGCGATTCCTTAGAATACGCATGGTTAATTGATGTGC
0.5558629142263785 CATGGCGGACACTCCGGTCAGGCCGTGGCATTGAAGCCCGGCTGCCGCCGGGGGGCGCCACGCGCTGTAGAAACCGGCCCGCGCCGCGTAGCGCAATGCCCGCACGCCACGTACGGGGGGCGGGTCTCCGAAGCCCAGGCTGGAGGTCCCACCCTGCCGCTGGGAAGGAACGAGCCCATTGGTCCGTGCCCAGTGGGACC
0.0349687222449331 CTGGATACACGTCTGTGCAAAATAGGTGAGTATAAAGAGCTGGTGAGAGGCATTTGAATGGATGTCATTGTCTTTCACAAAGCATCGTTTTGTCTCATTGTTTTCACCTAAGACTTCTTGCAAAACAACCGGCTTTGAAAGTGCAAGATCTGCTGCTTAACTCTTGAAGAGCTGACAGACATCACACCTTTTCCAGTAAA
0.7447382657785631 GCCTCCTTCTAATCTTGATTAAGTCAGCTCAACTCCCTGACTATAAGAAATCACCATGTGAGTCTTTGAAGAATGCGCCCCCTACCAATGCCATGCTGTGCCTACGCTAACCTTTAAGCAAGTACACCGGCAACCCTGAGTTCCTGTGGTTTCCACTGTGGTAGACTGTTGGGCCAGTAGCACACTTGCTATATGAGGGT
0.1820895360632221 AGATGTGTACCATGTGAGTGAGCAGGCTGCCCAGGCCAGAAAGGCAAGCGTGAGGCAGCCCTCAACCCCCAACGTGTGGTTACTGGCCTCAGCTGGAGGCTCCTCCTGCTGAGCCCTTTTGCAGCCCGACAAAGACAAAACATGTTTGTTTAGAGACAATGGATTGCTTACTTAGAAGCAAGATACCACTCAGGAACATC
1 AGCCCGCGCGGACCCGCCCCCTCCCAGGCCTGCCCGCCGCGCGCCTGCCTCGGCGCCCTCGCAACCGCGGCCAGGCCAACCTCAGCCGGAAACTACATTTCCCAGCAGGTCGCGCGCTCCTCGACAGCTCTCCAGGCAGTAGAAACTACATTTCCCCGAAAGCTTTGCAGTGCGCAGGCGCATCAATGAGGTACTGCAAT
1 TCTCCAAGTTTTCTTTTTCCAGGAGCTGCCAAAAAGCTTTCAGCtgctgcattggccgggaatcgaacccgggcctcccgcgtggcaggcgagaattctaccactgaaccaccaatgcTCCAGCTGAGTGCTGTTCTGCCTCCAGCTGTTTTGTTGCTCTGATTCACAGTGGTGATGGCACAGCTGTAACCTGACACCTG
0.5596000728063569 caggctggaatttcctaatcctagcaagcctgggggtgctgcaggaggccagggcatgtttcatcccttatctgcaactgcataaggcagacaccccccgctgagaggccattatagagggctctcctccccccaggaaagcattcttttcccagggctgtgaattattaatattccttactggggaaggaattcagcga
0.7206088926872617 AGGATCCAAAAAGAGAAGTCTAGGTGTTGTGGCCAGGGGGAAAGACTCAGTTCAAACTGCATGTTAATTCCTGCTGAGTAAGCTATTGAAGTGGTAATACTGCAGAGGCCTTGCCTCTGGACTTCACATTTGTAGCTCTCAGCCTAGATGTTCACTACCCATCAAGGACATTATTCAGCCAGGCAGGCTGCAGCCTCTGT
1 GGAGTTGTGAAATGGGCGGCTAGATCTGCCCGGCGCTGTGAATTCGCCAGCGGGAGCGCGCTCGCGGCCGCGCGTTCTCCGCTTTCCCGGCTCCGTCGCTGACGCGTCGTAGACGTTGGGGAGCGGGAAGGCAACGGCAGCGGGATCGGGATGAACAGCGGCGGCGGCTTCGGTTTGGGCTTAGGCTTCGGCCTCACCCC
0.9802581799296494 CAGCCTAGCACTGGGACTAGTTACTGATATGCACTGAGATAAAGGGTGTTTGTATTTGCTCGGTTTGAGGTATACTGTTATTAGAAGAGTGACAATACCAGGTAGTTTACATATCCATCAAACGACACCACACTAGCTAAactggtttgacttcaggatttcaaagctgagctcaacccccagccatctcgaaagtcctg
1 cctcgaaggcatttcagagatctttgggatagcccctcccatcacaggcccagcagcctaggcggaaagaatgctttcaagggctaggcccagggtgcagctgtcctgctcagcttcaggagactgctccctgcatcctggctgctctggctccagcctctgctcaaaggggcccaggaacagcttgggccacagctctg
1 TCCTACTTCCGCAAACAAACGGGCCTCGGGCCACGTGATGGCCTGACCACCGCTCTCCGCCAATCACTGGTGGCCCTGTCCCAGGCCTCCTCTAGGCTCCGCCCCCGCGCCCGAGGACGGCGGGAGGCGGGGTCCGCCATTTTTTTTAACTGCCCAATGGAAGGGGCTCCCTTAGCCAGGAGGACGAGCTTTCGGCGGGA
0.7247114311740839 TAATGCACCTGCAGGATCAGGGAAGATACAGAGACATACTCACAAGCCATGAGCTGCTAAGCAATCGGGAACCCTGCAGAGGAAGCCCTTTCAAATGGGAAGTCAACTGCCAAATGATCAGGAGGTGTGAAAGGAAGAACCAATCACAAAAGAAAAACAGAAGGCAACCTTCCACCTGTACCAACAGGTAGCCCACACAT
0.590222343525834 GAGGCCACCTGGTCTGCGGGAGGCTCGCTCACAGGCTGCCTCTCCACAAAGTACTTCTCCACAGGAAGATCTTTGTCCTCTGGGGCTTCAAAGGGATCACGGTGCTTGTTTCCAACACTATACTCGCCTGGGGGAGGGGAGACAAGAGGGCATTAATGAAGCCCGAAGGTCGCCATGAGAAGGCAGGATCTGGGGAGTGC
0.4741777031992825 taataagcctcaaactggcttactttcttccggcctccctccccatgagtccatttttcatgttaatctcactaaagcacccttctgatcatgtcacgctcttgctcaggaaaagccaatggcccacattacctgctcatttaaccccttgctgtggccttcaaagtcctCTGCAATTTAACTGCAGCCTGTTCCAAAAT
0.6662532694183961 CCTGGGTTGGAGGGGCTCAAATTATGTTTAAAGTGGCACAGTGAATTCCAGGCATGCCACATAGCTGAGAGTTTATTATCTGGATGATGCTATCATCTGGTGCCCATTGTTTAACTCTCTGGGAAGTTTGTTTACATGAGAAGGCTGAATCTAACTTGAAAAGAGACCACTAACTTGAAAACCTGGACCACCCAATTCTC
1 GGCTGTCCGCGGCTCCTCAGGGCAGCACGGTGCCGGGCAGGCATGCTCTCCAGCCAGGGCGCTTGCAGCAACGCCCTCTCTCTTCAGGCACCATCTGCTGCGTCTCTGGGCCTGCCGGGCGTTCCGGAGCCGCAGCTCTCTACCACTTCGGTGCTACGCCCTCCCGTGACTTAACTTCGCAGTCATCTTTCGCTTCTTCC
1 TTTTAATACAGATATGTGCCGTCAAATCCTGGTTAATTGCCCCCTAGGCATCGTGCCTGCAAATCTCAATACGACCACCAGAGGCGGCATTTGCCATATTTGATATAGGTAGAGTTTTCCAAAACTTGCCACCTGGTGGCTGCTATTGGAACCACAGGACCGATGCTTACAGGAGACACATCTGTTAGTATGACGCACAG
1 GTGGCAGCCGCAGCCGCAGCCACGCCCTGCGCCCAACACTTCCGGGAGCGACATCTTTCCCCGCCCACCCGACGCACAGCCCGCCACGGCACTTCCGGGACCGGCGGTAGCCTGGGAGGCGGGGTACGGCTCCGCTGGTTGGTGGCGCTCTGCGGTCATCGCGCCCCGGCGATCGTAGAAACCCTTTTCTGAGGGGCGGC
0.9811247797741387 cttggggttctctctcaggtttactcaggtcattggaagaattcagttccttgcagctgtaggactcaggccgtcagtttatataagctgcctctctccataggcagtttacaaaatgattctttgctttcttctagcccagcaggagaccatctctctttaaagggcttacctaattaggtcaagcccatccagtaaaa
1 TTTTTTCCCACGTATTGCACTGCCATTCTACCAACAATAGAGGCCCATTAACGTTTGGCCCTTCAAGTTACTGCAGCCCAAGCCTCAGTGGCAGGACGTCTGCCCAATATGTAAAATAACGGAATGAATGGATTCCTTGGAAACAATGATAACAAGACCTGGCTGAGCTAACTGTGACAGCATGTGGTAATTTTCCAGCC
1 cacttttaaacaaccagatctcactcattatcacaagaataggaaggggaaaatccacccccatgatcccatcacctcccagcaggcccctccaccaacattgggaattacaattcaacctgagatttgggccttgggccgggacccatatccaaactatatcGttcggtctctggcccctcccaaatctcatgttgttc
1 CGCTCCGCCGTAATGGCAAGCGAACTAGGCCAAACTACTTGCACGTTCCCTCGAGAAGATCTTTGGAGTAGACACAAAAGCCGCGCTGGCGCATGCGCACAAAAAGCGCCGGCAATTGGGGTCGCAGCTGGAGATGCTGCGGCCGGCAGGGCTCTGGCGCTTATGTCGGCGACCTTGGGCGGCGAGGGTCCCAGCGGAGA
1 GCCCCTGACGCTGTCTTGGCCCCACCCTGCCATGTGCCTAGGAATCGCCATCTGCAGCTTGGGGGCTGGGGGTGGATCCAGGCTCCTCATGCTCTGGGACCTTCCTGCTGGTGCTGCAGCACCATCTGCTGGGCTGCCCTGACTCCTGCGGAGGGGGAGGAGTGGGGCGAGAGGGGTGTGGCTTGTACAGACTGATGTCC
0.4231552763554123 ATGGCTCTAGACCCAGGCACTCAGCCGCTCTGCTCTGCGCCTTACCTCAGTGTAAACACCTCATCAAGATTGCCTGCGCTTCAACAATAGCAGCCAAATGCAATTCGAGAACCACAAGCCTTTGAAGTCCTCCCTGCAAAGGCCGGTTTTCTAGTCTGGGATAATGACAAGCCATGATTGCTGTCTTTGTTGTATCTTTT
0.7850399494704162 TGCTTAGGGTGATTCATTTTCTTCCAACAAGGCAGCCAATAATAAGCTTTTCTTCTGGAGCCTTGTCTTGCTTCCCATTTCAATTAGTGACAATCACTGGAGAATGGGAGGAATGTCTTCTTCATGTCCTTGTGCTGCAAACAAGGCTGGCCAATGACAAACAATGAGGGAGGGAGGGTAAAGCAGAGTGGGGGCAGCAG
0.5216347548708414 GTATTTCAGAATGAGTTTCTGCTTCTCTTCTTTCTCCTCCACCCAGTACTCACTTGGAATGACAAAGTTAGATGTGATCCGGCATTCTGGGCAGGACCTGGGAAACAATGAACAGGCTGCAATGCAAATTCCCCTTTTACAGGCCCACTCTTCAAGGACACACCCTGGTGTGTCGCCTCCAGACTTAAAGACTTAACTGA
0.7725074863962749 TCAGAATCACCCTCCTTCAATCAGCCCTACAGTCAACAACTATGTGAGCTTTCCGCAAGCTAACTTCCGTGCTGATAGATTGGCCGCATTCCAATGTCCCAGGGTGGGAGATTCTGCCAAATTATCTCAGGCAAAGAATGCTTTGTAGGTGACACTGATGAGACAACTCGAGAAGCCAGCTGTGATGTGGGTGGAAAATC
0.87000811588299 TAGACAATAACAGAAGGAAAAGTAGAGTTGCCAGTAGGTGGCTCACTATGAATGTGCTTGGGACGGGATCAGACATGTCACCCCTCCTCCACTTAGCCTTTGTTTTCAATCCCTGCTGCTTTGAGCCTTTTTCTATAATGTCTGAGTCATTTGCAGCGGGGTGGGTAAAGAGGGGAGAAAGAAGAAAGCAAGCAAGCAAC
1 GCGCCCTCACCCGTCCCGCGGAAGGAACCCGGCCGCACTGCCGCCGGTGTAAACACTCACTCTGGCCCTCTCGCCGGAAACCGGAAATTCCGCGCTGCATTCTGGGAGTTGCAGTTCCCGCTGTGGCCCCCCGCCCCCTTATAAACAGCCAGTCTACAAGAGGCGCTAGTTGCAAAGCTTCCGGTTCTGGGGGAAGGCGT
0.9468129701979062 TCTTCGACGCTGTGATCTAATCAAGGAAAACCTGGGACGCAGCTAATAGATGCGCATCGAGTGTATCGACGCTCTAAGTACGAGGGCTGGAACAGTGAGCAGGATCAGTCCATTGCTTTTGCCTACCTGCTGAGCGCTGATTGGTCCCCGTTTAGGAAACGGAAAAAGGGGCGTGCACGCGGGCGCGGCTGCGTGAGAGG
1 TTGCGCAGGCGCCTCCAATAGTTGGCCAATGGAAAAGCTGTGGCTCTAGAAAGCCAGCCCGCGCTCCGTTCTGACGTCACTATAAATGCTAGACTTTATTGGAAATGTAGTCCTTGTCCTGCCCCGCGCTATTCATGCTTGTCAATGCTGTGAACACGAGGGGGTGCTGTGGAGGTGGCGGGGAGGATGCTATAGGGCGT
1 CCACTAAATCAGACCACGCCGCCAGACCTTTTGCAgcccgcggccggccggccgccTTCTCCGACCTCCTCGCCATAGCCGCCGGGCCATGCGCGTCCCGGGACGGCAGGGGGCGCGGGTGAGGCCGCGGGCAGGTGGATGGATGGGTGGGGAGTGGGCCGCCCTGAGCCCGGGAAGAGGAAAAATGCTCGAGGAAAAAC
1 GCGGGGCCCAGGTGCACGCGTGGACCCCGAGCCCGGAGGTGAAGAGGGTCTGACCCTGCGATCTCCCGCAGCTGCTACTCCACCGACACGCACTGGTTCTCTGGCCCGCGCTGCGAGGTGGCCGTCCACTGGAGGGCGCTGGTCGGGGGCCTGACGGCCGGCGCCGCGCTGCTGGTGCTGCTGCTGCTGGCGCTGGGCGT
1 ACGCAGGAgcccggccccgcaccgcgcccctccccggcctcgcgctgccgcctcggccgcccgcccggccgcccACCTGGCAGTTGGAGCCGACTCGAGAGGAACCGGGACAGCAGCGAACTCAGTCCGGCCGGGCCCAGAAGCTGGGCGGGAAGGTTCCGGGCTTCTGCGCCTGCGCAGCGCCGCCGCGTGAGCGTGGC
1 TTGTCGCCTCCCTGTCTCTCAGCTCCCCCCAGCTCGACAGGAAAAAGTGCTGTTTACTGTATGGCCAGGTGTGGCTGCAAGAGCGGCTTTGCCTCTCCCTGTAATTACGTTTGCCTAAGCCCTGACAAGCACCCCGGCACATTTAGTCATGAGCAGCCTTTGTTCCAGCATGTTGTCGGGAGGCAGCATCCGACATTAAC
0.1415875818324967 TGGGGGTGAGGGGGCACATGTGATCTCTCCCAGGCCAATGGGCTAAGCGGGCCAGAGTTTGGCAGCCCCAGCGCCCATCCATCACCCCCCAAGCATTAGCATGACAAAGACACTTCAATCACCCGCAGCCCATCCATCTGAGAGCGACATGGAAGCGTCAAAAACATCTTTCTTCAAAGACTTTTGGAAAGAAGGGACCA
0.5624453244842893 TAATGCTCCTAGTTTTAGGCAAATCTCCATAAGAAAAGCAGCAAAAGGAAAAGAGGATTTTCCGTTTCATGGTCACTGAATACATTCTGCTAGCGCTCAAGTCGGCCCATCAAACTCTATGCCATTTGCAAGAGACCTCAACATTCCAAAGACTCCAAAGATGAGCCCTTCCAATTGCAGCAGGTTAGAGGAGCAGAAGA
1 GCCAAAGTGTGCTCCCTAGAGGATTCCCAGCTAATCAGTCAGCTGAGCTGAGCTGACGACTGTCTTCCATTCCTAAGGAGCTGGGCATTTGCAGGCTGAGCTCACACTGTGAAGGCTCAGCAAGACCTTGATCTCCCTTCCCAAGTCATGGCTGAGTGACAGGGAGCAGCAAAGGTCATGGTTCAAATCTGAGGTGGCAG
1 ACCAGGGGCAGCCTTGTCACACCAGGTGAGACCACCAGGTGACAGCCCTGTCACCCCAGGCGAGCGATTGACCACCAGGGAGAAGCCCTGTCGCCCCAGGTGAGAGCCCATTACACTAAGTGAGAGTCCCTAATCTGCAAAGGATTTTGTGTCAGTGATGAAGCAATTAAACACCCTTGCCTGAGCAATGGTAACAGACT
1 CATGAAAACAATTCCATTTGACAGTGTAAACTGTCCTATGCTTAGCTGTGTGCTTGCCCTGCACTCCCTCCCTGCCCCCAACTGTGTGAAACAGATGCCTGCAGTGACACTGCCCATCAATCACCCCACAGGAAGCAGGGCACAATTCAAAACCCCAAAATGCAGAAACGTGTTCACCTGTGCCTTCCACACAGTGGTGG
0.9121542584829312 ACACGCATTAGTCCATTTGTTTTCTCTGTGAATTCTTTTCAGCATCTTTGTGTAGCAACAGGAAGGATGTGGGCTCCCTTTCAGATTCAAATGAGGCAAATCAGCCCTGGCTCAGGTTGACAACATCATGTTTATGTTACACTGTGGCCTCAGAACGCCAGAACTGCTGTCTCTAGGTAGAATGGCCATTTTGTCCTGGG
1 AAAAGAAAGCTTAATCCTTTCTTTCTGGGCAGCTGCATCCTTTGAGTTACGGAAGCCCGGAGCTCTCTGGTGACTGATGGCAAGGTGGAACAATGGGTCAGACAGGGAGGTGAGAGCAGGGGTAGGACACTGACAGCAAAAATACAAAGTTCTCCAGCTCCAGTGCCTACCCCAGTTATCAGCCTGTGCTAATGAAAAGT
0.2085494041180325 ggtcatgggtggatttaaagacttcctaattggaaatttgttgaaaggattaaactctgactgaagagtttcaatcagcttgagttaaggtaaggtggtgcggggtagggggtggaatccaaggctcttgtcatgtagatgaagcctacaagtagcaggcttcagaggaatagatgcgaatgtctcttatggatcttaaa
1 ccctcagaggcatccctacccctttccctgatgtgccctgtactgcagggaagctggcccctgtagcttgtattgctctggttcttgagattattggcttcctgctgagttttgccagtgggaggcattggccagagtttgatggaatggggaggggggaggggggagaagcctttctgccttgggctgcccctggcagt
0.2999694734304372 CAGGAACTAAAAATATCCCAGAAAGACAAGAGAAAATGTATTGCAACAGGCCCTGGGAAAGTCCCTGATCTGCTGGTGATCAATTCCACAGTAGCACATCCCTTCAATTAGCTTAAGAATGTCTTACGCCTACAGTATCCATTGAGATGCAATTACACCAAAGGTGATATGTTAAATCTGCACAACTTCAGTAACAGCAA
0.7576544346158312 TCACACAGGGGCTGAGAGTATTTAATCCCTCATGATAATGAAACCCCAGCCTTGGGAAGCCCCACCGGGAATAACAAAAATGATTGCTGGTGTCGTTAACACACAACCTTCACAACAAAGGGACGTGGCTCTCTCAGGAAATCCCCCTGCCTCCCCCTCCAGGCTGAACTCCTGGTCTGCCACCAGCCAGCcagaatggg
0.6740838561391882 ACATCCGACATTGTACGGAGCAGCAGGAACAGCTGGTAAGCTAGCAAGCGGCAACGGCCCAGCGAGGAGCGTGGATGCTAATGAGCCTGGCGACAATGCCGGCCTTCAGAGGGGTAAGTGCAATGTCGGCCGGCATGTTCCCACAACAGCCTCAAGAGTAGAATCTGCTCGTTCATGCCTTCAGTCTCATTAAAGCATGA
0.9459480551661845 CAGTGACCCTGGACCTAGATAAAGATGTTCAGATTGGGGGAAAATGAAAGCAAGGGCCAGATCAAAGGCTTCTAGAAGAGGTTAAAGACCTTTGGGTAGGAATAGAGCTCTAAACCACCCAATCCTGCAGCATTCCCTACCACTGAAGGCAAGCAGAGCCTGGAGGAGGAAAGTATCCTGCCCCTATCAGCACGTGAGAT
1 aaaaaaaaaaaaaatgaccaggttctctggacacagcaactatggtgaccatacagtcaacaccataagcctcagcattctcattgtaattgagctcattcaagcacagctatcttcagtaggggattttccctgtagggagcaagcacattttgattttacctgtcctccgactgactctttgttcattgtaatagtaa
1 TCCAGCCAGGAGCCAAAGCCGCCGCCTCCGCCATCGCCTTCGCCAGGGGCTATCGCGGCCACTTCGCTGGGCGCCGCCATCTTGGGGTCAGGGTCCTGCAAGCCCCTAGGGCGCCTACCGCAGTGCCTGACGGGCCGCGCCGCAGGTCCACCGCGCATGCCTGAAGAGGAAGCCCAGGCCCGTAAGTGCAAAGAGCGCAG
1 ACGGTGACCAGCGCTGCCCTCGGCGCCCGGGAGGCCTCCCAGGGCTGTGCGCCAGGAAAACATTCCCGAACCGACGGCCGGGAATGGAACGGGGCGGGGCGTTTCCCAGCCCGAGGAAAACAGCCCTGAAAGCGCGGCCAGGAATGGATGGGGGTGGGGCGTTTCCCAGCTGCTCTCCAGGGAGCCGCCTGGAGCGGGGG
0.5777353518087439 cctaaagtcttgggaatctccagactcctgcctttttgtatgctaatgtgactaacagcttcagaatagggctggtcactggaaagacaaagacataatgggagttgagactttcagccccaccctcaacttctcagtagggcagagggtcaatgatcaatgcttaatcaatcatgccttcctaataaagcctctataaa
1 aaaactctgcctgaagcggacagagagaggagcggaatggctttcacttgtctattccatctgtccaaattcctgttatgcatcctgatggctgaacccagctggaagcccctgacaaggcatccttgaaaacatggcccatggggttcagccctactgcaaggtagagcaggacaagagagggcacccaagagcaagca
1 AATCCGAGGGGACACACTGCAGACAGGCCTCCTCAGGGCTCCTGCCTGAGCCTGCAGCGTTTTGTAAGCTGACTCACTCCACTAAAGGTCAGCTCTCACAGCTGTGCTGCAGGATTTGCAGGTGAATGGGGAAGGCGTGGCCAGCATCAGCTCCCTGTGGCTTCTGGCGCTCACCCTCTGCAGGGCCTGTCTCACTGAGA
1 tcaccaccacatggatcaCAACAGATAAATGAGTGCCCTCCCACCCTGCAGGGGGCCTGCAGTGAGGTCTGTGTGAACACACAGCCACCTGCTGGCCACAGTTGGGATGGCCACAGGCTGGGCTCAGACTTACTCTTGGGCTTTGCTGGTCATAGGGGGCCTGCCAGAGTCCTGTGCCAGGCCTACCTATTGAACCCAGG
1 GGAGCAGCAGCAACCTTGGACTAACAGGTGTATCTTCAGCGAGCACATGTCCCAGCACATGTCCCCACGCCCATCCTTCCATTTAGCGCCACAAACGCAGCCTCTTAAGAGAATGGGAAGTTTGGGAGTCACAGAACGGAAGCTACCATTGGCCTTAATGGATGTCAACCATTAAGGTAAGCTTGGGAGTCGGAGAACGG
1 ACTTTCAACTACCCTTCAGTTCTCCCTGCCCTTATTACTGTCGGCCTCTAGAGGGAGCGCGAGGTCCTTTACGCCAACACCCGCAGGCTGCTGCAGCTGAGGCCAAATTTTAAGTACCTGCAGGAGCTACAACATTAGGGAAGGGGGATCTTGGGTTATAAGAAAAGGAATGAAAGtttttcttttcctcctcctttttg
0.7567926474575928 GAACACAGAGAGCCAACACAGCTggagctgcaggcagaaggggtaagttctcagtggctggatctttctggctttgtaggctagggaactttccctccttttatcctaagaacaatgggaaggctctgaagaagtttaagcagGTTGTTTGCTCAGAGTGGCGATAAGCGGGGTGGAAATGACAACCTCTTCTTTTCAAA
0.902514428583315 agttatttgatcctcacagcaactctcagaagcaggcaggacCAGAGCATTCCAGGACCACCGGCCCTGCTCTCTTCTGGAAGCCCTGCAGGTGGGCTCCACCTGCCGTGAGCATTTATCTTTAGAATAGATCATGCAGTTAGAGCTATAAAACTCCAAGTACAGGGAAATGGAAATTGCTTCCATGAGCTGCAAAACTT
0.4605947778752155 catgttagccaggcacttggtgttaagagtcaccggtggctgcgttcctggatctcaaggtggctttactttgcgtttccctgatgactcatggaggttaagcaccttttcatatgttgattggtcatcggaatttggtcgtttgtgaagtacatgtttttattgtctgtctagccttttttaaattgatttgtaaaagt
1 AGAAACTGAGTCCCAACGAGGGACAGGGACCACCCCGGACGCCCCGCGAGCCCCTCCCCGAGTCTCACCTGCTGGCGGCCGCCGAGCGCGGGTGGTTTCCTGGAGTTGAGCGGCAAACAAAGGCCTCCAATCCGGGCGCGGGGCGGGGCGGTGGCTCCTTTGCATAATCCCTGAGGCCCGCCCGCGACAGCAgggggcgg
0.7806807689509037 CTTCCTTGGGGCTTCCTTCTGGAGGAGGTTTCCCTGGGTTTGGAGTCCTCCCTCCTGCTGGGGGTGGGGGCGTGGTTGCTGGTGGCCTGGAGTGAGCTGCCTGCTGTGGCCTCCAGCACTCCCCAGCTGAACAGCGAGTCCTTTGTGAAATTCCTGAGGCAGGAGGGGGCAGCTGTGCAGAGCCAGCTCTCAGAGTGGCC
0.8271205320696355 GCTGAAGCTTGGAGAATTAGTCGGGACAGGAAATGAGAGGGAGGAAAAAAGATATGTAGATGGGAGCATGCCACAGGAGGGGGCAGGGATGCAGAAGAATGCAGCCATGCTCAAGAAACAGAGTTGTTAACATAAGAAAGTCTTAAAATTCTAATTGACCTGAATGGCTTTTTCATTCATGCTTTTACATAGGGCTCACA
0.3459962606629683 TAGCGTCTCAGAAGACACAATGCACCCGAGCTGGTGCATGTGGCCCCTGCGAGATTTGCATCACATTAGAGATGCGGCTGCAGGTCAGATGGGTGGTGTGGTTAACGGGCTTAGTAAAGCTGTTTTGAAGAGGTTAACCCAGCTTGTAGTAAGGGTAAATAAACATAACAACCAGCCATTGTTCCCTATTCAGCATGTAC
0.4803271742856017 aggcacattgaccttttttcagacatgccaaccactcagggattttgtgctgcctattctctttgtctggaacaccctttgttaagatatctgcatgacactgtcccttgctcttaagtctctgttcaaatgttatgttaaactacccctagtcttcctattccctttacactgctttgtttttctgtcttagcacttaa
1 GATTCCCCGCCCTTCTGTTCACTTCCGCAAAGCCTGAGTACTTTTTCAAAAGGCACTGACTTTGCTTACTGGACGTTTGCTGTCCCCTGGTGGTCATTTCTCTTTATTGCAAGCTGATGGAGCTCCCAATTCAGTGTCCGTAGTCACCCCAACCAGCACATGCAAAGGTTAAGACGatgatgaaaccctgtctctactaa
0.5666622933103935 CTTAGTACTGGTTCTTAAACAGCCCATAAAAACCCATTGGCCTGAAGCTTGTCTCAGGCCCGTGCCCATCCTATAGTTTTGAAAGACAAAAGGCTGGTAGAGACAGTCTTCAGCAGTTTCAATGGCTTCAACGATGCTCTGTGGAGTTCAGAGAGTCTGAGTGCCTTAACTCCCGAGCTATGATCCCAAGCACAGGGCTA
1 GAACTGGAAGGATGAGACCAGTTCCTTTTCCCAGCCTGGAACCCGCCCCGCCCTCCAGGAGTGCTTGGAATGTGCTCTTTGAAGGGCCCGAGTCTTCCACCAAATAAAGGCTTTTTCAGATGCTGATTTTGGTGCTGATGCTGTGTGGCTTTGTTTGGGTTCAGTTTTTATCCTGGCTGGCAGAGAGGTCTCTAAAAATG
0.8690032396470596 GAAAGTCCTTCTGAACTTACACCCAGCAGACCAGGAGAATTTTCCCTTGTGTAGTGACACTTGATTGGCATTCATGCCAAAGGGCTCTTGTGAAATGGTTGCCTGAGCAGAGTGAGGTGGCGCTATAGTAGCACATCAACACTGATTCCCCATGTGCTCCCTGCACTGTCAGtccctaacaggcaggcataaagcctctg
1 CTAATATTTTGAGCCCCATGATGCAAGCTCAGCGCCCGAGAAGCTGTGCTCATCTGCAACCACCAGGGGGCAGTGCGGCCCCACAGCTGACCCAGCCGCCCGCAGGTGCCACTTGAAGTGGGACCCGGAAAGAGCAATAACGCAAGCCTTCCGAGAAAGGATTCTCAAGGCGTCTGCTTTGGGCTGCGCCGGGCTACAGG
0.9382578001244651 TGGACTCAGTGGTTAGAAAGATCCCACTCTTACCCAAAAAACTGCCACCTGTGGTTGGCTATTTAAGCTGTACTTGCATATTCTTTCAGAAGGCCGTTCTTCCTGCTGATCTCCTAAGTAGCTTTATCTAAATCCGTCTCCTTTGAGCTTTATCTGCCTTTTCTGAATGAAAATGTCCGTGTTATTTCATCTTCATATTT
0.6067697678932586 aggaggagccagcaacaaagacagagagcagccattcaggtaggaggagaataggtgaatgtggccattgaaattcaagtcagtaaagtgtttcaggagaagagagtaatcaacatgtcaaatgctacagttatgtcaaaacaaatgaggagcacgcactttacaaggatttagcaaagtgaactgatggattcctgact
1 CCCTCCTGCGATTCCTTCCAATTCCTCCCGCCCTGCCTTGTCGAACTCCAACCCGGGACCCAGAGAGCTACCGTAGAAAATTACTCCTTCACTCACAAGGACTCGCACCAGCAACGCCATGTTCCTCAATAACCATTTCCGGGTGAAGAGTGAGTTTCCGGTGTCCCCTTTTCTACGTCCTCCTTTTGCCGGCGAAAGAC
1 GCAGCGATCAGCCGGAGACATGCAGGGGAGCCATCTTGCCACTTACCCAGCAGCCTGTGTGTGCGGATGGGGGAGGGCCTTGCTGCAGCAGGGGAGGGGAAAGAAAAGAGGGAGGGAGCTGAGTGAGCAAGGTTCTTATCCTTTGGCAGGCCACAGGGAGCCGACTGCTGGCTCCAGAGGCCTGGCCTTCTTTTCTCAAG
0.9979775048622567 ATGGTGCAAAGAGTCAGGATTTGCAGCCAGTGGGTACCAAAGTGAGGCCAAATAAGCCAGAAACCCCCTCAGACTTCCAGCCAGAGACAAAGTCGAGATTAGCATCTGTAAGAGTCACAAGCTTCAGCCACTACAGGGATCTTGTATGGCTCATTAAATTGCATCTGTTTTCTTTCTTTCTTTTCTTTTCTTTTTTGAAT
1 CTTCCCCGGGTCTCCGAAGCCGCTAGGCGAGCGCAAGTGGGCCATGGCTGGCGGGAGGCGGGATTACAGCCAGCTCTTTGGCCGCGGCCCCGGTCGGCTCTCGCGAGCGCGAGCCTCTGTTGTGCGTTGGTCTCCCCGGGCAACTGCTTGCCCTGCGCCACCGAGCCTCCCGGATTTAAAGCGGCAGGAGCTGGTTAGCC
1 CTCATGCGTTTCTCTTCAGCAAGAATGTGTCCAGTTCCTGAACTAATCTCATCTTTGGCAGTGGTCCCCTACACCCCATGGCGACGCTCTGGTATTTGGAATGTCTGTTTACATGATGGCCTCCTGCACCTGGGACAGCACAGGGGGAGCTTGCAAAGAAACAATGAGCAGGGGAAGAACAGGAACTGAACCAGGCCACA
0.9853587406233301 TCTGCAAGGGGGCGATGGTGCACCACAAGAGGATTGGAAGTGTTGGGGAGCCGGGGCCTCTCTGCTCCGCCAGAACCCAGCGGGGGCAGGACCCCCTAGAAGGCGGCCCATTCCCCGCTCCCGATTCATTTCCTTGAAGCAGAAGTGCGGTAAAGGGCCCGCCGCCTGCGATCAGTGGAATTCTGAATCGGTTAACGTTA
0.7453638822079909 acaggaggcagagctcaggagataatgcttgcttgcctgctgctcacttcctgctgtgcagcccagttcctgacagaccacctaacaggctcacctcctgctgtgtggcccatgggggtgtgtgtgggggatgttggggacccctgtgttaaatgataccatacgataaaaagtaaaatcaagacatgggaaatttctac
1 ACCGGCGGCCTCCGCGCCCAGAGCCCTACATCTCGCCTGGGCCCGTCCAGCAGGCGGAGACGCGGGCTTGCCCCGGCTAGAGCACTGAGCTGCGAGGGCTGCCTGGGGCCACGTCCTGCGTCCGGGGGCCGGGCTGCTGCCGGACCGACCACCTACAGTACACCCGCCGCCGCCTCTGCTCGCGCCTTTCCTGCAGCCCC
1 TGCTCAAGGCCCCCGTACAAAATGGCGGCGAGGCCTGAGGAACCAACCATAGAGACGCCCGCCGGCCGCGGACAGAGCGTAGGCCTCTGAGCGCTGGCCCCGCCCCGCGCCGGCCTGGTCTTCCGGCGGGGGCGGGGAAAGGGCGCATTTCCAAGGGCCCTTCTAGGAGAACAGCGTGCGGTCTCCATGGTGCCGGGTCA
0.6100886384495358 aagaaaaaactggccctcccaccctagtcttttaatatgcaaatgccataagtggggagggccatgttgccaggcacatgtgggggcaaggggaagacagagggaatcgccatgtttgggtggacccagtttctaatggcttacctttgcatatcaaagcttgccagcccagctctaagagcccgggctttcctgctaga
0.3200169891927985 gggagaaaccactcaattacctccatctggtccctcccttgacatgtagggattatgaagattgcaattcaagatgacatttGAATgaccatgaagtggccctccaggggtggaaggacagcctgctgatggtggaatgggagggcggaaagccttggtcctttatggcattgttgagctattgaattaGTTCCAGATTG
0.4954175465933585 TCATGCCCCTGGAGTGCCGAGGGCTCAGTCTTCCCCTTTAGCACACCAATTAACATCTCCACAGGACCCTTTTCCCACTGTGATGTGTTTGGGTCTGAATCCCTTGGTTCTCCTGCTGGCTTTCTTCACGTGAGGCCCTCAAAGTCCGCCTGGCTCACTGTTCCCAGGTAAAGGcaggtgaagaactctctggtctccag
1 CCACTGCGAgccccggcggggccccgccccAACTCCGCCCAGGTCCACGCCCCCAGGGCGCTTCATGAATATGCATGAGCCGGTTGGAACCCGGGAGTGGGAAGCCCGTGCAGAATTCGTCCCACCGTCGGCAAACAGGCGCGGCCCAGCACTCAATTATTCATGAGGCTTGCAGATGAGGGGCCCGCCCCAGTCTCAGA
