svm_type c_svc
kernel_type gkmrbf
L 6
k 5
d 1
gamma 2
nr_class 2
total_sv 4452
rho 2.29412
label 1 -1
nr_sv 1463 2989
SV
2.554845532688273 TGTTTATATCTGCCTGCGATGAGTAAATTGTCTCTTCTGAGCCAGCGGCCAGATGGTCGGGAGACTTCGGGTCATAACGATGACTTTTATATGCTGGCCAGATAACCAACCGATATTAACAAGTGAGCAACGTCACCTCGAAACGTGCCTAAAGGTCCCCCAGTCTTCCAGCTAGTCTCAGGAGATAATCCGGCGGAATG
2.015207025487892 CTTGTATTGAGTTAGAAACCGCCACGGCACTGCTATGTATGACATTCTAACTAAGTGAGTTATGCGTTGGGTCCTTTATGTGGCATTATCTGGTAATACTTAATTGATGTACTATTTCCTCGACAAAACAGGTGGTGTGGGTGTACCGGTCACCGATAAGGGGGAACTCACCAGATGGTAGTTAACCTATAGAGTCCTGA
1.612312574386354 TTCTACTTCACCCAGAATACAGCCATCAGCAATCAGCGAACAGATGTTAACTTCTAATAATAGATATGACGATGTTCAACGAGTTTATCCCCCGGATAGACACTACTCAAGCGGATCTTGTTCTTAGGTAGGATGCCGTCCACAAGTGACGTGCCATGATACAGATAAGAACCTAAGACTCCCCCAAAAGATCAGAAATT
2.826678576402653 GCGACAAACAGGTGGCGGGCGGAGTCGGCTGAGCTATTCTCGTTTAGAATGCTTAGGTTGGCCGCTCAGAGTCCTAATGCCCTGATAAGGCGACTTTCAAACACGATCAGATGGTCAGCGACTCGGCATAATACCTTAGCTCCACAGAAAGTCGGCACCTAAGCGCGTCTACTATTGCGAGCTACCTGGAGCGTAAGAGG
1.38635394498 ACGTAGCGTGGAGAGACACCAGATGGTCGGTGTGGCATCCACGACCATTACTCTGCTGTCTGCCATGTATGTGTGTAGAACCGAACAGATGTCCGTGTTTGGCCTACCGAGGCCAGATGGTATAGACGTCTGTGTAGTTCCACTTAACCACCCGGGCTCAAGAGATAAGCTGTCACCTTGTTCAATTTAAGATATGGGTG
1.614819293166705 GTGTAAAAAGGACCGCGAGTGGCCTCATCGTGGTACAGGGCTACAAGACATCTTTAGCTCATCGGGTGCCTGAGTTAAGCGCTGCTCACTGATAGAGTGAAGGCTTCACAAGATCTGCCCCGAAATGCAAAATAGATTGTTCAGATAAGGTCTGGAAGTCGCTTGCACGATACAACAAATAAGGACCAGATGTTCATTTT
0.2525303316633741 GGGCTGCGAGAACACCCTATGTAAACAGATGGTGGATGATCAAGTGATAAGCTTTTTCACTACAGAGCGACTGCAGATGACGAGGACTCCTTTTCCGTCGATAAGTCCATTCCACGAAATGTATACAGATAAGCCCCTCTCGGACATTCTTTGTTACAGTAGATAAGACTTAGTCTCATCTATGAATCGCCACGAGTACG
0.5707868397151027 TATGACGACTGCGTATAGTAGACAGATGGTGGACAATTCCCCGTTACATAAAGGGGTACAGATGGTAAGTCCACAAACCGTAACGGCAACAGATGTTTTGAGGTACAAATATAAGGTCCTGATAAGGAGCCGAGAGCTGACGCGTGCCCAATGAGTACATACGTGATACGAATGCGTGCGCCCGGAGTATGTCAAACCGT
1.765111742285355 ATCTAAAGCCAAATGATGCGTCAAAGCACGTCGATTGACACGGCCTGACCATGAGTTGGACCAGCTGTAAAACTCGTAACAGATGGTTCGTACTGATAAGCAAAGTCATATTGGGGAACCATCGTTACTGCCAGATAGGAACTTCGAGTGGCTAGACCGACCAGATGGTAAGATAGCTGATTGGAGCCTCCTTTGAGCAG
2.233975369640925 AACGCGATCACTCGGACGTTTAACAGATAAGCGATAGACCTGAAGGAAACAATTCGGGGAACTCCTACCTTCAAGTACGATCGCATGATCGCAACACTAATTTTTTCAACAGCAGAGAAGAAGGAAGACTAAGACCAGTTGTCCGGGGTACCCAGATTAATCCACAGAACCGGGACATTAAAATCAGATGTTCGGGCTCT
1.171711266275625 CAAAACATCAGGCTGTTTTGGCCATAGTTTAGCCCGCAACTTTTCAGTACAGATGGGACAGAGCGTAGAAAAGGAGTGTCGTCACAGAACGTTCTTTAAGCTTCGGGTCGAGAGATAAGGCCTTCTGGTGCAGACATCATTCCCGGACCGACGCGAACAGATGGTACTGAAGTCACTAGAGTTCGTCTTTATTCCCAGTT
2.471563372322187 GATTACTTTAGCGCAACGCTCATCACCGTTAATTCCAGTTCAATAGATAAGAGCGAGATTAACTATGAGATTATTACGAGCCGTTGTTCCCAACCTCGTTGTACCCCAAGGACCAGATGTTAAGTCTCTTTGAACGTAGATTCATTTTGCAGCCTATCTGAGTCGGGACCTAGGTGTAGTACCGGGCTAATTCGAGCATC
1.844971174238064 GTAGAACCATGCAAAACGCCAAGTGCCAGCGAGAGAGCGGTACAGATGGTATGCTTGACTTCGATGAATGTCAGAGATAAGAAATAGAAAACTCGATTAGGATACTATACTTAAACTGCGCTCATGCGACACGCCTGGGCCACGTGTCATGATTTGCGTGAGGCCCGCCTTATAGCCATTCCATCCAGATAAGGGAGGCA
1.578294330470125 ACAAATCGTTTTTGCGGGCGTTCAGCTCCGTTCTCGGATGTTCGCTCGGGCAATATTATAGTGCGACGCAGACTTCAAACCTTGCAAGACAATGCTGGGTGAGATTATACTTACGGCAGCTTCACCCGTTGCAGGTAACTGATAAGCATCAGATACCCAACAGATGGTCACTGCAATATCGGGTCTAATTGATAAGCGAA
1.811466395891031 TGTAATTATTAGCCAATCGTAACCTCGTGGTAGACCAAATCTCTTGGAACCTTCACTATATGACTCATCACCGTCCAGCTGTTACCCAGTCCTTTTCGGGTTGAAAAGTGGCTCGGCGGTGTCTAATACTCTAGTATATGAGGAATGTGGCTGATAAGGAACCTCGGATGTACAGATGGTTGAGGCAGAGATCGATTTCA
1.289131142561533 TTCCCGTACTCTCAGTGAGGAGGTACTAAGACCGATAAGGTAGTTTATCAGTATCCCTTCGAGATATAATGTTTACGGTGGATCGTCCGCCTTGGTCTCAAACCGCAGAGGTTTACTATAGACAAGCAGATAAGCGAGGTCTGAACAGATGTTCGTAAAGTATTCATTCAAATAAGCACAAACTCGGAATTATGATAAGG
1.375434288549818 AGGCGCAATTCTCAAGATCATCCGCAACTCATGATCGGTGTACCTGGTGGAGTGGTACTGATAAGGTGCACTTATCAGGGCAGAAAGAAAACTCAATTTGGAGATAAGACCGCAACAGATGGTCAGGAGTACATAACTCTTGAATGAGCTGAGACCCCTGACGGTAGTGCCGATAAGGGGGCTCATAAGCAGATTTAGTT
3.604658742513392 ACAGAAAGGAGCGATAATAACACGTGCCATCCTAGAGGGCACTCACCAATTTAAACGTGTAATCAATGGTATGAGTCTTGATAGTGGAGTGTGCTAGTTTAACGGAGTAGGTGAACAGATGTCCGCTGACCGCAGTACTAAATGTTGGTCTCGATTGAGAGGACGAGATAACGTTGTGGAACACGGGTAATAGATCATAC
2.696697692921949 TAGTCCAGTTGGTGTATCCAAGTCAATGAGGCTGCCACGCGCCTGATTCAGTGACCGGGGCACCTGGGTGTCGTAGGCTACTATCTTATCTGACCAGTTGGTTGCAGTCGTAATAGCAGATAAGCTCCGGGACTGCGCGAGCCGTCTTCCACGCTGAATCTGAATATAATTCGCGACTATAGCGCACCCACTATGCGATC
1.181259559459962 CGACCGCCAGATGGACTGCCAGGGCGGCTTGATGACGCGGCCGTCGTGAGGAAACTCACAAAGCGATACCCTCTCATAATGGAGGTACCATGCTACTGCCCATCTTCACAGATGTTAACGTGGACTGATCGGGGGGGTGCCCATGATAAGGGGAGCAATGGTTGTGATCGTCCGACCTTATAGCTTTAAGAGTCGACCAA
0.06656898573970947 AAATTGAGCACTTTGATGTAAGAGATAAGGGATCTGGTTGAATGTACTTCTAAAATTATGCCAAGTCATTTCATTTCCAATGACAAAATATCCGCCAGCACATGCCAGATGGTCCTAAAGCCGGAGGCACCTAACCCTAGGAAAGTTGACGATCTATAACAGATAAGGCCTGTCGCCATGGGTCAGATGAGTTAAGCAAT
1.251479577482598 ATCGTTCATTGTTCCCGTTGAGCTTGCGGGCAAGCGGTTTAGTACCCCGTTAGCACGGAGATAAGACGGTCGATTAGAGGGTCGGCTCTGGCATGTATCTGGGTGTATGAGCACGAACCCCCCAGCTTAGTCAGTAACAGATGTTAGTTGCTTTACGGCTGTATGTAGAGTCAATCATGTACAGATGGCACATCCTTGTT
2.56826913691145 AGTATGCCTTCTTTGTGGTACGTATCCACAGGAGCAATATAGACCCCGAGGCCGGTTGGTTTCCATGGGATCACGGAGATAAGGGTCCAGTAAACGTATAGTTGCCTATCGATCATAACAGAAGCTGCCAGTTTTAGTCTCGTCAGCAAAGCAGATGTTCTGACTTAAAATCATCGACGATTTGGTCTGGCTGGGTAGAA
1.976157637819668 CTTATCGAAAGCAAAACATGAAGGGGCCATACTTATTGGTACTCCGCGCCGATGTTTCCGGAGACCTCTTTGCTGTCGTTAGGGCTCAGTGTATCGAGGCTAATCCCAATGTCCCGGGAGTGATAACCTGGTGACGAGTTAGCAACTATCAGTAGGGTCGTCCTACCTGGACCAGATGGCCGCGCTAGGACAGTAGTAGG
1.238285496757385 GGGGCCAGATGTTCGGGATCGTCTATGTGCCGATAAGAATCTAGACTGGATGTGCGTATCGTAGGGGCAGTCGTTGTGAAATCCTTGGTCCAGCTAGGTATGATTTTCGAGATAAGGACATTCTTTTTATCGATGAGCAACAGATGTCGAACACTAAAACGGTATCTACTCCGTATGCAACGTAGCATGGCGGCGTGAGC
2.195611698721879 TAGTGGCGCAGATTAGGCGTACACGAACAGCTAGAGAGCTAAGGTCAACCGTTACGCCTTCGAGTCCTGCTTCATGCTACGTCCTGTATGGTCACCGTTAGCGTAAAATGCTAATCCTAATAACTCTTGGCCACTTCTGTTAAAAAAATGTACCCAGCAGACTAGCCATGAACGACTCAGCAGATGGCAGATAGTGTTAC
0.5852546947052031 TAATAATTAGAAACTCATATGGGATACAACTTCTAGGGGCAATCCTGAAGTTGGCATCGATTTCCCCCTGCATTAGACATGGACAGATAAGGTCTAACTCCGAAGAAGCAGATTAGCTATCACCAGATGGTCCGGCTAAGAATTTTTAGCATACGCATTCTGCGTTAGCTGTAGTGTCTGAATGTCCTTATTCGTGAAGT
3.701459932900439 TTGCCCCTAAGTGCAGATTAGAGTTTTAGAATGTTTGAGTGAATTCAGGGCTGTATCGAGTTCAAGTGACCAGGTGTCCAAGTGAAAGCGCGAGTAATCGTGACGATACATAATGACTCCACCTGCACATATCGGGTGGCGTCACAAGGGCGACTGTCTAGGTAGCTGCGGGGCTTCCTGGGGTTCGGGGAACCGACAAG
2.711955148987667 CGACTGGAAGATCAGCGAACAGATGTTCCGAAAGGGGTGAGTTCAGACTGCCACGCGTGGAGAGTGACAGTAGAGATAAGGGAGTGGTTGCAAATGTTCTCTAGAAATGCCTGGGTGACCTATTTACTGTGAGTGGAACTCGTTTCGTGCGGTAAGATTCTTCTCTCTTGTTATGGAATATGGTGGAAGCGGGCGGAAGC
0.4976689253651877 GTGATAAACCAACAGGTAGTCGAACAGATGTTCGGCCCGCCCAGATGGCAGATTAGATAACGCCGAGTGCGGCACAGATGGTACGACTACACTACTTGACCCATTTAGGTCATGGTGACCCCATTAGGAAGCAAGACTTACGCCTCTTATGATATATTTCTACCGCATGTCTTTGAACCGACGCTGAATGTTAGGCTTTC
1.152845871384652 TTAAGCCTAGTTCGAACCCTACGCTAAGGACCCCAATTGCATCGAGCACGAGATTAGCCTTTTTAAGGTAGACTGATAAGGGGACCTTGGGTAGAGCATTGACCTTCTAGGACAATATAAGCCGACTTAACGCGGCACAACTGAGGGCCGATGCAGATAAGCATATAGGGGAATCATTAGACCGTACAGATGGTGCGGTA
2.262307880634254 GTAGTATAGATAGCGTGGCTTCACTTTGGCTTACTGTACCTGATAAGCATGCCTTTGCCGCAGATAAGCACTAGTAGGAAATAAGAATTGAGTTAACAATACGACCGGAAAGATAAGGTCAAGGCGCACTTGACCTACCTAAAAAACAAGAACATGTACTTTATCAGTTACCAACAGTTGGGGGTCATGATCCACAGTGA
0.5794497120417565 CGCAACTAGAGAACGCAACCCCCTCAGTAGCTAAGATAAGGGTCCTACGTGAACAGATGTCCGGATTTCGTAAGGAATAAAGATCGATTATGTGGAAGGACTCCCGCTAACGTGATCAGTTTGACAACCCCAGATGTTCCGAAAATTCGCCACGCTTATAACTTGACCCGTGAAGTATGTCAATGGTAACCTAAGAAGTG
2.821165897806766 TGTTGTGTTGGCCTATTGTTGAAACACATAATTGGGGGTCCAAGTTGGACAGGCATGCCCGCGCACCAACAGATGGCGACAAGAGATAAGGACCCCTAGTAGACTTTCGCACCGCGTGTGTATTTCTATTGGTACCACCGGGTTAAGAGCCTTAAGGTCAACTAGAAGTTTACAAGAACTGTAAGCCATTACTTCATGAG
4.257998127130013 AGCTGGTTGTACGCAAAGTCTTAATATCGCACCTTAAAAACATACCTGGTGTACACCTATTTGCCAATCAACAACCCACGTTGGAGCAGTACTGGTCTGAACAGATGTTCTGCCACTAGGATCGTGATTAGGACTTGCGAGACTGGCACACAATACAAATAGAATATAAGGAGCGTACTAGTCTACTGACTCTAAGTCCT
2.890927978666867 CGTTTTCCACATACCGGTAGCGAGTACTGAACAGGTTGCTGTAGAGCTGGAAGTTCAGACTAGGCATAGCACTTAATATGCGCGAGCTCGATCCCGTAAATGATTCGCGTCAGATGGTTCGGTACGAGTATGACCTCACAGGTGAAATAGGATGTAGGCCAAGCAATGCCTATACCCCTGAAGATTAGCTGACAGTTCAG
1.804299752297189 GTTTGGAGATAAGGAGCACTAGTGCTGTCTCGATCTCTGCGTCTGGGGTGTTCACGAGGGTCGGACTTATGCCGCTCACCGGGAGATAGATGAACAGATGGTAGAAAAACGTATAATATTTTCTCTTTCGAAATCCCTCTACACCGTATGACACTCCATTACCCCGGCCAGTTAATATTATCAATCTCATGATGCGGTGG
2.935467045763665 ATAAACCCAGGTTAGCATGCAGTCATCTTCCGGGTAGCGCGTGCTTAGCAGATGGTTAGCAGGCCCTCAAATATAGAAAGCAGACTCCTCTTACTTGGCATTCGTCGCGGGATTCCGCTGATGCGGGGGGGTTGTGAATGCCGATTAGCAAACAGGCACAACAGCTTACAACTAACTCGCTTTCGCCTCGTGATAACAAC
1.491074069153058 TTTCAAGACTTCCACATAGAGAAACGTGTTCCATATCAATTTTTACATATATAAGACCATAATTGATAAATGTTGGAGCTACGGCCACGGCGATAAGCTCGGTGACTAGCAAACCGAGCAGATGGCGTGAACGTTGCAGATAAGGACAGGGATGTCGCGACGTTCACCAGCATTGGGAGATAAGCGAAGTCAAATCTAGC
2.423296003135045 ATATATGTGCGTTATTGATCAAAAGAGCAGCCCACCCCGTATGGTATTTGCTTATATGTGGGATACGTATGCGAACGGTCATAACTCATCATTGAGCAACACACAGATCCCCATTTAGCACGATCTTTAGTTAGAGGCCAGATGGTTGCTCAACGAGATTTTTTGAGGTAAAAGAGATAAGCAACTGGCTAAACGTATTT
3.156937407446563 AATGGGAGTATTAAGCTAGCTCGCACCCCAAAATATAATTCCTGTTGTTACGGGATGTGACTGCCATCAAACTGGAATGTAATGATACTACGCAACGTAACGCTCTTCCCAGATGTACTATACTTTAAGACGTGAACAGGTGTCGTCTTTATAGTTGCCGATGTGATACCCAGATTACGACGGGACTTACACCACGCGAC
1.573964675096512 CCAACACAGATGAACAGATGGATCCCCACTCTGCGTCTCTAACTCCGGTGCACAAACAATCGATGGCCCGTCTGTAAAAGGGAGTGAAAATCTATTGTCCTATTATCCCCCACCTGACTTCAGCCGCAAAATAAATGGTGGGAATGCCTAATTATCATTTAACTATTCGACACTATACAGATAAGGGGAGTGGAAATAGT
2.363116469498605 GGTGGCTTGAGCATCGTCTGAACAGATGTCCAAATTTTGGGATTGTAGTCTAGGTCGTACTAAACCAGAGAACTCTGAAGATAAGGGAATATGGAATTCAGCTACAACCACTTCGCGTGATTATGTTCCGTATATCACCATTTATCCACCAAGAAGCGTATGCAATTACAAAGTAGGGTCATAATATTTGTAACACGACT
2.495275141895827 CTGATGTTTGCATGTTATCAATAGCTAGGAATTGATCTAGGGGTAACCCTCAGATCTGCCCGGCGTGTTTAGAGGTATTTAAGAGGAGTTTACTGATACAAGGCATGCTATCAAATCGGAAAGACAGCCCAGATGGTCGTACCTACGCCAGGCAATCGAGTGGAGTCTCAGGTCTACTTAAGATTAGGCACTAGCGTGTT
2.760744768860963 AGTCGTCTCTTAGAATCCGTTGATACTTGAGATAAGCTCGTGGAGACAAGTCTCTGGACCGCTAACAGATGGGAGACCGGCTGCTCAATGCCTTTGTCTTCCACCAGATGGTGTAGGCGGGGAATACTCAGACAGTCCCCACTGGGAGTAATTAGACATGGAATTCCGTTCCGCGTAGGGCTTTCGTAAGGCTTTTGAAT
2.239734587547516 AGACGCTCAATCTTCTGTGAGATAAGCTTAGCGCCAGGTGGTACCATTTATCTATGGCCTAAGGTGCAACAACTAACGTAAATAGGGTATCAGTAGCTAAGCTATGGTCGAAGCGGGGCGCCATAGGAGATAAGGTCTCATTCCTCGCACTCCCCCCATACTTCCAGGTACAAGGGTCAAGTATATCCTTGTATCACCCC
0.3160427005925004 CGCTTCACTGGAATCCAGATGGTTGGCTCACTTTCTAAGATGAAGTACGTTGCATAGATAAGAAATTCATGTATCTATGCAACCAGATGTTAGGCGATGTCTTATCCATATAGTTGCAGGATGATAAGCCACATACTAAGGTGGTGACACGTAAATTTCGGACAGATGGTTGCTCCTACAATGTATTTCTATCTAAGCTG
3.897695254257213 GGTCCCTTACGCGTCCAGCACCCTAGAACCAGATGGCCATTAAGTAATAAGAGATACCGGTGCAAGAAATGCGCAATCGCATACAGAATTGCTGAATATGACAGGTTCCGCAAACTGGGCGATCGAATTACCGGTGAATGGGGGCTTGCAATCACCTCTTCGAAGCCATAAAATACAAGCAAATCAAAATCAGTGGGATA
0.3359329658864479 ATAGCATACCTTAGAATCGAAGCGGTGATGCCGTAACGATATCGAGTAATACCAAGCAACAGATGGTAAATAACTCCAAAGCGAGAATAACAGATGGTTTCCGACATAAAGCAGATTAGGAATGACTTAAGAGATAAGGTCCGAACAGATGGCCCCACTCCCTTCTTTTGGCAGCTTGGGCTACTAGGCAGTCACGGACC
2.505110977487314 AGGTGAGAAGCATGATGGCATACACATAGGAAACCTTCTGGGGAACCAGTATGTGGACCAGGACAAATATCATATCCGCGGGGGACTAAGTGTGATCGAGTACAGATGTTCTCGTATTTCCCTTACTCCTGCTCTATGTTCGAACCGGTGGGCGCTGCCGGTCGGCTTAGGGATAGTGGCCGATAAGGTCCGCCGGTTCT
3.052449171626766 GATTAAGCTACGTGACTGCATAACAATCTTTCTGGTCGCTGCAGCGCCGTCGCTACAGCTCATTATGTATGCACACGTGATAAGAGATTTCTGCGCACCGGGAACAGATGGCCTGGAGCTGGCTCGTGCAATCTGGCTAGCCCCGAATTAACGTGAGTTGTAACACATACACAAATTATTTTAAAGATTTTGCAAGAGTG
2.996759747447419 CATTAAAATTGGGCCATAAACCTATGACAGCGTTAATATACTAATTTCCGCCCGGAAGCTGAAGTGCACCATGCAATTAATACATAAAAATTACATTCATTGCGCTTTGTCCGAACAGATGGCGAAGTAGCTGCCTTGTAGATAAGATCACCAGGGCAGTTTCAGTCATCTCTTTGTAGTAGTGCATCGAGGCATGTGCT
2.873392028059339 TAAAACACGCTTGACGTGGGGATATCAGATGGCTATTATCACATACAGTGATGATAATACGTATACTCTGCCACTGTCCTTCATTGCATTGAAACAGGTCGAGGCTTGTAATTTAAAGATCACATGTGATAGATAAGGAAGTAGCATGAGACTGCTTGGAATAATTCAGGAATTCTATGCGTGCGCCCACTTAGCATGAC
3.190828071091916 TATAACAGGCCTCGTAACGGGCCCGGCCAACCATAGCGAGAACATATAAATATAACATTCCTACTGTGGGGATACTGTTTTTCGATAACGCACTTTACAGATTAGCTGACCAGATGTGGTAGGACTCGCTCCCCAACCGCTCCTTAGTCGCTGCCGTAACGCGGAGTACAGATGTTGGAGTTACTACTTATTTCCAACTT
2.655322372479993 CTGCGCAATGACATGTTAATATTAGTCCCATCTCATATGCATTAGAACATAGTCGTGGAACTAGACCGGTGTTACTCATTTCGGGGAAGGGTGGAGAGTACTTCAGCGAAGTTAGAACAGGTGTCCTTAATAATGGGCGCATGATCCATATAGTAAAATGATAACGCAGAATTTTATTGGGTACGTCTTCGAAGATAAGC
0.7992037951273984 AGCTCGGTGAATAAGCCAATTACGAAGCGGGTATGATTGTAGTGGACACAGATGTTAACTTTTTCCATTTCCTGACGGAAGGGTAACGTGTGGAAGGATACGAGAGCTATAGTTCGACCAGATGGTGACTTTCCAGTTCCGGAAAGATAAGGCGACGACCGAGGTGGGTCGCGGCTTTGCTTTCTGCTTAAGGCCATTTC
2.243241660028028 CGTGCCCCACAAGGTAAGGACAATTGATGAGACCGGCGGCACCCCCGTTAGTAGATAAGGTCATTACCGTAAATATGTGACTATGCTCAGATATTACCTATACGCAACACAGTATTAGTTATCATAACACAACGATGATAAGACTCCCACAAAACTTCAAAAAGGAGTGTTATAAAGAGCACAGATGGTAACACGCACAA
3.309226802141827 CCGCTATACGTATGGGTCTTTCTCTCAGTGATTGATCTACCTAGGCCTGGGCCTCACGTTATTGGAGGCTGTTAAAGTAGTAAGTGCAGATGTTCAGAAATCTGAACCGAGATCCGCACAACCGATTAGATAATTCGTACAGGCTACAGCTCAAACATCGGTCACATACTATGCAACAGGAGACGGCTTCTCAATTACGT
2.273742371841383 TGGATTCTCCCATGTCCAATCTGCGGAGATAACGCAGCCCGCGGCGACGCTGGGCTCAGTGGCACCCAGGGGGAGAGTCATATGATAGAGACCAGATGGTCGTCAGCGCCAAGCTATGAATAAGTGGTTCTACGTGAAGATTTCCACGTTGTCGGGGAACTACATCCAGGAATGCAATGCGGCAGATTAGATAGATAATA
1.09191749588838 AGAGATAAGAGATGGCCATGAAAAGTTACCTAACCGTCCCAGACGGACTTCGAGCGGACTGTATGTATAAATCGATTAGTGTTGATTAACTTGAATTTCCGACTTATAGACTGAAATACTTGCTGTCCGGAACAGATGGCGGTACGCAGCGCAAGAGTCGCTTAGGCCAGGGATCAGATGGTATCTCTCAACGGGTTGCC
1.110841580494787 TTAGCTACACCTAGCACACATCTGCCGACCCGTTCGATGTCTGACCCCGGGCAGTGTGAATACCTACAGCGCTTTGGTGTTGGTGTGTTAAAAATCGCGATAAGCGCTATTGTTCATTTATCGTCTATCTACTGAGTCGCTCCTTAGTTGGAGTAAGCGTAACGGAAGATAAGCGCAGTGTATCATACCAGATGTTCCTG
1.82248234956026 GCCTCAAGTGTATGCGCTCAGCATAGCGCTGCAGGGTCAAGTAGCCGGTAAACTGATTGAACGTCAATGGTGATTAGGAATCATGGACAGATTAGAGATGACCTTACTGAACAGATGGCAAGGACACGGGGGGCTTATAACTCAAAGTTTAAAGAGCGTCAAATGATGTTAAATTCCACGCAGTGGACAGTTTGAACGTG
1.74220842310305 CGATACTACACAAGGCAGACTTAACTGATAAGGTCACGCCCAGATAACGCGCTGCTTGTTTTACAGCTCAACCGTTAGTGGGCACCTATAGAGTAAGCGTACAGCGGCAAAAATTTCACCTTAGGGCAGACAGATGGTTGGATACCACGGCATGCCTCTGCGAACAATTAGTGATCAGCTGTTGGCGAGAAAGATTAGAT
2.438922160546926 AAGCCTTGAGATAAGCCATGCACTTCAGCCGGCTTTTATACCAGTCTGATAAGATGTGCTTCTAGTCATTTCCTACTATTAGACTTGATCAAGCGATCGTCGAGGTTCCCTAAACGCAACAGATGTCTCAACCAGTAGCTCTTTTCTTTCTCAAAACGTTTGTCGGGGCCGGATATGAGAGCTTAGACCAAGTATAACAT
2.643775911207564 AGTGGTCGCGATGAGAAGAGGTATAGGAGGCTAGGAGTGATGCGACCCTCCAGATGGCCTACCCCCATAATCATTTTATGAACGCACTCATCCTTATGAAAGGTGATAAGGCTTTTGATTGGGTAAAGTGATACTCGTAAATCAAACAGCCCAGTAAGGTTTTACTCACCGCCGGGGTGGAGGCACACCGTTTGACGCAG
0.5249671342525439 GGATTCAACCGAAATATATTCTTATCCGTTAAAGGCCCTTGATGACTAAAAACAGCATACTAACCGAAATGGATTCGCCGATGTCACATAACACTCCTAATGCTCGCGTGGAAGAAGTGTTAGGCGATAATCTTGCTGGTAGATAAGCTCCGGCCGCGACGTTATACACAGATGTTTCTTTTTACTCAGCGGAGATAAGA
3.036173977683314 CGGGCAGATTAGAGCGGATCAGATGTTTTAGGAAAATAAACGCTCAGACAGGACCTTAGGCAGATTGGAGGTCTATCTCACAGTTCCGGGACGCCGTCTGGCATCACAGGATCGTGTAAATGAGTTGTGACGAGCGCTCCCGACTGGTCTGCGTCGCATAAGGCCTGTACCGTAGAACGTGGTGATGATCGCTCCTAATT
0.8771110001904121 CACCCTGCACGATAACTTGGCGTATAGCGACAATATAACTCAGAGCAAAACGATTGTATTGAGTAAGGGTTGTTGACTCAGTAACCAGTGTCTAGATTTGGAGGGTATTTGCCAGACAGATGGTCGAGGGTCAGCTACAATATTCGAATCTGTTCAGGTGATCAGGAGCAGATAAGGCGGTACAGATGGTTCGAGATCCG
2.046181211346965 GCCACTGAATACAGATGCCTGGGCTATACTCGGAAAGGCTTCTATCAGATAAGGTCAAACCAGATGGTATGATAGCAGGGTGTCGCTATGGGACCGTGAAACATAAATACGATGGATAGTTCAACGTAGTTAAACCATACTGACTGCAAAGGACATAATCACCGATATATAGCCTAAGCACACGAAAGAGATGAACCACG
2.187517793069702 GGGCATGCTTGTACTGATAACCGAGAAGGATCGGAATTCGGTTAGCTTTAACTTAATTCATCTATATATCTATATCTGTCAGCAGACTCAATTATCGCCACCTCGTGCAGATAAGGATGTTGTGCCCGAAGACCAGATGTTAGGTTCCTACCATTTACCTTTGTAGCGTTGTGTCTGAGACTTTCGCGGTCTCTCAACCT
3.945326616395353 TGGAGTAACATGAGTTTTTCGGCTCGCTGTTATCCGAATCGATTAGCCAAATTCACCAAGGGTTCGTTCATTAACATAGAGTAAGACCGCTGCTTCCTTGTCTCGGTGATTCAAGGACTATCAACGGTGATAAGCTGACTCCGGAGGCTAACAGATGGGAGAGCTTTGCTTCCTTCAAAAACCTCAAGGACGTTGCTTGT
2.77120303596657 GAATGGTTGGGGGGAAATACCCCGTATGTATACAGAGGTGAATCCTTAGTCGTAAACAGGATACAAACAGAATACAGGGAAGGAGATAAGCGTTGGTGAGGACATGAACAGCTGGTTACTCCTGAGTTTTACCAGCACACGCCCGCTTTTATCCTGAGCACTTGTACGAGAGCGCCTAGATCTTTGGGTCGTTTATAAAA
0.3893523089957266 GATGGCAAGACCATACGTCCCCTAAGAAGGTTCGGTCGTATTTGGACATAGATAAGGTATCGAATACGAACCACTCACAGATAAGGTGGTTAAGACTCACATATTACCTGTCCAAGGGCAAAACAGATGGCAATCGTTTGCATATCTACCCCGCAGTATATCTCAAAGAGCTGTCATCGTCCTGTACCAGATGTTCCGAG
3.47947925370477 TTATGTACGCGGTACGCTAACTGAGTAATCTCCTAGATCCGTTAAGGATTACAGTTGCAGATTAGACGCACGAAGGTTCATTAAACCCCTCGGATCTTCGTAGCGCGTCGAATTGGAGCGCTTAGGACCAGATGTTCGCTTCACCTAGAATTCGATTCCGCGAGGTGCGTAGAGGTGAGAATGACACTCTGAAAAGCAAA
0.2496780240000175 ACTAAATAGATAAGACAGCAACAGAGTAAGTTACTGTGATGAACAGATGGCGCACGGGAGTTTTGCAAAGGCCGAGATAAGGACCTAGGCACTAAGCTTGCAGATTGACCGTTCGGACCCTGACGAGGTGAGTATGGCCCCGCGAATTACGGCCAGATGGTTGATTGTATGAAGTTTGGTCCGGTTCTCACCGGAATATT
1.640159580286266 GCTGTGGTATTTAATTATGTTGTTACCCAACAGATGGTAATCAGAGCGTGGAAATGCTCTTGATTTTGAGTTCAATACAGGGGTGTAGATACTCCGGAGTCGGAGTTAGTGTCTGGGGAGATAAGCCAGCTTCCGTGCCGACCAGCTTCGGACAAGGCACGGGACAGATGTTCGTATCTTTTGTTGAAAGTATCACAGTA
2.214708597247869 ACCAACACTGGAGACGCTTCTTCCGTAAGTAGGTGATCGGTTAGGCGAAGTGCTGACAGATGGCCCCCAGCTCTAATAGGCTCGCACAGAATGCCACTAGTTCGGGACTGGATTGAGTCGTACCACGCGGGTCGTTTTTGAAAGCTCACTCGATAAGCGATTAGCAGCTATGAACCCCTTTACAGTACTTCATCTGGCAA
2.208536032960781 TTTATATGTTTAAGGATCGCTCGACCCAGAGGGTTTGTTAAGTAATGTAAATTATTGATAAGGAGCACAGTTCCTGAAATAAAAGACAGACAGGCGCACAGATGGTTTGCGGTGTGCACAATTGGTCCCTCGTGGCCTGTTGGGACGGAGACCAGATGTCGGCGCTCATTGGAACTACGTGGCGGTGGGGGGAGCAATAC
1.89827817448246 GATATCCATTTATCTAGGTATGGAGTTCATCATAGGATATCCAGAGATAAGAGTAAGTTGGCGCGCCTCAAATAAAGGGGAGGCTAACAGATGGTCCATCTATAACTCCGTATATGACGATTTTGAACCAAAATACTGGCGATAAGCGCGTACCTAGATGATGCTCTCCTTGGTTAATTCGGGTTACAGTACGAACCATA
2.379780786587832 TGTTTAGTTACTGAACCAGATAACCCTAGCTATCAAGTACCCTACATGTATAATGTAACAAGATTCTGACTCACGCTGGCTGACATGCAGATACAACAGATGGTTTCAGGTGGTTCCGGCTGATGTCAAGGTCCAGATGTTTCAGACACCCCCTGGTAGATGTATCGTACGGCCAACAGATGTTGGGAAGGAACCACAGC
0.01084623465294765 ATACCATAAAATGATCATTCAACAAAGAAATGTGATAAGGCATGCACGGTGCCGACAGATGGTTTATAGGTTCAGAGGAAAGTCCTGATAAGCTCAGGCCTCCATCATACGCATCGAAGCGGTCCGTTATAGATAGAACGGCTAGTCGGTGAACCACAGATGTGTGCTGGAGGCACCAGATGTTCCAAGCACCATTCCAT
1.043599608717376 TCATTAAGACGCTCGAACACCCGCGAACAGGTGTTCCGTCCCCCCTTAGCCTACGGATGCAGATAAGGGGTACCGCTAGAACGGTCTGTTGTCTCCTAAACTCTTGGTTGGTGCAACCCCTCGGCATCTGCATGTAAGAATAAAGCACCTGAGCAGATGGTCCTTAGTCCTTCGACTAGGAGAGGGGCTCCACTGTTCGC
2.841769498267297 TTATGGCATAAATTAATAACAGATGGTATTATGAGGGGGAGATAACGAGGAACAATAACAGCATTTTGCGGATAATGAGGAGACATGAGTACTAACATCCCGAACAGATGTTGCCCCTAGACGTCGAGAATACTACTGTTGAAAACCCCTTTTTCGCAAACGGACTTAAGGACTTGGCATGCCGTCTATGACCGGGGTTC
0.9423306885886815 GCACCCCCGGGCAGATGTTTATTTAGTTGGCTGAGTTTGCAGATAAGCAAAGTCGTTGCAGCAGATAAGCACCGTTCCCACGCGATAGAAGAATTAGTGCTATGTAAGCTTCCAAGTTGCCCAAAGCATGTCTACACCGATAGTAAGTGGCAATCCCTCTCTACAGATGTTCGACGGGTTGTCCCGGCTGGTTATTTTGC
3.040331293941176 TTTAGAGCAAGCGTCGGCAGAGACGCCATGGCACCACCAGAAATAAGAATCACCAGATGTTCGTCCAACTACATGATGGTTCCTCCTGTGTTGAGGTTAGAACCCCATCCGAGGGTGTAACTCCAGTGGTTTGTGCCTACAACGCGGATCGAACACCCCTCAGTCCCATTATTTGCGTCAGTAGGTCAAAGATAAGCTGA
2.789715574380211 TGGTACCGATACTGCACTTCGTTGAATACACCTAAAAGAGGCCCTGACGCTCCCCGGCGCCCTGCACAGATAAGGGCGTACTTGACTATATGGTCTATATATCTCCGAGTCTTGGCGTACAGATGGTTACTAAAAGCATAAGAGTGAATAGCTCATTTGGGATAGGGTCCCTAGACGCGATGGTCGGGTGACTCTCTACC
2.291155409698499 GATTGGCCGCATACTTACAGGGCAGTGCTCGACTAAGATAAGGCTACAGATCTCAATAATACAGGTGTCCTGCACAACAGTACAGGCAGGCAGTGCGACATCCTAATACATACCTCACCAGATGATTACCTCGTTTAACAACAGTCGTCCCGTACCCTATACGCAAAATACAGCAGGCCTTAGAATCCGACACCATTATA
2.406527537861488 CTCACTTGTTTGTTTAGTGCCTCGTCCGATAAATATAACAACAATCCATAAAAACCCCACCCTTTCCACGGTTCCGAACAGATGTTCCACTCAATGTATTGACGTCAAGTGGATTAAGAATCAATCGCGTTAGCAGATAAGGTCAGGTGGTTGATTGAATATTCATCAGCGTTGCCGGTAGGGGATGAACCGTACGAGAA
1.226582948566615 GAGGTAGCTTCACGTGGTGGATCGAAGTATCCACAAGGCACGATGACCAGATGGTCCGAATTACATGTGTCTCACAGATAAGCAATACCACAGCAGCTTTTTCAAACAACCAGGAAAGAGGACGAGCACGGTAACTCGCGTTCAGTGGCACCAGATGTCGAACTACCGCTCATAGAAAAGGATCCGCTTTAGGGCAGGAT
1.731155661556351 CAAAGACTGGACAGATGGTAGCTCAAAAAAAGTTGCTGAAAGGCTAGTTTACCTGGCAAACAAACGTCGGTGAGAACTTTGCCTGCACCGCCACGTGGTATATTCGACACTCTAGGTACCCCCTTGATATTCTGTATCCTTCCCGGGATCCAATTGTGTTGCGACCTCATAGCAGATAAGGTCCCCACTCCATACAGAAA
2.825828813587245 CCGACTCGGCCGATATGTTTGCAATCGGGGACGCGAGTCTCTGAGATCGCGATGGGTTCGAAACTACAGATTAGGTCGACCCTGGTTAGATGGTCTCAGCCGTGACTATCCAAGCAGATGGTGGGGGGGGGGACGCGTCTGCGGCTGGGGGTTAAACTATAGTGTGCGGGTAAAAAAGCATGCAAAGGGAAATATCTGAA
2.605606467296436 AATTTTAAGAAGGCATCTCCAGAGAGCGTATGGTCCGCGATAAGCCATTCGACGATAATTAAGATTTCACGAAAGTACTTACTTTTAAAATTGACAGATGTTACGTGTCACAGAACGGCCAATTCTACAGATAAGGGCTGGTCGTCGTAGGCGCTAGGCGTATCGTAAGACGAGAGGGCACCTTGGGCTCCTTAAAGCCT
1.721662725322777 AATGCATACTGAACGCGCACGCAAAGTTGGTGGTTTTACATGAATGTGATAAGAGGTTACGTGCTTGCCATTCAACAACACCGTGTGCAGATGTTTGCCTCACTGTAACCATCAAATCTGAATAAGAAATCCCGTCTTAGCTTGAATGCCAACATAGACAGATGTTACTGTATTTGAGCTCGGATTATCGTTCGAGTTAG
0.6907762133771452 TATGATGATCACAGAAACGACTGAGATAAGGGGGAAGCGCTTTGCGTAATTGAAGATAAGGGTGAAAATGGCTGCGGCGCCCTAACAGATGGTCAGATAGCTGGTGTTGGTAGTTTGCCCGAACGAGTAGCATTCTTCTAATTACAACTGTTGTAAAAGGTGATACGAATAATACGCCAATTACTATCGAACGCGTGACC
1.40601982479084 ACGTGAACAGATAAGCCATGTTTCCCGCATAACTCGTTCTCTCCCAGAGCCCTTAGGCCGTATGAAATCCTGGGTTACGTGCTGAACAGATGGCCAAGACAGACCGCGTCTCAATCTGTCATACGCCTACTCTGGGCAGACGAAAGATAAGCACACTCCAGTATTTTGCGGCACGCCGGACAACAATTTACTGTGTTGGC
2.811867891953854 CCCGAGTCTTCCTGTCTTGAGGTTTATGCGAAGTGCAATACAGTTTCTAATAAAATCACCAAATCTTACAAAGCTCGAGAAGAACTATTTTGAAATCTACAAACAGATGTTGCGCCAGCAGTACAATCCAGATGGTCCTGGTGCCCAGGGTTGCTGCTAGAGAGGCCTAAAATTATATTATAGATAAGACGACGCGCGAG
0.2182862920831311 ATGCAAGGGCCAGCTGGTTCGGGAACCGAGCTTAAACAAAGAGGAAGTGACTATGTTTGCCTGGGGTGACACAGATAACAATATGGTCTTTCGGCATCACGCTTATTCGTCTTGAGATAGACCTAAGATAAGGTTTTGGTACATGACGAGCCCGTAGACATGGTCACACGAGAAGGAACAGATGGTACTTATCTAGATTT
3.453844950681845 CATGTCAATTGAGGTAATAACTGTAGCAAGTGGATGCATATCAAGCCATCGTTAGAGAAGAATACGCGCTAGCGATACAAGCTTATTTGAACAGGTGGCCAACCGTGATAAGACGCGTATTACCATTACTGCCACTAAGTGCTGCGAATTTTTTTCGAGGACTAAAATGACATAAGCTGGATGGGGCGCGACTTGTAGTC
0.9350791046495301 GCTTTAACAACTTAAGCCTATTCCCTCTGATAAGGTTCAATCGAATTATTATGTTCTTCTGAGGGGATTTAAGATAAGGTAAGGTCCGAGGAATAGACGATAATCATTATTTCCTTATTTTGCAGGAACCGCATAGTGGCGCGCATGTAATGACGCGACAGATGTTCGCTACCCTGCTTCTATACAACGTATACATGTCG
1.050317665883286 AACTAACCCAGATCAACTCAGGCTATGAAATGTTGGGATTATCAGGGTGAGTCACAACCAGAACAGATGGTCTTCGCACGCAAACAGATAAGGAAGCCGATGGGAACAGGTGGTTGCCGTGCTTCTGATTATAGGGGGGAGGGGTGGAACGATATAAAGTCATTCTGCCACGCCAAGTGATTGCATCCTGAATTCTAAAC
1.900518767659992 TACGTTTTACCTATGAGCAGGGTCTCTACACGTCACCAGACTTCGGCTACGACCGGAGATAAGCGGTACTGGATCAAGATTCAACTATGTACGCGACTACTTACTTTCGCCCATTTATTATCCTACCCGAGCCAATCGGGGAATTACCATATTGGATACGGCCCATGGAGATGCCACAACGGGGTGTACAGATGTTTTTA
3.112108172917138 GGTTAGAGGTGAGCAAGGCGAACAGACCATGGGAAGCGTATGATTGGTTCTCAGTCTAACAGCAGATTTCGTCCTGGGTCAGCGTTCGCCATACCAACAGAGACGGAGTCCCAGAGGCATACCCGCCGGCTCATGAATGGAGCAGATAAGGGGTACTAATTGGATGCAAGAATAAGACATCAACAGTTGGTGTGCTTTTA
2.083786874490076 ATTCGTTACAGATGGCCTCCTACCGATTACCAGATAAGGTCGCGTTAACCGCATCCGACTAATTTCTATTAATCCAATATTTGACGGTCCTGAGACGGCGATAAGGCACGCGAAAGCGTATCTTGCCTTTGTCGTTGTTGTGTTTGTCTGCGGAGGTTGCATTCGAGCGGGCACGTATTCGAATATCGCTGGAGTCCGCT
1.278592963084923 ATGTTACATGAAGATAAGACTAACGAAGCCCGGCCTCGTTGTCCAGTTACCAGATGTTCGCTACTTCTCTATCAGCGTTGGCACAGCATGTGGTTCAGAAAGATGCGTGACCTGTGAGTTGGACATGCCATTCCACGTGAGGCATACTAGAGATAAGAAGCTCCGAAGAAACCACCAATGAGATGTTATATCCTTCAACT
3.030328594554314 ATGACAGACCCACTGAGGGAAGGAGGGTGCGAAATGCCCAGATAACATAGCGAGGTGGGCCGTATGGACCAAACCGACGGGCCGCCACGACTTTTACCTGTGATTGTTACGGACGAGGGAAACAGATGTTCGATTGATCTTCCCCCAGTTCGCCCCCGTCGCGAGTATTCATGCGTTGCTTTCAACAGATGGTGACTCCA
1.395732640582177 GAACGCTAATAACATATCCAGATGTTGAATCTCTTAGAAGGGTACAAAATCCACCGATAAGCTTCCGGGCTCCCCCTTGAAATTTATCTGGAGTCAAAGATCGGCGCTGATGTACAGCACCAGATAAGCCACTCCTCCTGCAACAACAGAATATATGAGTCGGACTCCTGCATCCCATCGATACCCTACAACAGTAGGCG
1.143300594800476 CTATCACCAGGTGGTGAGTAGGGATATATGGCTATATACCCCATGTGCTCCCGTTACCACGTGACCAATGGTGAGCGGCACGAAGCAACTCGATATCATACTGATAAGGGGAAAGCAGCCACGGCCTTCTTACAGGGTTACAGATTAGGCAGAAATAAACAGATGGCCTACTTGATTTACGATAATGCGTCCATTTGGTA
1.831596149960919 TGGTGGGTAGGTGGCGGTTAGTTGGGGCCATTACCAACCTTCCTCTCCTATCCATTTCGAATTCAAATGTCAGATATTGTAACCCTGAGTGATAAGAGGAACCTCTACAACGAACAGATGTTGAGCATTATGAACATGGCTGTGGGGGTGAGTCGACAGAATCGTGTAGTTGGTCCACAATGTACCGGATAACCACGATT
3.04371165170146 AAATTATGATCTTGAGTGAGAAGCGTTCCGTTGAGAGTGCCTGTTAACTTCATACTCAGTCTAAGTGGTCAACCTCAAATACATATGTCACACAACAGCTGGTGACGAGATTTCGTATCAGGTAGAATAAGTGTCTCGATGCAGTCCCGGCAAGAGGGCAAGTTCCTAGGCTTTGAGGGACACCATCAGGAGATAAGCCC
0.7737369220122686 ATTCGGGATGTACCGCAGCACATGGCATTTGCCTGCTCAGATGGTTGAGCATGTTTCTCATACCACTACAGATTAGAGAAAAAAGTCATACAAACGGCTGAGTAATAGCAACCTTATAGGCTTCATACCTTACAGATGGCCCGTCTCTTGACGTAGGTGACTTAAATCCGCCGAACAGATAAGCTTGATGATAGGAACTA
0.653968268921017 CTGAGGCAGGGAATCCCATGTCCTGTACCCATTTAACAGATGGTTACCCTTAGGTGGTACTTTCATTTGTTGCCTAGCATAACTCTGCCCCGACTTCACAGGGCGACCGATGCGTGGAAGCAGGTGAGAAGTTCGGACAGATGTCAATGAACAGATGGCTTAACTGATGCTGGCTCGGAGATAAGATCAGTAGTGCTGAA
0.3156163329966418 GCGTACTACAGTCCTCTAATCCTTGAGAATCAAGATCAATATGGCCAAAGATAAGACGGCCCCGGAACATTCTACCTCCTGCTCTGCGAGTCAATAGCTCATTGTCAGCCATCTAAAACCTCGCAACAGCGTTCTTGGAAACAGATGGTGGGTACGACACATCACAGATGTAGAGATTAACAGTTGGCCGACGGAAGCTC
3.259759444395843 CTTAGATGAACAGGTGGCTACCAAGGAGATTAGCACATACGAATATTACCGGAGATAAGATGAAAGTGAAACGCTTTGCTTGTCCCGTACGATGTCTTGGGCCGCAAGGCAAAAGTCAACAATAGACGCGAGGCCGATCACCGGCTCCTTGCTTTGATCTCTATAGAATTCTTGCGGTGCACCCTTAAACTTAACTTACA
2.316038195608357 CTGATTCGCTCTTGGGACTCTTCAGTGAAACCTTATGGCAATGAGCGTCCTGTGAACCTGTAACCGATAAAACATGAAGATGCTTGGCTTCAGTCAGGAGATAAGGTCCTGTCATTCATCTTCGGATGCCTCCTACCAGATGGTTCGAATACCACGCACTCTATGGCAAACTTAATTTCCAGTTTATGTTCAGGATTCTA
2.131997449507382 CACGTGAGATAAGGTGGTACACAATATGCATCTGCATCTATAGATGTGATATGTTTAAGTGTATGCCGGTCAAATCAGTCATGGGAACCTAAGTGGGCGCCTACCAGATGTCGTGTAAACAGAGTAGTTAGCGAATACAAGAAGTCCGAATGTGAAGAGAAAAAGGTGGTCCTAAGGCTCCTCCACTTTTCGTTTAATGT
2.80655693519252 ACCGATCCCTTCAAAGATCCCAAGGAACAGATGGTTTGTGCGGTCCACCAGATGTTTTGCTTGGCAGTTAAACTGCCCACGCGTGATGATGGTGATTAGAGTGCAAGGGGCGTTTCTGCACTTTTTAACACGGAGCAGTCTAATTTCATGAGTTAACACCATTTTTGACCCTCAATGATTGGTATTCTCGGTCGGTAATG
3.741890702596731 CGGCGGTTGATTAGCCCTAACGGGAAGATTTTACCAGACTCCACCATCCCAGCTTTAAAAGTGTCAAAGGTTCACATGTTGCAAGTATGGACAGTGTCAATTTGGTCACATGGAGGGGCGGCCCTCGGTCCAGATGTGTAACCTTTATGTACATTAAGCAGTAGTAATTCTCACGTTGTCGGGTTGATACTCGTATTAAT
2.805437788614464 TCAACCTGGCGATGTTGACCTGCGGGTATCCAGAGGAGGCGAACAGATGGCATCCGCGCCAATTTCTATGCCTGTCAGTCCTGCCTATAACATAGTAGCGTTACTCAGAGATGAAAGTATTCAGGTTCATATTCTTAGGACGAGGCATCCATCGACATGAAAGATTTAAGAGTGATAAGGAGATAGTTCATGTTTATCGT
0.3183001402081812 GTGGCCCTTAAATTTAGGGCGGTACTCCACGTACAGAAGTCGCCCATCTCAGATGGTCCGTGTGAAGTCCATATAAAATAGAATCGAAGAGATAAGAGCATTACGGGACGCCGCTTTTGAGTGGTCTACTGGTGCTAATCATGTTCAAAGATAAGCCGATGCTCCTGCAGATAAGACTCGCTAATGCTTAAGCACGGGGA
1.321773164893739 ATTGGTTCCAGGACCTCTATTAGCTAGGTATCCAGATAAGGTCTTTCTACGTTCGTTACAGATAACCTAGTCATTACTCTAAAATGCTGGGTAAGTCCAGTGCACGGGAATATAAGGGGCGCGTTAGTAAACGACCTCATTGGCCTGAATCTATGGCTAGGAGCCAGTTGTAGTGTCGTTCTACAAACAGATGTTAGCCG
3.492294427861474 ATATTATTACTTAGTCGGATAAACAGGTGGGCCGAGTCCGATGATAGGAATGTATGCCGACTCAAGAGCCTGATAAGATATTACATTAAGTATGTCGAGCCAAGGTTGGCTAACCCGGAAGGAAAGGTAAAAAACTGTCTGTCGGTTTGGAGGCGCGGGAAGTCATAATTGACCTCGCCGAGCCTCAGATCTCTCTAAGC
3.02417102850188 AAACTCATCTTTTCCGAGGAAATAAGCCTCCCCCGATATCATGAACGCAGAATCATAGGAGAACCTTGGCCCATCCCGGTTCTGCTTGTTTAAGGTATAGCTTAGGCGCACCAGATGGTACGCATCCCAGATAAGGGTGCGGCGACTAGTTATTTGTATCTAACGAGCCGGAAAATTCATTTTTTAGTGCGAGTATACAT
1.046703171024403 CAAACTGGCGGCACAGATGGTCAATCGCGCGCGAAATGCCGCGATAAGGAAGCTTAGATGTGTGTTTCGAATAAACAGAATACCACAGCGCGTCGTGGAATTTGTATGTCAGTGGTAAAATGCCTGATAAGAAAATTCATGAATGGATGTTTCAATCCGATAGGAACGTTCATTTGACAGATGGTCGCTATGTAGATACT
0.4476395133688049 GAGACTTAAATAGAGAGCGAGTTGCAATACCTTGTGTAGAATCAGGACGCAACAGATGGTCGCACCTTTTCACACGAGACAGGTGGTTGCCTATAAGAAATCACTGCTTACTGACTTGTCCTTTTGGAACAGTTGTTCATGCGACTACAGCTGTCGATCCGTCCGTTAGAAAGATAAGACACAAACAACATATAGGTAAT
2.082252707831259 GCAGGGGGCGGCAGTTAGAGATTACAGAAGATAAGACTGTCTATGAACAGATGGTCACGATAAACACCAGAAATCTTAACTAATTGTGGCGTCAATAAGTACGCCCTACGGCACATGACCATACGTTGCAAGGGAGATAAGGAGTCTACTTAGGCCGTGCTGGTATCGGCACTTATGCAAGCATGGTGTCTTGGGAAATT
2.273224880802926 CTAGCTAGGCATTTATACGTCCTAGTGTTTACAAGCGGTTAAGATAAGTCTGAGTGTTACAATGCTGATAAGCGTGGTACTTTTTATTCCTTCGGACGATTGCTGCTCTACACTGTCGAGCTATAGTATTGAGGACGACTGTCGAATACATTGGAGGACCAGATGGTTATGAACCTTGATTGACAAGGGGATTCGACGTG
4.179653363134992 CGTAGCACCGTGTGGGGATTTACAGGACTCAAAGCGAGCCCCGTTTAGCTGTGTCCACGCCGTTCGAACAAACTTAATTAACTCGACAAAGGTGTCTCTAGCCTCCCTGGTCAGGTGCCTAAGCATTAACGTAGCATGATTGAGTATCCTGCAAGCCAATTGTGCCAGATAAGCTACGTGTCAGCCCACAACCTTCCATG
0.531255303990963 TAGTCGCTGGAGTCTATCCCTAAACAGATGTCTGGAATTAACCTAAAAAGTTTTGGCTAGCAGCTGCACCGACGCTCTACCGGAACAGATGGTCTTAGGGGCCAGATGGCCGCACTGCGGGTTAACGTCCAGCCGATAAGGTACATGTAAACGTACTTATCACTCATTAATCCCCTTTTTTTTGCTCAACATCTGCGATC
3.788544518066043 AAGTGAGCCCTGCTGTATACTCGCTGTCTGTCTATAACACATTGAATATGTCAGCACACTCATGTGGAGATAAGGGGGTATAGACAGGTGCTAAGAAGCACAAAACCTGACTTATGTTTGAACGCTGCGAAAGGAATGTTAACTAAATTATTGTTCCAACGTAGTAAGGGCTATTAATTTCCCAAAAAAAAGGTTAACCT
2.784470444936846 TTATTTTCTAAATTAACCGAGAACAGAGAACGTGACACGTCCAGATGTCACGGAACCGTACCGGCGTGTTACGGCTCATTGATAAGGCCTTCTTTTAGGACGGGAGTACACCCCACGGGACCGATCTAATATTAATTATGGTGAAACTCCATTTCACGTTAGCGTTACAACGCCATTTAGTTATGATTAAATAGTCTTCC
2.850766932191683 GTAATCCGGTAGTAACTGATAAGGCATGGTCATGTTATATGTGCAGCACATTTTCTAAGATCATGCCATTAAGTATCTAACACATTCTCCGTTATTGCCCGCGGAATCAGATGTTAACCACAATTTGCTATCAAAATGATATGAGAACAAATCTCGCTAGCTTGGGCGGGGGGTAGGCAGTTTAAGGTCAAGTGGAAACC
2.681121129899996 TTGATCCGATAAGGTGAATGTGGGGGTATGTTATCGAATTACGTTATGAGCGGCGTAGCTTCAAGTGGCGCACTCGTCCCTGAGTTGTGTTAGGACAGCGAACCTAGCGACTCTGCCACAGATGGTCCCAAGGACTATTGTCGTGAGCGAGTAAGTCCCGCATATGGGGAATTACGTGTAGGCCATTAAATCCGTGTGGC
2.020205332197884 TGTCCTCCGTCGTATATGCAGAATCTATTAAGTGGTATGTTGACTACCTATGGAGAGCCCATCTCACGTAATCGCTGTTTCACCAAGCAATGCGGGCACACTTTGATTTATCGTCTCGGACCAGGTGGCCCATGATTACTTATACCAAGATAAGACGATCCCATAGCTATCGCCCGTATTTGTTTACAGATGTTGGAGAC
1.628647406996463 AAGCTCGAACAGATGTCCCGGATGTGGGCACAGATCATATTTCAATAGAGATGTGTTGGTGTTCACTTGTAGAAAGTTTCACTAGCAGGTCCCCAGATCGGAGATAAGGGACCAACAGAATACTCACAACTTTAGCCGATAATTCGAGACTTTCGCAATTAAGTCCTAAGCCTTTACGATCAGTAGTACGATCGGATTAC
1.776835322291352 TTATTGTTACGACTTTTCAACCAGATGGACCCGTTTATCTTAGAGGTGGTCAGGGATATATGTTGTTCATAGTGAAGAGTGCAAAAAAGTATGCAGAGAGCTTAAGAACCTGGAGGTCTATGCTTTATGCTGTTCCTATGTCACCGGACAGATGGTCCGGCGTCGGAGGGATTTACCGTACGTACAGTGATAAGCGTTTG
1.517747395911225 GTGCGGTCAGACCCGTCGATAAGGGGAGGGAAAAGGCAGATAAGGACAATGTTTAGAAGCCCAATGGTTACATACGCACCGAATCATCTCATGCTGAACTTTGGCTCGAGCTGCATAGGTGTGGGCTAAGAACAGATCACAGAAAACGCGTGAACAGATGGTCAAAAGCGTAATTCACGCAGATACTCAAATCCGTTGAC
2.755329977142678 TTTTGTGGTACATCGAGATTAGCTATGTAGAAGAAGCGCTATAGCTTAGATGAGCTTCACCAATCAAGCATACGTTTATTTCGCGATGTAGCGACGGGTTTATCCTAGCGAGCTTTTAGTGATTAGCTGTCTCCCCAGATGTTAGACCTAATTCCGTCATATGATAGCGTAACCTTATTAATGGCATATTTCACGTAAAG
1.940881866783322 CTCTACGACGTCATATCCAACTGAGGAACAATCGCATTTGAGGACTAGTTGAATGTTGATTCCCGCAACCAACGCAGGCGATAAGATCTATGGTTATCAAAATGTTATGCTTACCATAGAAAATTGCAACATCAACATTTAGCTGTATCAGTTACGAGGCTTCCGTGAGCATCGTCGGGGACCAACAGATGTTCAGATAA
3.307588144035217 GGGGAGGGGAGCTAAGTGATAAGAAAAGCCCAGTGCTAATATTATAGACCAGGCTGTTACGTGTCCTGTCTCCAGATGTTCTGTCTAAAAACGCAGATTCTTGCGGGTCAGGTTGCAGCGTTATATCTAAGAGTTATGCGGTTTGTTAGGTGCTACGTCTCGGCGATTTTAAGACAAGACATCATCTATGTGCTGTACTT
1.913355281109362 GGAGCAATGTTCGTGCAGATTAGCGCTGATAAGGCGCCCGAGCCTGGCCGTATTGTGATTAATCTTCCGGATATCAGATGGTAGCGTTCAGATGGTCATACTTCGTGACAGGTCGGAGTCTTGGCTTGAAACGACAGATCCAGTTTACGGCTAATTGCTATACAGCAGTTCAAAGTTAAAATTAGACCTGGGACAAACGG
1.13245505409345 ACCTATCATCGGTGCGACTGGTAGTGCTGAAGAGTGTGAGGGACCAGATGTTAAATCAGTGGGAGATAAGGATATATGCAAGGACGAACGCGTTCAGATGGTCACTTCACAGAGAAAATAGTGCAGATAAGACTGTATTGGTATAAGCAGACATTTTCTTTAGTCCGCATCCAGAACTTACTCTAAGTCACTCTTGGGGA
2.162273719151376 TATCGAAGTGATCCAATGGGATCAGATGGTATGCAGAGGAGAGTACGGAGATAAGGATACACCGCTAGTCGTACATCCAAGGAATCTGAGTAGTCCTTGACAATTTTTAATCACTCAAAGAAAATGGTAAAAATCATCTTCGAGTTTCCGCGTGTACTGGCGATTGACGAATCACTGCTCGACAAGGATTCTCTGTAAAA
1.08847385667105 CATAGAGATAAGGGTCTCACCAGATGTTCCCATATCGGAGCTAGCTCCAGTGCTCGGCAAGTGAGCGTGCTGATTGTGACCCCGTCCAGACGTTAGAGGAAACGCTTGAAGATAAGGGCAGATACGGCGGGATATCATGAGTGGAACATTCGATTGCTGTGCAATGAGTCTACTCCGATATCGCTAGGGGTGACATGTGA
0.6767475977262145 CCCAAGCAGATGGTACCTTACCTCGGGGTTGAGAATTGATAATAGCACCTAGGGCACGTCTGATTTTGATGCTAGGATAACATAGTCGGGACCTGATAAGGTGAATGGGCCGCCTTAAGTGCGATTAGGCTAAATGATTACCAGATGTTGAAACCTTCGATGAAGAGTATTACAGCATCGCTAAAAACGTTTCGTCTATT
3.446164031890094 AAAGCAACGCGGAGTGGGAGGCGCACGATAAATAAAACACGACGCACTGATAAGCTCATCATTGGGCTAAAGCAGTGTGTTCGCGAAATGTACAACTGTGCTCTCCATTGGCAGTCGAGAGTATGAGGCAGTGGCTAACAGGTGGCCGTTAGGCGTTCGTAGTCTTTCCGTGCGTTAGATAGGTCAGGGGCAACTAGACG
0.18365547534122 GTGACGGCGCCCAGTTTGTCTGAACATAGTGTTCCACTACCGTGATAAGGTGGGTCTATGGACAGTCAGAGGACGGGATTTTCAAGGGAACCCGAGATAAGGGCGTTAATTCTTCAGCAACAGATGGTCTCGGGGCGCGACTTAATACATCTGGAACATTTTCAACGATTGCTTTGAGCAAGTTAGATAAGGCCACCACA
3.342023774742364 CGGAATGTGTCGAGTTTTACTAGACATAAATTGTGTTGATATGCAGCATAGTTAGATGATAGAACGTACTAGCGCTTGCAAATCTAGCAGATAAGGTAGCGCAGGTTCGCGGGAGAGCGGTATCCTCTCAAATTGTTGCCCTATCCCCGATGACCAGATGTTCGGTCTTAATCTCAGCTTAGCGTGGTATAAGACATTAA
0.2786675918017413 TTTCGAGACCCTTGGTATTCTTTAGGCAAACGTATCAAATATATCCTTATAGCAGATTCGATGGGAACGTCGTTTTCACAACAGATGGTCAGCTACAGCAGATAAGGTACGCTCCGCTAACAGATGTTCGGTACGACAGGAAAAATCCCGGCCGCTACGCAGATGAATAAAACAAACGGTCCAGATGTTCGTTAGAAGAA
0.7064964563604875 TAACTAGCCAGATAAGGCCCGGTTTGTGTCAGCAGCAGAAAGCAGTCTTGTACGCAATGTCATGGGTGATAAGCTAATCATGGGACCGGGCAGGTGTACCAGCTTATCTTGAATTAGCTGTAAACCAACAGATGGTTCTCCAGAGTTTCCATTGTATTTTATCATGGCCATTATGGCCTCGTATAACCGCGACAGCTGAA
2.745987582271175 TACCAGATAAGCTCTTGATAAGCTGAAAAAGATAGAGGTATTTACTAATATAAGTGTCCAAACAGCGGTCATGTAGATTCTAGAAAAAGTCTCGATCGGGCTGGGTGTCTCTCACATCCAGAACAGATGAGGCGGACGTCTTGGCTTATAGACCTGGCAGACAACATTCTGGCAATGTATTTATGATGTGAAAACCAAGT
2.10093677790402 ACCAGGCCTGCTGACGCTTTTTAGTGCCCTTTCTGACACAGATAAGCAGTCAAATGTTGTTTTGAAGAAGATAATAAGAACAGTTACACGAATCAGTTAGCTCACGCCGGAGTTGTCTGATTCAAGGGTGAGACAGATGTTCAGAATGGGACATGGACCGTTTCACACTAAGCTACTCCCTTCACGCCGATAAGGATCTA
1.748340152654953 AGGTCGCTCTTTTTCTCAACGCGGACCATATCGAATCACAAATGGCCGTTATACAAATCCGTTGTGTACTCACATGTCCCTTTGTGTGTTCGATTTCGGGCGGTCTGACCCCTGACCTATGCTTTGGTGCGTTCCCATATTAAGCAGCACATGGACAGATGGTATTACTGGAGATAAGCCTCGCGATTACTTACTTATTA
2.654679766659644 ACAGCTGGTCCCGGTCAGCCCGCGACACGCAGATTACTGGAGATTAGGTTGATAGCCACCGCAGACCGATAAAATCCGTGTCTGTCATAATACTAATGTAGATAAGTTATGCTTACTTGGACAGCTGTTGCCAACAATCGGCAACCACGAAATGTCTCTAACGTGTGATGCTGTTCTGAATTGTTTATGCGTGGACTAAA
1.545521272805149 GTGTGCCACGCTAGACCATTATATTAACTTGAAGTAGTTTGGTAGGCGTGCCAGGTGTTTTATGGGTTATGTTTTGACAGTGAACAGCACCCCTAATAAGGCACTAGTGGAGGCAGAGCCCTCTGTCACAGACTTAAGCAGATAAGACTCACCAGATGTTTCGTTTTGTGTAACTGGCGTGCTTTCGCTTGCTTTCTAAG
1.259795365573887 TCAGATAAGGTTAAAGGTCCGTACGTAACAATTGAATATAGCTCAGTGACGTCGCTCTGTTAGAGTGTACAGATGGGCTAATTCGACGTTTATCTTATACTCTCCGAAGCGGAATACGTTGAAAGTGTCACGCAGACGCACGGCGTCAGTTCCAGCGAAGTAATTGCAAATCGTGAAATGATACCCGGGACACTCTAAAG
2.063106147156632 CTTTTAGCCGTGGGGGTTGTTCTAATCGATAGGCTTGTATGGTAACTTGGGGAAACCAAAATTTGAGCATCGAAGATAAGGTGAATCTTCATGAAACAGATAAGCGTACTCTACGGTGTCTACCTGAACTAATTGGCCTGTCCATAGCAGATGGTACATAAAGTCGCCCGGAGAAATTATCGCTCCGTCAACGAGAGTCT
1.793536311916219 CGTTTACCGAAATCGGAATATTGTAGGGTCATACTGCCATGTATTTTGATGGCGCAGCCGAGATAAGGAGGTCGATGTAACCTTGCCTGAATTAGCCCCGGGGCCAGATGTTCTCGGACTCTCGAGAGTATAAGTAGCATTCAATGAGGACGGCTCACTGCCAGATGTTTAACAAAAGCATCGAGTTATGTAGTGTCCAG
1.514676897269791 ACAATAAGCAGGGCTTAACCCGAACAGATGGTAGGTTCAGGTATAGACCTTAGGTGAGGCGGCTCCTTGAAGTACGATACTTGTCGTGCCGTGTACGCTAATCTCGAACAGACTTTGAACAGATGTTCCGAATATTAGCACGTACGTCTTAGGTGCTTGGACGTCGCGATAAGATTGGTCCGTTTTTTGATTTTGTCGTA
1.37164504982947 CATCACCGCAGATAAGGAAAACCGGAACAGATGTTCTACGGGCTGCCACAGCGGCGCTAGTCCTGTTAGCCGAAGGACAATGCCAACCCCAGGTCTGGTGCGACAGGGAAATGGTACATCGGGTATTGACCTACGGGTTGTTCTAAATCCAATGTTTAATCGACACGGGGTGAAGAGTCTTTAGTCTCCCGCCTTAGCTC
1.927774059441976 CACTAGCATTTAGACTTGCGAAATACTTTCGTGTCTTAGCTGATAAGGTCTAGACAGATGGCATGAAATTGTAGTGAGTAGGGCTCAGTCTCGGTAAACCAACAGATGTTGTGCCTACGAGCTTCGCCGCAAGAGGCAGAAGGTCCCGACCCTGGCTCTATGCCGTGCTAAGCCGACCGATCTAAGCCTATAAATCAAAA
1.168887159579366 AGTGGGTTCGACTATCTCAGATGTATAGACTAATGCGATGAGATAAGCATATCCTTACAGTAGTGAGTTTCACCTATGTAGACAGATGTTCGGTTGATAGCTATGCAGAGTAGTAGAATCGGAAAATACTCTCGGCTACCTGTGGACGTCTTGGGGTAATATAGGGGGACGGTAAGGGAGTCAATTTCACTCATTCTCGT
1.869546736492239 CATCAGAAGTGCAGTTGGGCAATAAGACGTTCTGATATATACCAGCAAAGACGGTTAATCCACTGAAACTGAACAGATGCTTAAGGTTATCTGGAGTGGGTAACCGACATATCTCGACCCCCCGTATAATGATAAGGCGAACGTGGTAGAAATTCCAACCCTCCCAAGAGCGATAAGCAAAAACGAACAGTTGTTGACTC
2.538087889297931 TCTCGATCCGGAACAAGTCGCTGATAAGCGCCTAGAGAAGTACTCGCGTATCGAAGCCATCGATTATTCTTGCCTAGGACAATTACAGAACCTTAACCAGGTGGTCGTGTCAAGTTTTGCGTGCTGTCTTTGGTTTGCCCCAAGTACCTAAGTTGTACTAAACAGTGGTTGGGAGTAGTGCAGGCGAATCTAGCTCTCCG
2.330896706881485 CATAGCTCCGACATATTATGCAGATAAGCTTTCTTGGTGGAAGAAGCGTAGCCTAACAGATGTTCGAGAGGATCAAAACCCCGTTATACATCATCTATCATCCTATGTGGACGTAAGCTATTACCTGTTCGGACGCGAGCATCATAGGACCGCATCTAACGCGAGCGTGGAAACACGGCCCCTGGGGTGTGAGATACGAA
2.902597036184231 TAGGCATCTGATGTAAGATAGTGAAGTTCAGAATCTCTACGTTGCCGTGGAATGCCTCACTCATGTACTGCGTCTGTCCATTGTCTTTCAGATGTCCGACAATCTTACACGGCCCAGATAAGGCTGTAGCCATTAAGCCATATTACAGCTCATAGTGAGATGGCCACCACGATACGCCGCGAATCGATATAATCTACATC
1.741272966215972 ACCCGACTAACAGATGTTCGGGGCTGCTGAACAGGGATTATTCTTCTACTTATGGTCATACAGCTACACAATACGATTTATTCCTCGTGAAAAATTAGTTTCCTACCATCCAGCAAACAGGAATAGGACCTTGCTGGAACTTAAATATCGGCGATAAGGCCTACACCTGACCCGATCTTGCTGCATGAAGCGCCAAGATC
0.3378023797829433 GATCTAACAGATGGTTAAGACACCTGATAAGAGTTACGACTACCTATATTTGCCGAGATAAGGACTAGCAACGTCTGAGTTACGACGGCAATTAACATTTGAATTATTTCCCCAAGTCGCCGTGTATTTTAGCGGTTCCCTTCCACTAAACTTTGAACATAATTCCGTAACCATAAAGATAAGAGGCATTTTTTGGTAAA
1.572084170750919 GGAGGCTGGTCCCACTTACTTTACCTGAGACCCAGGAACAGATGTTTAAAGCTCCCACTTCAATCTAGGTGTTTATAGATCTACGCTCTTTCACTCAAACCCTGTAGTAGTCTGATAAGGGTCTCTTGAGGATCTGGTTCGTGGAAGAGGGGGACAAGATAAGATGTCCATGAGAGTAATTGGTGGGTCGCGTATGCATC
1.138996666245205 TATTATTTGAGACTTTGTGAAATAATAGATAAGCCGTAGCTCTGGTGACCTCCATGACCAGATGGCTAGCAAAAGTATTCCGGCATACAAACCTTCACGTTGGTGGTAGTCAACAATTGTTCGTATATGATTTGCAGTCCGCCACATATGTTCAGATAAGGGGACACGTCTCAGTCACATCTTATTCTCATGATGTATGC
1.608883283680176 ATTTAATAGCTCAGAAGATGTCCCGCCTAGGCCCGTGAGCCTGGAATGGGCAAAATACCCTTCCGGCGCTTTGGCAACACCAGATGTCGAAAAGTAGCATGGCGCACTGATTCTTCAGTTTCACCTTCATATCCGCATTACAGAGATAAGCTAAATCGCCTGCGTTCAATGAGAATCGGTGCATGCCAGATGTTGAGGAC
2.175790957978079 GTCGCGGACAAGAGGCGATCATGAGATAAGATAGTCGGGCGCCCGTAACGGGTCACAGTATTTAGAATTGATTGCTGTGATAAGGGTCGCTTGGGATAAACTACCGTCTTAGGCTCGTAGTCTGTTGACCCTTAGTTGTGTTCTTAGAACCCAGCCGCCTGGTACAGATGTTAAGAGTGCTTATCTAAAACACTACATTG
1.211940477909853 TGATGCTGTATATATGTGCTGCACTGCTCCGAACAGATGTTCAACCTGAACACAGAGATTCTTGACTATCCGGTTAGTACTGCTCAAGTAACAGATGTTCCTGAAACCCCAGATAAGAAATACTGGGTTGTTCCCGTAAGATTCGCAGAATTGCCCAATGTTTGCAGCATTCAATCCACTCGCATTGAGCGATAAGGTTG
2.307308804307942 CCGCCAGGCTTATTATGTAATCGTTCCGGTTCTTACGCCAGAACTGCTTAAAGATAAGGATATTTCCATCGAGGTGATCATGTAAGTTTGGATAGTAGCCCAGTTTTAGGGGCAGTAATTTCGTGGACCAGCCCTAAACAACGAAGACCAGGTAGCGCGCAACAGATGGTCGGTGATCTGGGTTTAGGTACCGCTTTGAA
2.298131247870243 AGATATCGGAACAGATGTTCAATGTTGCTGAAATAAACTGATAAGGGACGAAGCTCCATCGCTCTGATAAGGATTACGAGTATGCGCGAACATAGACCGACAGTAATAAGGCGGACCAACCTACTCTTTTGATGGAGGCGTGCAATTCATGACAGCCAAGAAGGAGGACCGAGGTTCGGATTCCACTTCATCGCAAACCT
2.728156425792262 AGACGAATCATACGCCACTACGGTCGCGGACGAATCGTTGTCATTCCGCTGATAAGATTGCTCTACTAGCTAGCGTGTTGTCAAACAGATGGTTGCAAGGTACTAGTAATGGACTCATAATCGGAACGCATTCGACAAATTGGTTTAGACCTAGGGAGTAGAACCGGGCAATATCATTGTGCTTCATTTATGAACAATAA
2.58733112704514 GAGTAAAGATAACGCTCGTAAAGCCCATAAAGGCCCATCAACTGTCTATTGGTAATCTCCAGAACAGATGTTGCTTCATAACAAAATGGTGAGCCCGGAAATCCGCCAGAACTCCGTCACGCCCTAAATTCTGGTATAAGGCACTACAGAAGTGGTAAACCGTAGTGTTTGTGTTAAGAAGGATAAGGTACGCTCCTCTC
2.462939086899157 GGGAATATAAGTACTCGATGGACGGACACACTAGCTATTTTCCGGTTCGAGAGCTGATAAGGACTAGGTTTGGACATATTAAAACCAAAGAAAACTTGTTTTGCTATAAAGTATTGAGATCCGTACGACGTACAGATGTCCCGAGCGTGATGTAAGGCTTTGAGGGAGCCAAAGGCCTTCCTCCAGATGGTGGTGGGTGA
0.2593074624996458 GGCATGCATAGGAAATTGAGAGTATAAAGGTTGCATTTTGGACCGAACAGATGGCAGCTTCGGGCAAAACAATCGTGTTCTTTATCAGATGTTCACTACCACAGATAAGGGTGATTCATAGACCAGGTGGTGGGCCTACCGACAAGGCATAGCGTTATCACGTAACCTCTATAAACTCTGCCCTTCCATGATAACTGAGC
2.544770722874916 AATTGAAGACGTGGCCTAACAGGAGATAAGGAACATCCATGAAGATTAGCTGTATCAATGCCGCTTTATACAGATGGACGGTCCATAAGATATAAGGATTTCCTACTCACATACCACGTCGTAGGGTGCTAACGCTGAACTATTAGGTCAGGCCGTTGTACCGTACTCTAGGAAGGTTATCGTAGGCCCTACATGGGTAC
1.584843702303005 ACCATTATAGTCAATGAAACAACGTATGCAATACCAGCAGATGGTCGAGAGCTGTTTGAGTATGATCAGATGGCGGAGATCTGAAGATAAGGTCATCCTGTAGAGTTCGTCTAACAGACTATCTCATCGGAAAGATTTTGACCTACGATGAACCTGCAAGTACCTATCGTGGCAATAATTAGGTCACGATGCGATGTTAA
2.689578340953811 CGCCGATAAGCTGGATTGGTCAAACCCTACCTCAGCTAAAGGACATTATTCGTGATCTCATTACGATGCTTAGATCTCTATCAGCTCATCCGCCCGCAGAGTGATTTGGCAATATGGCAAATTGCTGTTCCAGACTTCCGACGGGTATAACAGATGGTTTGAGGCTCTGAGCCAAGAAATGCCGATCTATGCGTCTGATG
1.063579663086213 GCGTAACGGTTAATACGGGGCCCTCTCACCTGATAAGGTAAACGCTTTGATGAGAGTAAATATGCTCTTGGCCAGTCGCAAAAGTCGTATCGTGGGTGAATCAGTATAGCATTAGATCAAAATTGACGTCGTAGAATTGCAGCGATAAGAATTGACAAACATTTAGGCTGCCTGACGTGCTATGAGAACAGATGGTTGCA
1.924532536818194 AAATCGTATCCTAGGTAATGCCACTTCCTCGGAATGAAAGTTCGCGACGCATGCTTATAAGCACCATCAAGGGTCTAGATACAGATGTTCTTTATGCACACAGCACCCTATTTCCTTGCGAAGGGGCAGTTGTGACCCACCACTGATAAGGTTTCAGAGCAACGGTAACGAAGGTATCCAAAGGTCATACTACACTTTAT
2.68218292120099 TCACCAGTAGTGCAAGCCGCACCACTATTTTCCCCGGATACTTGGCAGATAAGATACAGAACCCAGATGTTATGCCAACCGAAGGGATCGACAGGTGGTACCGTCTACTATGAATGTGAATTTGTACTTTGGGAGGTTTCCTAGGGGAAGATCTTGATTGGCACATTTTTGCTGAATGATACCTGTCATATGGAGATGTA
2.261161162425513 AAGTCATAAGTAGCAATCTTTGTACCTCTGTGACACCGAACAGATGTCGACATGTGTCCCGTTAGAAAGTAATAGCAGGGATATCGTTAAGGTATGTCAGATAAGGACAAAGAAGTACATGTTGGAAAAAGGAGATGTTATGCTTAGAACTCAGGAGGTCCCACGCGGATGCGGATTCCTTCTCGGCGGAAGAACATTGT
1.760554937351432 GTAAGCACCTGGGGGTAGCTAACACGATGTCGCAAGACCAGGTGGTACATAAACGAGCCACCATCGAGGGTCATTACCCTAACATATACAGATAAGGCAATGTTGTTGCTGAAGCATTATCCCGGCGCTTCATCATTCTGTAGAAGTTAACCGCCATTTCCCACTTGACTTACCTTTAGAGATAACCTCAATGGTACAGG
1.751730817328812 GACGCCATTGCAGATGCTATTGAGTAAAGGCGAAGAGTCTATTGGCCCATGGTGGTTCCACCGGGTTCCACAATGATCGCTCATGACGATCGACGATTAGCTGATTAGGATTGCGTAGTTACTATATGAACAGTTGTCACCATGGTGCATTAAATCTGCAGGTGTTTAACACAACAGATGTTTGATGTAGCTTCGTGACG
1.322495792577105 TCGCGGAATGTTAGTGACACATTCTTAGAGATAAGAAAATGAAACATATCCTGAAATTTATTAGATTAGCTCAACGGTCCCTGCCTCAATTTTTGCAGTTTCGATTAAAAGGACGACGTGGTTATTAGTTGTTAGCTCCTAGGACTTACATATTGCATTTCTTTTTAGTTGGGTTCGTGAACAGATGGTTGCAGAACCGT
2.806359721538386 TTTCGACTAATTTTTTCAGTTCTGTCACAACTTAGAAGCCGCAATTGTCAAGATTCGAGGGGTTCATCGACATGGGTAGTGACCTCGAGAGATAAGGCATATAGTTACCAGATGTTAACTCATGTAAAGAAACTGAACGGAAGTGTACTGATTAGTCCTGCATGCAGTGTCTCGCAAAATCGTCGTCTGCGACTTGCGGT
0.3861788075843557 TTAAAAATCTTTCCCCACTTGGGGTTTCAAGCATGGCCGTACAAAGCATGCGAACAATGGACCTACGTGCCAGAGGATGGCTGTGGGGCAGAGATACCGCGCCCGCGTAGCGCATGGCACGCAGATAACATATAAGGCTCAGATGGTCGAAGTTCGACACCTTGGACAGATGTCCGTATGCCTGACTATTGATAAGGTGG
1.605076628457522 AACCTATGCTACATTCTTTCTCCCAACCACCAGATGGTCCTCTCCTTCGGGTGCAGACAAGATAACCTAGTTCTAATGGATGACTTTGGGCTAGAACACAGATAACGGATAATTTTGCGTTCCACCGTGTGAAGAGACATAGAACTCTAGGTGCACAGCTGATCGGGAGGCCTGATAAGGCTGGCCATCGCATGCACCAC
1.585159748664444 CTGCATAAAGTTACTGAATCGCTCTTCTTTGTTCATATATTTTCCAGATGTTCGGTCAAGCTGTGCGTTGTAAGTCCTACCGTTTCCATGATTTCGCTGGCTAGTCGTTATAGTCCACGTGCTATTGATTGAGTTGTTGAGCAGATAAGAGAAGATGTCGATAAGTCGCGGGTATTATCTTTCAAGCTTGTACTAGGCTA
0.7126399382717195 GTTTCCGTTAGGTCGTGAAAAGATAAGGACAAATTAGCCCGAACAGGTGTTATCATTCAGCTTGGTTTAACTTGGTCGCTGACTGTCTTACTGTGACCAGATGTTATAACTGGGTCTGATAACATCTGTGCCGATGTTATTTTATACTGACCTTACGCAATTAGGAAGCAGGGCCGTCCAGGACAGATGCTGCTTTACAG
1.437275436697903 CTCGTTCCTTCATAGCTACACAGGAGTAGATATCCACGAAGCTATCGGCTCAATTACTAAAGCTCAGATTGTCCAGATGGTCAATGATTCGTGCATTTAGCGAGCCCTTAGAACTGATGCTATAACTGCGCTTAGGTACATTTGCCGATTCGGAGATAAGGTCTTTGGCTAGCTACGACATTTATGTTTACGACTGTTAG
1.171553966952767 TTGCTGTGCCCAGATACGTAAAGGCACAGATGTTCGCTGCGGTAATAACTACGGACCTAATATTATGTTACTATTTACAAAAGATAAGCTATACACCTTAGCCATTCGCATCCTTTCAAAGTGTTGGCAATCATAATCTAGATAACTTCTTTGCTGCCAGATGGTGTACGAAAAGGACAATAGTGCAATGCGTAATTTTT
1.127889032110114 CCGCTGCTCGCCGACTCACCGCGACTATGGTATTCCTAAAGGGCTCCCACATTTATTGCATCTCGTGACCAGATGTTAAGCCTACCTCCTTTAGGTAATGTTCACCAGATGGTAGCAGGTTGACGCAATGCTGGACGACGCTCTGCGCAGTACTGAATTGCAACCCCGTGATAAGCTATTCTTATGTTTATCGAATCCCT
1.244864306452037 ATGTTATGCGCAGTACCCGACTAGCAGATGGCCCGGTGCTTAAACCTCGACCTCTATGTGCTCCTCCTAGTATGTTGCAGGTCAGATAAGGACATGCTCCTACTACTGCGCCCATCTGCGGTAGGCGTGGTTTAAATTATGCGATTCGCCTACAGATAAGCCGTATAAGTTCCAGCAAGGCTATTAACAATTGTGCTAAT
0.1194789930439435 CCAGCACCAGATGGTTATCTGGAATTCTGGGGCCAGATGGCCCCTCCGGACACCGGTATTTTGGGGGTGCACCAACGTAGGTATCTACTTAAAGGTCGTCGCACCCGCCAGAATGATAAGGAGAGGTGGGCAGTAGACTTTCCACCGTGCGGACGAATTACACGGAAAGAATATGCAACGATGACCTTCAAGATAAGCAT
1.403784344079509 CTGAATGATTGCACTGGTGATAAGGTTCGTCATTATGCAGCCGCCGACTCAAGCGTACGGTAACAGACAGGACAGTTGGTGGTCGTATGACGACTTGCCGATATACCCTGACGTAATCTCATTTAATATAGCTATCAACAGTTGTTCGATTCATAACAGGTGGTACGGGGCGCCCCAAGATAAGCGTGTGATGGACCCAC
3.037092057911939 AAAAACCTAGTATGTGCTCTGAGGAAACCTTCAAACCGGAATACAGAAAAAACTCCAGCGACAAATACAGCTTCCCCTGAGGCGATGTGAGATTCTCAAAGCTTGCAGAATAGCATGTCTGTAAAGGCGAGCATAGTGATCATGTACTCTGATAAGGTCGGATTATGTATGAGCTTAAGAGACCATTAGCAGATGTTACA
2.946457368848031 AGAGTGCGGCAGTCTGGTATGTACAAATCCTGACTTGCCAAAGGCAAACGGTAGTAAGACAATATCCAACAGGTGTTCCGAGAAGTTGGTCAATATACTCCATCCTGAACAAGGATAAAAGGGCTAGAACGATAAGGGCCATGTAATCACACGCGATTAGAGCCCATGAAACAAGGGTCACCGTCAACTCCGAGATCGCT
0.5069733379501794 AAGGGTACTACACTTGTCGTCTGGGCGCACAATTTATAAAGAATATGAGAAGGTCACAGATTGCAGACGCCTGCGGTGTCCCGGCACACCAGATGGCCGGTCGGCATCAGAGAGATAAGGCGCCCCAGAACAGATGGTCCTCAGAGTATCGTCACCAGGTAGGACAGACTATAGTTTCGACATGTATCAGACATGAGTTG
1.819669035333584 CCCGAGAAGAGCTATTGTTCGACAACCGTCATAAGCTCAGCGGACCGTTGGATGTAGCATACAACTGTGTCCTCTAGCGACCAGATGGCAGAATAGAAATGAGAGGTTACGCTGGCTTCAACTCTCCATTTCTTTGCCGTTAAACCAGCTATTTCCCGATAGTTTTGATTAGCCATAGATAAGGAAGGGCGGATCATTCT
0.6399564920272786 GGGAAGCGAACACCTGAGGAGTGCAATGCCTTGCTTTGTAAAACTATGACTGTGTACCTAATGGATGCGATCTATCTGGCCAGATGGTCGATAATGTTATGTACAGATAAGGAAAAGCGACTGATCTACTTAATCATGAAACCTTAATATCATTTCAACAGCTCTACACGGACTAATCTTATCATAGGGACGATAAACGA
2.018725285187539 TAGTGATCGGAATCATAGACTTGTGATAAGAACATGACCCGCATTTACCTGAGTACGCAATCATTTACACAAAATGCTTTATACACCCCACCGGCCAGATGGCCCTCCGTATTGTGTCGATGTCAGCACTAAACCGCTGGATAGATGGGCTGGATATATTGATCGCGATAACGCTCGAGCGTCCATCCAGTATTAGCTAT
1.878547840875579 CACAAGATCCGTCCTTGGACTATCCGTCTAGGCACCAGAGCAATCGAACAGATAAGGATGGTCTGATGGATATAACTTTCCATACAATTTCCGGTCTAGAGTTGAACGATCACAGGTGGTAGAACCCATGTGCAGCAATATCGGGGCGATATAAAGATAAGACGTGTAGCCTCCTGGGGGTTAGCGAAGACCCAACCACG
2.363820895603741 CGGGACAGGTGGTCGGCATGGTCCGGGTTGTATGTCGTTCTAGAACGATGGCCATCTGACGGCGAAGATAAGCGAAATGAATCGCCCATGCACGCCAGGTGAATAAATTCACCCCGCTTATTAACTCCTATCCGACGCCAACTAAGTGTCCTTCCCTTATTACGGCAGAGTCCACGAACTTTTGTCTACGATATATATGG
1.235286095978907 CCACACAGATAAGGATTACGGGAGATGACTTCATCCCAATGATTTAACTCTCCATAACCGATGAAGGTCCAGATGGTATAGCGGCGAACCTTTTTACGGACAAGCAATGGTGCTTTATCAACTACCGAACATACGTTGGATAGTTAATGATGTCTCGTTGCAAACTGACAGAGGAAAACTAGGGCAGATAAGATAATCTA
1.157827502284988 GCCAGGACAGATGTTGGTGGGTTCACGATAAGCTCTATTATAAAGCTACTTCGCTAACTAGACTCCCGCACATGTGAATCATCCTAGCGCTATAGCTTGGTTTGATACTGATAAGCACCTATAAGGTGTTGTACAGATGTTCGTCCTCATGATGTAATGAACGATCACGACCTCTATCGCGCGAACGGAATCATTCCTGT
2.973254448596718 TTAAATGAAAGGGACCGTTGACCAAGAATAGCAACCCATATCGGCCAACAACCGAACAAGAAGTCGCACCGCAATCCTTAATACGTGATAACAGCGAATAATATCCTGTTGTTCGACATCAGATGGTTCTTGAGGAAGGGTCCCAATCTTTATCAATCTAGCAGTCTAGAGCGCGAGAACTTCTACCCGGTTTGGCCAAG
0.8841918764689056 ACAACGAGTACATCTCCCTTCGAGGCCACTTGCGCTTGTGAACGCAAGACCTACGGGCAGATGGCTCAATAAGCCTGTTAACAGAATGTCAATGCTGATAAGGTTTTGCCTTGACATTTATTGAAGAGGACAGTACAGATGGTGAGAACAGTGTTCGAATTCGTCCTTCCTTAACCTTCATTTTGAGGGTTACCGCACTA
1.83388570178592 CAGTCGTCGGTACAAGGTTAACTATTGTGAGCTTATCCTATGCCCTTCTTTGGAATCGACACGCCTCGAACTTCGTGAAAGACGTTTATACTTGCCCGTAGGTATGGACAATTAAAGATTGTTGAATTTTAACAGATGGTGCGGGCTAAATATAACCTACCAGATAAGCTTAACCCTACGAGTCTCGATCGTGGTACAGT
1.103190547321782 TGAGAGATTATTCCACACAATAGATGGATACGGTGAGTCCTAGACCAAGGCGCTCGGAGATAAGATCGATTATTGGGAACCGAATTTGACTCAGGACTATGCCATTGTTAGAAACTCCATCGGACCTGTTTCATTGAGATGTAAGAGGAGGTTCGGTTTGCTATAGGGACGCCTCAGAGGACAGATGTTCCATCTGGTCC
2.609096659244787 TATCCTATTGAATACGTCACCAGATGTTATGATATTAGCTCCCGCAACGATGAATTTCGTCTCAGCGCACACTGCGAGTGCGTGCTCGCTATCTTCGTTTAAAAATTTCGTACAATTAGATGCTTGGCACCCGCAAACGAACACAGACTCAAGATAAGGCATAACATTTCCGAAGATCAGCGAGTTCGTGGTCTCCCCAA
0.5497406569898619 CACACCCGGCAGTCACTCACATACGGAGCATATCCGAAGAAGCATACATCTAAACCAGAACTATGTTCTCTAAATTTCTTGTGATAAGAAGCCAAATCAGCTGGAATCTCAGAGAATTTTCTGCTGAGGGAAACTCGAGGGCCCTGCCTCGGCCCAACAGATGTTTGCGAAGCCATGAATACACAGATAAGGGGAACGAA
2.004558947410109 CAAAAAAAGCAATAAACTTTCTCTTATACCTGATAAGGTTACGGACCGTCTTGAAATGTTCTAGTGGACGGGGTACTACAGCGTGTAGTTGAAGAAGCCCCCTATATAGAGCCGCGGTCTCGGGATCAATCCGCGAGAACGAGACCGATCCACCAGATGGTCGGATAGAACGAAGGACAATTTAACATCATCATAGCGAG
2.048923095204714 AGGCTATTCACGGGGGGGCCAAACAGGTGTTTGAATAACCTACTGAATTCTATGTTACTGATAAGAAGCAACCGAACTCACTTTGACGACCTGGAGATAAGATAATTACGTTAATAGACCTTAGAGCTATCAGGGGGATGCTGCAAGTCTGCAGGTCAAAGAGGTCGTTCATAATCAGGCGAAGCAAATTGAAATGAACC
3.171874023675977 GCTGATACGGAGTGGAAGCCTCAAGTGGTTTTATCGGTACGGGAGAAACAGTCGGCTGGACAGAAGAGGACCGATGAAGACCCGATCAGATGCTACGGGCATTTATCCTGCGCATATATACCTATTTGTTTCTAGAGAACGGAACACAATGATGACCTCATAAGGATTATAGTCTCCACATGAGTAAAGAGCCTCCGCCC
0.9943920540311861 GTGAGCAAGTGCAGCAATTGTGGGAAGCTGTATAATTGAAGATAAGGGTAATTACTATAAAACCCAGACCCGCCGAGGTAGGATACCTCCCCAACAGATGCCTGGGTTTCATACAGACCAGGGGTACGATCAGGGCAACAGATGTTTATATGTGTTACGCTATGCTGGACGTCACACCTACGGTCAATTGGGGTGCGTTT
1.978888154361369 TTTGAATGCGGGGAAAGCTAACAGCCAAGTTTGACATCATTGTTACAAGGCGTGCAAATATCCTCGATGATGTATAAAGGTGTTCCTCAGATAAGCTTGCGTGCTTGGCAGAAGGGGGCTCCACCACTGCGGTAGACAATTACATGCCCACGGTGTTAACAGATGGTCTGAGCCGTAGCACACAGCCTCATGCGTGATTG
0.2678679441455883 ACGAAGGGTACGACAATGATAAGAGCACAGGCAGCCCTCGCCGGAGCCAGCTGTGCCGCAATGATTAACAGATGTTATCCGGTGAGTACAATGTGATAAGGTCAGACCGCGCTGAACTCCAGTTGTGGTTTGCACCTTGTATTCATCAGATGATCGGTACCTAGTGGCAAGATGGCTAACTCTATGCGGGAATTGCACGA
2.783381017006657 AGTCTTCAAAATTTACCGTCATACAAGAGCGAGGTAACGTCACATCATAAATTTTATCAAACATCAACGTAACAAATTCTCAATAGGGGTGTTGAAGATTAGATTCGCACGGTACTGGTATATCGGAGAGATTTCGACGTAACAACAGCTAGCTCCGGGTCAGAGCATTTGTGGCGTACAGATGGTAGCTAAGGATGATT
1.859385710008906 GTATCCTGGTTATAGATAAGCCAGTTGGTGAACCAGGTCATGGGAATATGTCAGGAGAGAACAGCGGTACAGATGGCCAAGGAAGAAGCGCAGGGATCGATTACGTCGCTCCCCGATGACTATACTTCTAAGATAATAAGAAAGATTTTCACGCAACCTCTCTCCATGAATCAACGCGGATTCGCCTCAAGTTACCTTTA
3.313315712710293 TGCCCGATAGATAACGCATAAATGCGTAAAGCAGGTATTGGATTACCGATCAGGTGGTACACATTGATTCCAAGCGATAAGATTCCTCGTTATGACGCTTTTCAGCTATCTTAGCGATGGGATGAAATAAATATTTCCATGGTCTGCCTCCTAGATAGGGGGATGCTCAGCAGTATCCGTAGGGCAAATTGGAGCAACTG
1.970781839275531 CAGGCGGACGAAAGGCTTAGAAAATCACAGTTTGAATTAATAAACGGTGTTTACCGTTCTGCGAAACTGGGCAGTGTAACTAATGCTAACTGGCGATAAGGTCTATTCAGTTGAGCATTACGCGTTGCCTGATTAGAATCAAAGTTGGGCGGACAGATGGTTACTCCAAGGAACTACATTTAACCAACGAGTAGATTTGC
1.566303477762316 CTTCCCGGCATTAGTATGGTCTACCGTAAATACTGATAAAACAGATAAGGCTAGTCTTAAAGTGTCATACACGTTAGAACGAGAAGGACATAATGTAAGGTGCATTACCGTGCCAGGACAGATGGTCCCATGCCGACCATGGCGTAACCTGCGCTGACCTATCGGCGCAGACAATCTGTGCTTGCTCTCTATGTACTGTA
1.968669363691187 CTCGCCGACGCTACTTAATACCCTATGGTTAAGAAACAGATGGTGTCGTTCAGTTCGCGGGGAACAGATGTTCGGTTGATATGGGATGGCCTCCCGGTACTGATAAGGTACCCTCTGAATCCCGCGCCATCCAAACTGAACAGCCAGTATAACAGATGGTCAGTAGTCAATACACAACCACATTCGCCAGCACCGTGCCC
1.95441561751006 ACCGTAAGGAACAGGTGGTAGCTGTGCACCGAAATACCTGGAGAGATAAGGCCTTCAGGCTTACTTTGGCAGTTGTAGAATTAAGCGCCACGAAGCAGTTCAATAGCTGATCGCGTAGTTTGTCCGTTGGCTGCCAGCAGATAAGGATTGAGACAAAGCGTTGCATAAGTTTAACATGGTGCATACAGATAAGGAGTTTA
1.072960443275401 GGTCGAGAACTTTGGGTATCATCTATATCTCGGCCAAGATAAGGTTGGATGCTATCCAAATGAGGTCGACCACCGTGAATTCGGTGATCAGATGGCCTAATGCTCTCCAACACTTAAGAGACGACTACATCCGCATGGTTGATCAGATGGTAATAACAATCCACTACACTCTTCTTTTATGTTACACACATTTCGTAGGA
1.850974211810729 CTTTCCCTCTTAAGGCATATGTTGACGCGAAACCAACGGGAAAATGTCAGATACAGATGGTGGAACGGGTTGCCTGTTATTATGCTTGATAAGGCCGTGTAGTCCTTACTGATCACGCTAAGAAGATGATTAGGGCCCCGAAGGTGGACCTCCGTGACAGTAACCGCAGAAACTGAGGAGTCCCCTGAAACTACTCTGTT
2.420471135923721 CATAAACTCTTTGAAGAGTTTCTAGATCCGCCTAGACAGATGGTTTGGTTCTTCTGAACAAGTCATAAGGATAGGACCATATCGATATACTTCGCTGGACTAGAGGACAATTGATAAGAGCATTGGGCTCGCCGTATAGCCCGAGAGTGAGGAGTCGCCAGGACGGGAAGCACTAATCACCCCCGCTTTGAAGTAAATCA
1.498057307819706 ACGCCCCTTAGAGGTGATAAGAAGTTTCGGCCCGCGCAGTAAGTGATATAAGCGAAATATAGCAGATAAGGCTTTCCCAAACACGTGTTAGTATATAAGGAACTGGAGTATCAGATGGTCCCCTTCAGGAACTCCGAATCCCGCGCAGATAAGCTACACCATAGACATTCTGGTTAGGGCGATCCAGAATACCGGTTTTC
0.9647455819015891 AGGCCCCAGGTGATAAGGCAAACGAGTTCAGTATCGATAAGGTAGTGAATTCATCTGGAACATGAGTTTAGTCGCCAATTATGGTCGAGTAAGTAGTTAAATGTAACAGCATCTAGTCTTATCTCAGAAGACCCTTGACTAGATGACGGTAGTATCCATATGATGAATTTCTGAACAGATGGTAGTGGATCATCATCAGA
1.443658920299146 ATCGAATAGAGCGCGGTCAACAGATGTTAAACTATTGACAAGACATCGCGACAACCGAGGACGAAGCAGTACGACGATGACTATACAATGGGTACAGATGTCGTTGGCCCTCGGGTAAATTATTACCTGATAAGGTTCCCAGGGAACTTACAGTGTCGACAACAGACCAATTATGAAGATGGTACTATTATTGAGTAAGC
0.7548757628441891 CGGTAGTGCCTGATTTATACTTCCCAGTAACAGATGTTTGCTACTTTATCTCATTGCTTTTGACTTTAGATAATGATAAGAATTTGCCGTATTCATTTCTTATAGAGAAAAATTGTGCCGACGCTAAGATTCGCACCAGATGGTAGGTCTATCCCCATGCAAGCCCCAAACTTCCCACATGCATAGTATACCGGGATGTA
0.9107161055025038 TACATCTACTGGATGCTGAGTCCGCACGGACTGCTCATTGCTGGAACCGGAAACGATAAAGCCACATGTCGCAACGAACAGATGGTGATATTACAAGAAACCATAGATTCGGCATAGCGATAAGCACCGGTAATATCAGTAAGAATCAAGCGATGGTATCGTTATCAGTGGCACCAGGTGTTGTTCAGGACATTTCCTCT
1.89732179158134 GCAGCTTCCAAACAGGTGTTTCATCCAACTGATAAGAGTTCGGCTAAGATTCGTGGGATTGATTTAGTTCTGTGGTCGTGGTAAAGACGCTAAACTACCAGATGGTATGTGTTTCGGAGACTACATGGAGCAGAGTAGCACGGGCCTAGCGTGTGTTGATCAACAGAGATAACACCAAGCCACGTGGCCCGCTGCCCTGC
1.940754325854636 CAAATCAAGGTAATAACAGTCCGAGGTAACTCTGATCCACTTTCTTGAGTAAGGCTCGAGAAGTTTTTTCCACCTTACATTAAGATAAGATCGCAACAGATGGCAGCTTTCGCTCCAACACGGATTGATGTCTATGCGAGCGCACGTGATACGTTTTGCGATGGTCAGATGGTAACAACGATGGTCCAGTTAGCCAAACC
1.300229998144494 TTATTGAACAAATCTAACCAATAATTAAGAATAAGCTCTAAACAAACTGCTGATAAGCTACATAAGCACCTGTTACACACACAAATCTACGCGCATGCGGAATATTACTCACGCCTCTCCTTATTCGAAATATACCCTCAGGAGGTCATAGCGATTCGACACTATAGTGATCGCCCCCAACACTACAGATGGTCCGCAAA
3.06645237451886 ATACTTGAGTTTAGTCGTTTTGAAAGTTACCTCAAAACCACTTTAGTTACGCCGTCATAATCTGGCGATAACGGCCATATAAAGGCATGATTACTGTTAGGTTATAAAACACTGTCGTTGACTATAGCTTCGTCACAGATGTCGCCGAGTCTGTACACAGTGGACATCCTCATGCGGGAACCGCGAGCAGGATCCCTAAG
2.220820672127028 GCGCTACAAAGTTTACAGAGTTCGAGCGGTTTCAATCCTAAAGACGATGCTACCAGATGTCCCTGTAAAACAGAGTTGTATGCTCAAAATGGTACGCTTACTGATAAAGGCTGCAAAAATCAGAAGCTATGTGACAACGGGAAGTTCTAAGTCCAAATCACGCGTAAGATACGGAGATAAGCGACGAAGTATTTCTGATT
0.7908043364356565 GCACCTAACAGATGGTTAGCCCCGCACTGTTACATCGCCAGATAAGGATGTCGAGTCGCCGAGATATTCTATTCGAGTACACCGGGTCAAGCAAACATAACCCTATCATAACTATACAGATATATTCATCTGGTCTAGACGGTTCCGGCGTGTTGTGCTAAACACGATCTGCTGTATGACGCACCAGATGTTAAGCACCA
1.561684579025823 GAAGTGACGAGAGGGTGGTTCACAAAAAGAATCTACCAAAAACCAAATCGGTTGATTAACGAATCGGGGTCCAACGATAGGTAAGCTCCTCTGTCTGTCAACACAGATAAGGGTCACAGTGGGTTGGACAGATAAGCGAATTATACACGATAAGGCTACGGTCTAACATCAATCTGCCCAGATGGTTCTCCTAGGCTCGG
1.583462382519037 GACACAGCCTTATCCAATCTGCAAGAATCTGTTCGAAACCTGATTAGGTCCGCTATAGAAGCTCTGGCAGGCCAAAGTCACCATATAAATACTCCGCATCGGTATCACGTGATCCAGATGTTTAGTGCCTCAATGACGCGCCGCTATTGAAAAATCCATTTATTTTGATGAGATTAGGTCAGGACTGGAGCCGTACGCAT
1.182769157635663 TTTCTGTGCAAATGATGTCTACAGTGTGTGCTCTCCGTCTCAACAAATGTACTCAGATGTTTACTTTTTAGGCAGATAAGGAAGTAAGCCTACCGTCGCGGCCAATTCTAATGATTTGCTCACTGTAAAGCAATGGCTGCATAGCCCAGTCTCTCATAACGCACAGATGGTCCCGCCATGAAGTGCCCATAAGTATTCTT
0.2098394167717103 CCGATGAGGCAGATGGCCCCGTAGAGATAAGGTGCCTATTTGAGCATCCAGATGGTAAATATTGGTGTACTTACAGGCATCCAGACTATTTGATGGGTACCCGATCTGGCAGAAAAATTCCGACGTATAAGAATCAATCCTTCTTAATGAAAGTGACGGCTGCTGATAAGACCTGATAAGCCTGCGATTATCCCCTCTAC
0.7785629130622708 GTTTTTTATGACTCGTTTAATCGACGCAAGACTGGAACAGATGGCAGTAAATCTAAGAAATGGAATCATCATACGATATGGCCGCAAAAACGATGTGGCATAGGTGCACACAGATGGTTGTAGTGGACACCTCTGCGATAGATAAGGCCGAAGATAAGCATCGCACCGATTTTGTTACCGTTTTCACAACAGTGCCCCTC
1.733037586486669 AGTAAAATTTGATAAGAAATTAGGCCTTATGGTGCACCTCGCAGATACCATATACTATTAAGTCGGTCGCACCTGAACGTCGATAGGCCGACCCTAAGTCGAACAGATGGTTACATCCTCGTACTAACATTTGCCACACATATCGTTAGGCAGATAAGCCTGTAGGAACCTAGATTTAGTCGCACGTAGGGCTCTCATTT
3.937265481874722 CTAGTAGCCTTTGTGGCAGGGAAAAGTCATAGAAGATAAGCGTCCGTAGTTGGAGTAGTTCTAAAGGCGAATTCTGCACCTCTAAATTGCCGGTCTTATTTAATACTAGTTACCGGAGGGCTGCACAGGTGGTACTAGATCTCACACCCTAAGTTCTACTGGCATCGGCTAAGTGCTGATCACTTTTCTAATGAATGGTG
2.748678513960831 AAGGAAAGCTCTGTACCCTACTAGTTAGCAAGTACCATGCTAGATAACGGTCTGCCCATAAGCGGTGATAAGGTTCCAAACCACTAATGTCGCCTTTGGTCGGCAGATAAGGTCTCGCCAGCCACATCACGCATAACCAGGTGTCGGAAGAAACCGCGCGCGTAAGATAAGGCCACTAATACTGCTAGAAGAACTCCCTC
3.382934365187469 GGTTGGAAGACCCGGACAGATGGTCGGGGAGGTTCAACGATCGTCTGGCGGATGGGTAATATGTGTATAGTAGTTGCACAAGTCGGGGCTCAAAAACCTCACTACGGAAATACCTGTTAAGAATAAACTATTGAAGTGACTTCAGGAGAAGCTTACCGTGGCAGCCCGACAGATAAGATCGGGCCACACATTCGGTGAAA
2.179974135623584 AACTTAATGAGATCTCTTTACGTGCTTGCATAGTTGACACGACGGCAGGACTATATACCTGGCAGATAAGCACGTCAGTAATGATATCAGCTGTGACGATGATCAACGTGAGCCTCGCCAGATGTTATGAGATTAGTATCTTCAGGGATTTTAGTTAGAGAAAGCCACGTCCATAACGGCCCTGCACATCACGTGAAGGA
2.012214325997782 AGTCCTTACCCGAATCCCCATGTATTACGCTTTCGGAACCCACCGTGGTGTTGATAATTGCCCACAGGTGGTGGCTCGGCGAAGCGCCGATGGATGAGCAGATGGCCCTCATCCCAGATAAGCTTGCATCCGTAGTAGCGAAACGCTTGGAGAAGTGCTGAGCTGCCAACGGAATTCGTAGGATGGTAGGGGCATAGAAT
1.586695021367339 CAATGACGGAGTCGTGGCGACAGTTGGTCTAACATTGGTTGAAGAGACATATCCATTGTTTGCGCTTCGAAGGGGCTGCATGACATCTTCCCGCTCGAACTGTATGAAGACGTTACATGGCAAGTTGCGCTCCGCAGATAAGCCGAAACAGATGGTTATCTCTGAGATTTACTACGTGGCTGCTATCTGCCCTTCTCATC
0.5330445936573629 TAGTAAGTAGACGGAACAGATGGTCAGTCGCTCGAAAAGGACATTACCTACCAGATGGTCTCGAGATGCGATTAGCGAAAGGTCTTTTCAGTTAGCTAACCCTAGTGTTAAACCACAATCATAGTTCTGGTTAATCAAAGAGATCAGTCAGATAAGAATGTTGCCCAGGCAAACAGATGGTCCATCATTTGCCCAAAATC
3.888749415891981 CATAAACGGGCTTTCCGTGCCAGGTAAACCATTAACTAGTTTGCAATATCGTAACGTTTGGAGTCCTATAATAGTTGAGAGATAAGCACACAGAGGGAACTGACGGTAAGAACTTCCTATAGCACACACCAGGTGTACGTACCTGCCCGGCCTTTTGTATGAACTAGAATCTATCCGGGTAACCACGCATATCCTTCTTT
3.231727894174875 TACAATACAGAGAAGGGCGGATTATTCACGATTCAACATCGTTAGTTCAAGTGTGGACAGATGTTCCGCTTTAAACGTATATCCGGAACCCGTTCGAGTCGCTTCTGCACAGTGATCAGAGATAAGGCCACGACCCGTAAAATCGGAACCGCGTAGACACAGGGTACAATAAGCATACAGAGAGAATAAACGTTGTCAGG
2.710717632066533 GGATACTATCGGCAGCGATTATTCAGCAATCCGTCGTTTACGTCAGGGCTGCAGATGCTGAAACAGCCAATAAGACTCCAAGGAGATAAGCACGAGGGGATTCAGCTAAGCACCAATTGGACGATGCGCAGCCGCGAAAAAATTAAGCAGATGTTAAACGTTACCGTCCGAGACTCTAGTGATTTATGTAACACAAATGT
2.649734761612902 CCCACGGAGATAAGGAGCCTTACCAGACGCCTATGCAGCTGGCCTACTTCCGAGTCGGTACCAACTAGATACCTTATATCCCCGGGTACATGGACTGTTACAGATCGATAGGAAGTTGATTATCGAGGCACAGATGTCGATGTGGGTAGTTGTCTTTGTATGACTGATGATGCAATGCGCCGGAATTAGTAGGCTACCCA
3.001602739548501 GAAGGAGCATCAGACTAATGGGCCCCCTAGTGCTATCGGGGTGATAAGGCCGTACGTGAAGTAACATCAAGATCAGTCTGCGAGTAATTAGGCCCTAGCCTTAAGCGCACGCCCTGGTACCCCGGGGAACACTCCAATCTACTAATTACGTATTCTGAAGACCAGATGGTCGCTTTTCTTGCCGTCGCAGTTAAATACTC
1.885710292330057 CCCGCGGGCAAGTAGCGGCGGGGGGAAAGTATCATGTACCTTAGCACGCAAGACACAGCACGACCCTCGAGTAACAGATGGTCAAGAGCAAATTTCTATGGTTCATTAAAGAGATCGGGAATATGCCCTTACGAATCATCCATTCTAAATAAGATACGGGCTACTCCCGGACAATGAGAGACCAGATGTTAGCTCCATAC
2.080395285768582 CTCCCTTTGCGTGTTGAGTCTATACGCTGATGCCGCTGAACAGGTGGTCGTAAAGATCTATACACGTTTTCCAAATTCCAAATCCTCACAGATAAGCGGCAGAGTAAGTTTGTATAATCTCAAAAATCAATGCAGATAAGCCTCGGCGCTAGGTAGATAAGGTGAAAGGAACACCCGTAATTCTGTGGCGACCGGCCCGT
2.83132429364422 CGGGGAGCGCTACCAGCAGATAAGGTTATCACGGAGAGATAAGCTTTGCCGTAAAGTGGGGGTGGGAATCTTTCCTTGCCAGGTGTTTGCTTGTGAACGGAATCGCTGGTCATTCATAGAAACCACCTTATCCCCTCGCCGTGTTAATTTGTATCCACTTGCGATAGCCTGCCGGGAAAAGAAAAAATATGCCGATCCTC
1.35521520539602 ATCGCGCGCGCGTATCCGTATACTTTGACACACAGTACCCTGCTAAACAGATGTTGCAAGATGTGCTACTTTAAAGCGATGAAAGTGTAGTGTATATAGACGCTGTCGAATTTTACTCAGAGATAAGGAAAAAAGGAATCTGTGCAATGGACCAGATGTTTTGAAAGGATCGTTATTCGCCAGGATGCTACCTAAGATGC
1.397761968884726 ACTGAAAGTCCAGATGGTATATGAAATAGGACGTATTAATTCTCTTCAACAAGAATGCGAGTAGCTCGGACGAGCAGATGTTCGAGCGCGAGTCATAGCGACACAAAGAGCGTAAAAAGACCGCAGTCATATCCTTCTTTTATTCAACGATTCACTAGAGTGCTTCAGATAAGGAGAGCGGATGTGGCGAAAGCGTGAGA
1.467029358565207 AACTGCTGGTGATGCTCGTCTTTTATGCAAGAACCGGTAGGAAGTAGGGTCCGCATACTATACCCCCACCAGATGGACCGATCGAGGATCTATTAGACAGTACATAGAACGCCCTACTGGTGTTGCGTTTTACCGGGAGCAACTCGCCCTTGCACACTCCTTTCAGATAAGAGAGCAATGAGGCCTGTCAGCGGATTTTT
2.420452896374939 ATTCACAAGACCTCCAATGGGGATGAAATTTAGTATAGTCGTCCGGGCGCTTAAGTTTTTATTCTACTTGTGACTTACTATTCGCTCAGGACCAGTCCAGTAGTGGACCAGATGGTTTGTATTTGGGGGCCCCAAGAAGGAGATAAGGTGTTCTGGTTGTATCGATACGTGGGAGTAGACCACTATGCTGTTAAGATCCT
2.498671640457738 ATATGTTCCTCACATATAGGCACACTTATGCACACGATCTTCGACTGATAAGCACAGCCTCCCTAAAGTTTAGTTGGTTTTATAAAAGCTCGATCATCATGCGCAGTTTAGAATATTCAAGTTTCTGCGGGAAGAGTGCCGGTCGGCTACTAGCCGTTCATAACCCTTAACCAAATACTACAGCGACCAGATGGTTCCCA
2.219133893330635 AAACTTGTTCCCAGGACCACCCCCATACAGACTAGCCCCATATTGTCCGGGTGTGCACAGATGCTAACCAAATAGTTATTGAAAATGCGGCTAGCTTTCTCGTTGACATCTATCTAGCTGATATTTGGTTTTGCTTGGAACATATAAGAGATATCCGCCGACTACTGCAGATAAGCGAACAACCTACGCCAACCGCCGGC
1.807391669114322 GACTCTAACAGATGGTAAGAATAATCATATACGAAAGGCTAAACCTTCCAGCGTCCTTCACTGCCCACAGGAGCGCTCTCGCAAGGAACGAACAGATGTTCCGCTATGTACCCGAGTTCACACTGATGATGTTGAACTTCGAAGATAAGGAATCGCATGGGCGTCTAGATTGTGTTCAGAAAGAAAGTTAGTCCACGGTC
1.805504528934427 ACACCCCGCTGCGCTGTGGTGAAGGGGTGTGCCCATTGGCGCGCGAGTGCGCCGTCTTCTCGTCGCGCGGATTGACTACTTTTCCGGAATTTGTACGCACGCGCAGATAAGGCTACAAATCGTCTATCACCAGATGGTCATCATATCAGTTTACAGATGCCCCACAAGGACTACTGCTTAGGGAGGTAATATTACGAAGG
0.02330916682071808 TAATGACAAAGGTAGCTGGTTCCCGCATTGGTATTCTCCTAATGTGGATTTCCCACCATGATAACGGTCTTTTCAGATAAGGACGAACAGATGTTGTAGTTGTCTGTTAACGTAGACCAATCAGTAGGAGGCAGATAAGATGAGATAGGAGCCTGAACAGATGTTCCTCTAGTCACATAACCCTCATCGTGACAACCTCG
1.758938967612253 TGGGGATTCTAGGTAAGTGAACAGATGGTCACTATGCTTGGGTCCTATAGAAAGGACGCGCCATATTAGCCATGTCTAGGTGTTTCGGATCGTCGTATGCCACGTAAGCTGGCACAGCGGCCAGACGCGTACCGCTCTGTCCGGCATAGCCCGCATAGTCTGGGAGATAAGAGTTTCTTTTTTTCGCGTACCGAATATTT
1.930786218659117 GCCCCTTTGGTATTGGATGCGATATCACATGTAGACTCAGACGCCCTCGTCGCGTAGGACGGTTAATACACGGGCTCATCAGATGTTGGGACTGCTTGAAAGATAACGTTACGGAGAGTGCTCACGTCTCGTGATTGTATTCGCACTTACACTGGGCTTTAGCCAAACCCTGAATGCAGTCGGGAACAGATGGCGTCAGG
2.44944283950537 CGGATTACTTCGTCACATAGCGGAGTATCAACATAATGGACTATTCTACCAAGGCCGGGTTGGGGTGTGATGCCTTACGCCGGAAAGAGTGATAAGAGAACGTTGGTCGCGTCTCGCTTCGGGGTTGGTGAAGTAATTAAGCCATAGGAGTGGTGAACAGATGGCAAAGTTTAATAGGACTGCTAACTGCAGGTGGTGAA
3.091676117252127 TGAGTGCTTTATTTGGCGTCGCAGAAACAGGTGGTACTCTCCGAAGCTGAGTCTAGAGAACTGACCGAGGAGCTGTCTTCGCAGATTAGCAGGACTTACGAGTGTGCGAACAGATGTTCAGGACTCTGTGTCCCGCTAAGTGGCGGAATAGTCAGTCACTATAAACCCAAACACAGCAGCGGGCTATGACGACAGATTAT
0.4094931045229511 TGCCGGCACACCTCAATTGAGCAGATAAGCAGGCGATAAGCCACTCGGAGAGAAAGGACGTAACTAGTAAATTGTACAGACCAGATGGTAAGCTAGGCCCACTGGCCTGCTGAGTGTAATCTGATAAGGAAGAGCTACGAGTTATTAACTGCATACCGCTTCTGATGGTACAGATGTTGAAGTAAGCCCCAACTAAGCTC
1.205295312006057 GTTTTTTATGTGTGGTGCAAAATTGCGGGGTACTATCTAAGTCTATCGGTGTAGCTAGTATCTGACCGACCCTAATCCTGATATTCTCATGGTAGAAGATATCTGATAAGCTAGCTTCTCTCGTATGCACCATACACGACAAGCATACCGGAGATAAGGGTCCGCGACCAGCGAAACAGATGGCCCGTGTTTGATCAATC
0.9393148136628433 TGAGATCAAATGGTCGGTCCCCTACTATAACCCATCGGCTAATCTACCACCGGCACTATTAGTCGTCGAAACATGCGGCTCTCAGACGTAGCTTAAAATTGCTATGAAATCATTTTATACATGAACTTGAACAGATGCCTGGTCGTCACCTGGACCCGGACAGATGTTAGCTACTAAGATAAGAGTATGGGCGATAGTTT
1.449588346401846 AGAATTTATATACATTACCAGATGGTCTGCAACGATTGGTAAAAGACCAACAGAACGGCTGTGTTTAATGTTATTGCGAGTGGCAGATAAGGGTTGTCCTTAGAACAGATGTTTGCGGGGGAGACCGCAATAAATAATCATAGCCGTAATAACAAATTTATCGGGTCCATATGTGGTTACCTTGTCAGACACGCGGTGGC
3.704734907387538 GGGCGTTCCATTATAAGGACTTGGCAGGCGAACTTACGATAGTGGTATGTGTTAGTCGGCAGATAAGGATCTCGCTTATATGAATTAAAGCCAACCGGGCAGCAGACAAAGATTGGATGGTCACGAGCCATGAATAACCAGGTGTTCAGCTCATGGATGCTGATGATTTGGAGCTTTCAATGGTTCGGCAGTGAACGTAT
2.7045102596924 GGGAATTTATCATTTAGGGGCCACCACTAAACAATGTGATAAGGTTGGTTGGATGTTTACGAGTCAATAACAGTTGTCCCGTGCCTTGAGTCATACGTTATCTCATGCACGTACAGATGGTTGTCCGAGTGCGGGTTCAGAAAGGCCTGGCACTGTCTGTGTCTAGCATTTGGATGTAGCGGCTACGCCAGGCCCCCAAG
0.7256227877250235 AGTAGACGCCGAGGGGAAGTCACCTGTTCATACAGTTATACCGTGTTGATCGAGAATCTGTGTTCAGATGAATTTTTGCTCAAATTAAATGGCGAATATGCACCCCCATAAAATAAATTTCCAGATGCTCCCAAATTACACCACGTGAATTACGTTCCCTTACTCGAGATAAGACCTGTGATAAGACCCAATCATCTGTT
3.032915272283997 TTTAAACTGATAAGGTAAATTCACAGGCTCATTGAAACGAAGAGCTTGTTTGGTGTCGCAGAAATCGATAGCGAAGACAGATGGCTGCAAAATAAAGAAATCTTGGGTTCATAAAGAGGCTGAGGTGACTCAGGAGGATCGGCTAGCTTTGAGATGATGGTTCATCCCCGTGCCGGTAGCGACACAGAGTGACTACAAGC
0.4641878908378862 AACGACGCCGTCACATCTATCTTTAATATAGTTTGCTGCCACCGTAAACCGAGAGCCATATAGAACCCCGAAAGTTTAACGGGAGATAAGCTCTCATAATCACACATGTGGAACTGAACAGATGGTCCTTCGCTACCGTTCATCAATCGAGGTCATAAAGTATTAAATCGTGTGTTGCATAGTTGCAGATGTATGGCTTA
2.780200569972847 AAAGTAGCAGTGCGTCGACCCTTTGCGCACTCATACGGGCTCTCCCGTACTCCAGAATGGAGTGTTACAACTGGGATATTCACCACAACCTTGCTGTGAACAGGTGTTCGTACTCGGTGGATCGGGGGTGCAGATAAGGTAGAATCGCAACGCGACTATTGACCCGTCGGTATGGTGCCTTCATCCAACGTGTCTTTGCA
3.600494331807321 CGGTCTCCGTTTTTGAATCTCTGAGTACCTGGACAGATGGTCACACACTAGTCACCACAGTACAGTGATTAGGCAAGAGTCGTCATAGACTTGTCGTGACTAACCATAATTAAATTTCCCAAGCAGCCGCCCCATCCAATGGTAAGCTAATAACAGATCCGCAGTTCGACGCAACTAGTCAGGCCTGGCAAACTGTCCAC
0.7175428038627524 AACTTAAGAATGGCGGTCGCGATCGCCACCACGATCACGATGTGAATCTTAGGTGCCACAGGTAGCCCAACAGATGTTCCCCCGCGACGATATGCCGTCGATCGCTAATCTCCCTTGACCTTTGATCGACCAGGGATAGGAACTAACAGGTGGTTGAACGAGAGGGTATAACAGATGGTAGGTACCAGATAAGAAACATT
0.6234664008338616 ATTGAGTCCTCATCAATTACTGTCCAGATGGCGACCACATTTAAGGTCGCAACCTAATTAAACGAGATAAGGTATGAATTGCTGGCTATCCTATGAGAGGGCCCTTCGTGAGAACAGATGGCCGCTATGGGGAAAGCGTCAACAGATGGTAGAGTTGTGCTCTTGTCCTTGCTGTTGTCCCGAATAACATTCCTTGGGAG
1.499137430991874 AGAGCCGACGGATTGAATAAATGTTGCGGTGATAAGTATAAGAGAAAATAACGTTCGCAGTGATAAGCTTCTCAGCTAGTGTGAGTGGGAACATGTTCTTTGCGATGTTCAGCCTCTTCTATACCGTGGCGAGGAGTAATTAGTCAACAGATGTTCGACTCCGAATGCTCGCAGCAGATGGTCCCATCACCAATAAGTAT
2.838339905192896 ATCAGGGCACGATGGTATGCATCCCGGAGATAAGGATTATTGTTGCAGATAAGGTTCCGTTGAGAGTTTCTTAAGGAAATTGTAGCGAACGGAGACGAACGACGGGTTACTTACACTTATAAATCGGCATTAACAGGTGGTCCATTCACAGGGATGGGATGATTTGGAAGTAGCATACAAGATTAGGTAGCGGCACTGGA
3.661500857604331 AACTAATTAAGCCAGATAAGCGTTGACGACAATGCCTTTGTAAAGACGCTGACTAGATCTTCATGTTCCACTATGCGCGCCATTCTGTGGTAGTTAGACAGAGCAGCTATAAAGAGAACACTCGCGCCCGTCTGACCAGGTGTTGAGATGATCGAAGTATTTAATATGCGAAAGGACTAATTGATTAACAAATGTCCAAA
2.796249572805062 TGGCTCTTCGTTCCTATTAGTCCGCTGAATCATAAGGTACAACAGGCGTACCTACGGCCCAGTCAAATACTCTCTGTCCCTTCCGATCATCTAACAGATAAGGAGTGTCACGCGTAAATCTGAATTCTGCACAAGTCTTACAGAATTCTGATATATCGTTTCTATTGACAGATGTTTGCAAAATCTGTGCATTCCCGTCC
2.755836863425363 GCACGGTAAGGTTGTTCCCCGACTGACAGATGTTGCCTCAACCGCCGTTGGACTATTTGGCAATGTTATGAGGTATAACAGCAGGTGTTCAAATCGCTCGTGAAGACGCTGCCGGGACTACGCATAGCTGCCGAAACAGAGATAAGCCCATTTAATATTAACTCATTCGACAGGCACAAGAAAGGCTAACCCACTTTAGA
2.011199379417106 TATAGTACACGGAGTGAGTCCACATCCCATTGTTTGTTGGGACGAATACAATGGGAGATAAGGCGTTGTCCATACCGTCGATGGGGTATGAACAGATGGTCTGAAAGTCGCTTGATTATAACGCGTAAGAAGCTATATATAACTTAATTACAGATAAGCCTGGGGTTATTAATGGAATTACGTAACGGGGCTAATAAATT
2.242609564996042 AAGGCTTGGTTGAACGTTCTCTCAAGATAAGGCTATTCTCCTTTAAACGGTTCTCCTCACAGAAAGACAACAGATGGTGCGTTTCAAATGACCGGGTCAGGCACAACTGATACTGTATAAAGGCTGGCTCTCGACATCCCACCCGGGCAGTGTTATATGAATCAGGTAATTGCCTGAGCCTTAGCTTAACTGATAAGGTG
2.37279955556089 AACAACGAGGAGCCTGATAAGACGACAACTGTCGATAAGTTGTCTATTGGTCACCTTACATAATGGAAACTGGATTATTCGTAACAGATGTCTAAAATTTGCGAAAAGTGATGCACATCGACTTACGCCAGCAAAACCGATACGTGTACCCCCCCCGACAGCGTGACGCTGGACGGATACCAGGAGTGACGTCGAAGGTA
3.163395568957835 ATATTCGAAAGGCTGTACAGATGTTCCTTGGACGCATGCATGTACCCCATAAAATTTGATGGTAACACAAGATTAGGACTGAACAGATGGTCTGGTCTTCTTACTTAACAGTGATTGAATACGCGCATCTTCACCAGATTGTCTTTAGCTTCGTCACACATCAATGGTCCCAAGGGGGGGAAGCGCTCCAGAATAGGGGG
2.543233155926785 GAAGTGGTCACTATGGGGGCATATGAATAAACACCAACAGATGGTTCTACTGAAGCGGCCCCAGAGGACTACATGGTTGAACGAGTTATTGGCTTCATCTCGTCGCTATACGGATAGTCTCCATTGGTAACGGTCACAACCGCTGTAGATAAGAACTTATGTTTTCGTACTCGATTGAAACTCCGCTCGATTACCGATAT
2.75127476622174 CTGGCGGACGGAAAAAATTATCCACTGATGGTCACGAACAACCCGCGTCTAATAAAGCCATGGTCACACAAAAACGAAATAGATTCAGCGAGATAAGACTGATATCTTAGCCTAGACCCAGCCGACATGTTATTACCGTCCGTTAGATGCGCACAGATGGTCGCACTATTGTGCTTCTATCCCAAGTGACTGTTATAGCT
1.716586116925867 ATGAAACTTATCGGCAAGGTTGACCTTCGCCAGCAGATGTCCTTGGAACCTTCGCTCATCTCAGCGGTTCAATTTAACTGACCAGATGTTAGGCCCTGCCTGCCACCCAATGAGGGTGATACGGAAGGCGGCCGACCCTACTGGAGGCGAGCGCCGAAGACTGGGCTCTGCGAGACTCAGCTGACGCGGCTTGTATTGTT
0.3337352290894285 GTATCGCATATATTAGCTAATGCCCGATTCATTATCCGCCGGAACTCCGACATCTGCTCTTTAAGCCTCGTTGACACAGATAAGCGACATGCATTTCCTAGCCCTTTGTGAACGGTACGGGACCAGATGGTACCTATGTCGCGTCTAGCTCCACTTTAACGGGTTGCATGCTTTAGGTCTCACCAAAACAGATGTTCGTC
1.996003915815691 TTTTTTAAGAGTCTTGTGCCTCTCAGGCAATGCAGCATAGGCGTAGTAACAGATGGTAAATTAACATGGTATTAACAGATAAGGTCCGTTAGTAAATTGATACGTAGAGTCAATCGGGAGTCACGGGATCGGTATCAGATGGTGGAGGAGCGTTTCGCTTATGACCCCTGGTGGACACAAGGAATGGCAGCTCCTGATTA
2.259510707723082 GTACAGCTATAGACCTTGGCATCTTGATCGCCGAGAGATGGAATGTGTTTCATTATAGATATGCATGCGAACGCACAGGACGCAATTTCCAAGTACTCTAAAATTAAAGGTATCTCGCGTCCGATGCTGTTTAACAGATGTACGATCATTATCAGGGAGATAACATCAGGCGTAATTTCTACGACAGATGGTTTGACCGA
1.792477580780975 TCCATTGCTGGTTGTAACTATACGAAGATGTGACGAATAGACTGTAACGGGGTAATGGGATTGTAACTGTGGCCCATGGCCCGCAACCGCCCAGATGGCTACCCGGGCAAGTAACGTATATAAGGGTAAATTAGTGGACCGAGATAAGGTTCAATCGTGAAGGCGTCGACAATCAACGAGAGGATACAATACGTGACATT
1.624243792448737 GCAGCGGCGCCCCCATACCCTATTGAAAACAACGTTGCGATCAGATGGTGCGTACGGATACCTTGATACAGCACGCTAACTTACCGGGTCAGATAAGGATCATAGTTCCGGTATTTATATGGCCTGAATCCGAGTATTAGTCCGATTTTTGACACCCCGATCAGATAAGGGAACTGATAACGACTATCGTCGGGAGTAGC
1.015079344714766 AGATGGTAGGAGATAACCCCTCTCGGGGCTTTAAGTGGGTGAACGCTTAACGAGATAAGGTCACATCGATCGATCTAAACAGGTGGTCGCATCCGCAGATGTTACACCCGACAACAAGTCACAATCCATAACTTCATAACAACCGCGCAACTTTCATACAGATAAGGACCTCCCTTGGCAGAACACGTTCTTCCTGGGTA
1.463920285526749 GGTACTTTTGACTTGGTGCTTGGTGGCCGTCCACCAGTCGTCTGCCGGTTCCGAGTCATTTGGATGTGTACTATCAGATGGTAGCCACTCTGGCTGATATATTGTCCCACCAGATGGTCCATGGGCGAGATAAGGTGAGGGCGGCTCTTCCAGATTAGCCTGCCGAAACTTTTAGCTGGCGGTATTGAGCACGGCTGGCG
0.1506300519971953 CGTGGAATTTGAGATGGTCAGCTACTAACCGTGGTGCCTTTCCTCCACGGGGAGAAAAAAGCAAGTTCACTCTAAGGAGTGGAGACGGGGACAGATGTTGTCCCGCTACACGCACGACAGATGGTTATTAGCTTCAACTTCAGATGCGAGGAGATAAGGTCAAGCGCTGCAAGTCTAATGTAACCCAAAGATGTCTCACT
2.249481134877645 GCGTCTGTATTTAGTAAGTCAGGCTATGGGTCGACTTATTTCCGCATCGAAACTTTAACACATGGAGCCAATCCGTATTCTTACGAAATACCGGGTACTGGCCAGCATCCGATAAGCTACTTATTGGAAAAGACTAGTTATTATTAGCGGCCCATGCCAAAGGCTCATTCGCCTAAGCCACCAGACTACAGATGGTCACA
0.8335658671132133 TTTATCACTTATCTTTGGTTAGCATCGGGAACACTTAAATACACCCGTGCCGCCTCAACAGATGGTCCAAAGGTCTGCCAAGCGATAAGGACTGTAGCTTTACTATATACTTTTAACAGATGTTGGCTAGCTCCTAGATCCTACATTCCCTGCAGCACTTGGCACACGGGTGCGTGTGTTAAGCTTTCGCGGGCATTGTA
2.937369814837949 TCGTCTTGCCGGGGCCGCAAGCTTCCAGCCGAACTCACCAGTAACGTAACTGACGCCACATTTAAGGTTAGATTCGCCTCACTTTCCGAACGCCGCTGGCGCGGATAAATACTTGACAGATTAGACTGCCCACAGATGGCCAAAGCGTGTCTAAGAGCACCTGTATATAACTCCAATCGTGTACTAACAAGATCTAGGGT
4.018453893061353 ACAGCCTGCTATATAAGTCTTTTAAGTCCATACTGTAGACTATATCTAATGCTCCACCAGATGTGTGGGGGCAGTGGCATACAGAGAGGCTTGATTATTCTATCAATAGATAAGAGCTCTATAAGACTAAATGGCCACCCCGTCCGATGAGGTCACTCTACAGAGGATTACTTACACTGTGCTGGCCGGCGCGCTAATGT
1.388961327152379 TATTTACTGCTCTATGTGAGAGATAAGCCCGAGCTATAAATCTATCACCGGATCGAACCGGGGACAATCAAGTTGCAATACGTTTATCTGTATCCGTTCGCGTGTAAACCGCATGGGTGAACGACGATAAGGCTATATCTCAGTTTCATGAACAGATGTTGATTGGGCGTAATTGCACACCGAAATTGACGGTACCGCCC
0.9644483415900386 TGTTCAGCGATTCATCTGGGGTACAGATGGTCTCCACAAGCAACAGATGGTCGATCTCGATTGTTTGGAGTTTATTATGGGTGAGCCGCCAGTGAATTACGAGTTTAAGTCACGAAGCGATGTTTCGTATAAACAATGTACGATATAGTCGCGTTACCGGGCGAGTGCGTCCGACTCGATGCAGATAAGGTCGCCACGTC
2.709682089470708 TCGAGGTCGCGTTACCATCCCGGTGTACTCTAATTGGGCACGGCCGCCTCATGTGATAAGCTTTAGTATATTGAGAACAGATGGTCCAAACTTGGGCATGTTCGGCTACTCCACACGTTCCCGCGCGGTGGATTACCCAGTTGCGAGGTTTGCCGCGCAATGGAGCGGTTTTTAAGCCGCTTACTTGCAACCAAGTAAGA
2.646213051316789 TTAATGCATGCTAGAGAATAATAAAGCTTCATACCAGATGGCCCGCAAGAGAAGTTACGTAATTGCACGAAACTCTGGCTGCCGGCGCAGATACAAGTATAAGATATGAGCGCCAGCTAGGAGCGGAACGTCATATATCCGTGCTGAGTGTCAGTAGATCTCAGTCTTACAGTCTAACCGAGTGATAAGCACATGCGCAG
1.766025086571219 AAGGAAGTACGTCCAGACATTTGGTGGAGTCTGCTTCCCGACATAATTGTAACGGTGGGTACCTAAATTCGCCTGCAGTGCAAAGATAAGGTATACTTTGTCATAGCGATAAGGGTTTCCGGTCCCTCAAAACGGACCAGATGGTCCCCTTTTCACTACAATAACTTCTAATTAGCTTTTTATACAGCGGATACCCGGGA
0.9943625630344159 TTGGTACATTTGGAGACCGCCCAGGTGGTAGAGGGACAGATAAGGTCTAATACAACGAACAGATGTTAAGAATTGGAGCCTAGGCACGAATCTCTGATAGAGATACAAGCCTCACGCTCCAGCGCATACTCACATTCTTACGAGTAGACTCGTTCACTAACATCAGCTGTATTATTTCAATGAGTACGGGGTAGGTTCGA
1.581021976520825 GCATGCCATCTGGAGGGCGTTCATTTTGCAGGTTAGAGCGCCTCCAGGGAACGGAGAGCTAAGCCACATCTTTAGAACAACCAATCATCCGTAGGTAGCCAAGCCTCTAAGTAAGTGGTCCTGATAAGATGTAGATTGGAGGAATTCTCCCCTGGAAAACTACGTAAGCATTGATACTCAGCCTAACAGATGGTTGGTTC
2.247254617647626 AAGAACACCTGCCAGACACCAGGTGGTCAGTCACTATGATAAAGTTAGGGTAGACTAGGTTGAAGAAGGAGATAAGGGCCCGTTTCTGATTAGGGACTTTATTTGGCGCTTAATTGCCTGGGACGTGTGTGGGCAAGATACCCTCGGTACCTTCTGCTACCGCAATTCGAGGCTCTCTCGAGCTTCGAAACAAGTTAGCG
2.961969122607172 GCTGACATAATATGTAATGTTGTGACACACACTATTTCGTAGGGACTGAGCCGACCAGATGCTCCGTTATGCAACCCACGATCTGATCAGTAGAAGATAATGCATATAAGCGCACTCCTCTAAATTATGCTCCGATGTAGCATTTGCACCATAGAGCTTTTGTCAGAGATAAGGTATTTTGGGTACGATTAACAGACCCA
1.037913818482909 CAGTCTGAGGTTGCCCGTCTTCCTAGCGCAAAACGGCGTGCTGCAGCGGGCTGGACGTTTCCCACGGCCCGAGACGAATTGTTACAAGTTCTCCGTGGCTGTAACAGATGGTAACTACTCTTTTTACTGTAACTGATAAGGCTTTGTACCGTTGAACGTGAAGAAACAGATGGTACTTACTCTTTGCGATAAGGTTTGTA
0.9410497634352128 TATCCTTACTTTAGGATAACCTATCCCAAGATGGTAATACTCTAGAGGAGGACCCCGACCAGAAGATCCTTCTTTACCAAAACATAGTTGGCTGGTGGTAAATGTCCTGAATTTTAGTTGACCTCTTTTGTTACAAATGCTAGCTGTGCGAGATAAGGTTGCCGTCGACCCGAACAGATGGTACATGGCTCTTTGTCTTC
2.66904229671615 TCGAGAATACACTGCACAGATGCCAACCGCGCAGATAAGGTCGCGAACACCGAGTGTGCAACTAGCCTGTAGACTTTTATGGAAGAGATACCGGGCGTTAGAAGCTACGCAAGATAGGAGATTAGCGCTGCCACCCACATGAACATTTGAATGCTATGCACACCGACGACGCGTCCTATATAGTATCCCTCCGTGTACTT
2.199083203295631 TCATAAAATTTGGCAAAACTCCGAGTCTACCCGTGTCTAATTATAGCTACTGACTGCATTTGGGCGAATGTTCATCACCTCTCTCTGGTCAAATTTTAGCTTGCATGATGTAACACAGATAAGGTGTGTAGGGCACCTAGGGCAGTGTTGAGATGTCGACAAATCGGCGGATAACACCATATAACAGATGTTGGTGAGGT
1.492204081193651 TAGATCGGCCGCGCTGCTCTGCACCTACTTACACACCATCGTATGACAGGCGGGACAACTAATTCTCAATCGCTATCCCGCATAACAGATGGTCCGCTAGATCTACTTAACAACCCAACCTGCCAGATGGTCGGATTCACTAGCGCGCAGGAAGGGAGGTCGGTTCGATGTCCGTCCATCCACCCGAGCAGATAAGGGAA
0.9886385177204657 CTGTCCATGCTCCAATGCACATGCAAAAAGACTATGCCCTATTAGGCTCAACATTCCTTGCGCCGAGTGTCTACAACTTCCTATGACAGGTCAAACCGTTTCATGTTCTGATGAGATAAGGCGCTGAACAGATGGCTAAAGTCGAACAGAAAGTCAATCACCAGACGGTGAATGTACCACTCGGGGACCAGCCACCTGAG
3.205293876870822 TGTCAAAACGCATGTGCAGCCTGGCAAGTTGATTGACTCTTACCAGATGTTCGATGACGCCCATGGATTATTCTTTCTGAATGTGATAAGGGTTTTTTTGACACACTAGTACCGGCCAACAGATGCTCGCGTCGGGGCGGTTGAACCCAACAAAGGGACATACTTTCTCTTTCTATTCTGGTTAGTCTGCTGAGACTCGC
2.953836391124506 CTACGCCATTGTAGTGTGAAAAGCTAAAGGCACGAAGCCGTGACTCCTGGACTCCGTCTTTCTAGAGATAAGGATTCCGTCCGGCTACCTTTAGTTACAAAGTGATAAGGAATTAAGAGGTAACAGATGTGCAAACGCCGGATATGCTACAGGACTCGGTATACTTTTTTTATTACTCTGCGAAACTAGCGGAAGTACAG
2.82566308357216 CAAATCAAAAGGAGAAGGTCCAAATATTTTCCGCGAAGGTCCCAACACCGCCAGTGATTAGGAACGTTGTCAGCTAATCCGCTACTCTCGTAGATCGACGTCCTTCCACGAATCTACGCTACTGGGTCTACCCAGATGGTTTCGAGACTTAGGCCGAGAAACCGGTTCCAAGCGCCAAATTGGGAAGCTTGACATAGAGC
1.141035648740891 AACGAACAGATGGTGACTGCGAACAGATGTTGCCCTGACTCACATAGGAAACCGAGATATGACGGAAGTAGTACGACGATAAAGAATTAAAGCGACTAATAACTGGCCCTTTTTGCTGGACTCTGTTCTCCCTACAGTAACGTTCGCATAGGGCTGAACTGATAAGACCTGTTCCGTAACATTCCATCGTAGGACGACTA
1.795145119144588 TGAGTGCAGTTCTGAGACATGATGTCTAATATTCCAGCAAGCTCCGAACAGATGGTCCTCACATAAGACTGTCAAGGAGATAATGGGGACCAATTGGGAATGGGGCGGCATGCTTCAAATGCGTTGGTACTCAGAGGACCAGATGGTCGCCCCAAATCTAGGTCGAGTCTGGGACAGATAACGTCGTCCCCAAAGGTTAC
1.003506337240964 AGGCAACACCGATTCATGGGGTAGCTGATAAGAATTTTATATCCTCAATGACGCCCTGTCATGCACTCCAGAATAGATCGGGGGTATAGTACAGATGGTTAGGGTCCCTAGACACAAGCGCCTAAGCCCTCTACATTCTAGCCTCGCGGGCTGCCTATCACCCGTTCCTACTCATGTCAGCAGTAACAGATGGTCTTCGT
1.65557293628389 AGATTGTGTCAGAGGACGGTCATGAAAATTATTCGTGATAAGGGTATGTTGTATTTTTCCGCATATGTGCCCTGGGAGCAGGGTATCCACCATGTGATAAGAGCCTCCTCTGGCCAACCTCACGAGGATATGAAAGAGATAACGCACAGATGTGTTATCCAGCGAAATCGCCTTAATTCCGTAATACCCCCATATCAAAG
1.839478569611666 TGAACGAACAGATGTTAAAACGCTTAGCTGGTATGGAGGAAAACTGCCGTGAGTGGAGATAACGAGATACAGCTCGAACCAGGAACGATTTTTAGAGATAAGCGTTACGCGCTCCTGTAGTAAGTAGTTGACGCAGTGGTACCGTTTTGAGAGTTTTACTACGAGCGTTGTAATTGCAGATAAGCATTCCTAAAGTAAGG
2.179985150720285 TTATCTGCGTCAGTCCGAGTGATACTAATGTGACTGACAGATGTTACACGTGGTTCAATAATAACCGGTGAGATCGCTCACCGAAGTATGGAGAAGTACAGACTGCTCGGGAATGATAAGATCGTTCAATTTTAATGGGACCGAGCTGCTGATCGCTAGAGGAAATTTGACAAGTAGGGTAGCCAAAATCATATTATGGA
1.479590324470127 ACAGCGAACTTCCACAGGCGACGTCTAAAACGCCCGCGACCGTGCCGGTTTTAGGCGCTAATTAGCACTAGATTTAGGATCCATATGGTAACCGTCAAAGAACGGCAGATAAGGGAGTCCACTTTAACAGATGTCATTTACTCAAGATATTCATGCTTGGGACGACCAGATGGTCGACGCGATTTACCAAAAAGATCTGG
2.704374108228389 GGGGACTTGCTACTGTCAGCCCAGATGGTCCCGCGATGCGCGTATTAGTTCTGAGGTCCTGTAGAAGATAAGCCGAGGACATGCAATATGCGGTTATCGATTCTAACAGCCATTGTGGGGAAGTAAAGGCCCTCCGTGTGAACTGAGGTCCTATTTCTCTTACCGCGCTTTAATACTGACTAGCTTATTGCTCGTGGCAT
2.390321003212766 ACTCCTTCATGGTTCCCTGGAACAGATGTTCCCGCGCCGACCATGCGTCATGCCTTCACCGGAATCTAGGTACCGTTTGACTTTAATAGTCAAGCCAGAATGCGGGCGTACAGATGCTAACTACCCGTCCATTCGTCGCTTTATTTAGTAAGAGTGCGTGCGCCAGATAAGACACCATGATGATTCCCTACTTCCGCCTG
1.531971623130055 TCCACCACCGCTCAGATGTTAGCGTATCCTATTGGCATATGAGTCTGCCAACAGGTGGCAAGCACAGTTAACGCATTTTAAGGAGTAAATGCTGCCCTCTGAATCAAGACCATTAATACAGATAAGGTGATCTGGGCCGGACGGTGCGCGATTTTTTACAATCCCCTCGCGGGATTCCTCAAGTCGCACCCCGCTCGCAG
3.396503724775079 CCGCTTTGAATATCGATTAAGCCCCGGAGGCGCAGATTAGGGACTATCTGATTACCCAGGTCATTATTGAACAGATGGTTGGTAAACGTGTCGTTTATTTCGCGGTATTCTCGTTTCGTAACAGCGGATGCAATAATCAGTTTGCCCAATCCTGGCCTACCACTGGCTTTCTACCTTAATGAGGGTATGGGGCCGCACCG
1.973200703080116 CATGTCTATACGCAATAGATAACGGACTAGTCTCATGTAAACATATTACTTAATGCTACCAGATGGTGTATGGAATCTCTCTTTACAACTCCACCAGTGTGTTGGTGTAGCCCACGGCAGATAAGAGCCCGCGTCCCTTTAAGACGATAAGGACTTGACAAGTGTATAGGGATTCTTCACCACGGTCTATTCCGGAGTGG
3.388331992832486 TCTCTAACGTCAACTATAACCGATGGTCCCAGACTAATTACGGCTTTACTCTCACAGCACTGACCTCCTCTTTGCCAGTAGAGAAATAAAAGGACTTTGTCGCTATAACGAATACATATATCCGAGAATCAGCCAGGCCTAACAGATGGCGGGCACCTACCTCCAAGATAACCTACAGAGTGTCTCACGTATTTAGCCCC
0.3140411327350097 TTTAGGGACAGATGGTCTGAGGTATAATTCTTGCTACCGATAAGAAAGTGTGGGCTCAAGTGCAGATAAGGTTTCTCGTCTCGTTTGAATAGGTATGCAATGGATAACTTCACAGGTGTTAGCTTGTAAGGTACTAACGAGTGGTTAAACAGTGTATGAACAAACATCAGATGGTAGAGCCTCCTACTGCGCAAACGAGT
1.409981749672178 AAGCCCATGCAATGTCACAACAGGATGTTTCCCAGCGGTCTTACCAGATGGTTAGTGGCAACTGACTATTGTATCGACCAAAAGGAGATAAGCACGTTATTGCAAAACGCTAGTCGAAAGATAGGCTGATAAGCAAGTGACGTGCAGAATGGTCTACAGTGACCCAAAATGATAGGGTCTCGGCATGCACATACAAAAAT
2.752431460536119 CTCCTCAAATTTTAGGTCTTCTTATGCTATAATGGAACAGATGGATGGAATATTCCATAATCTTCCTTAGTCAAATTATACTGGGAGCCGACTAACTGATAGCTTTACAATCATTACATCAAGGTTATAGCTTACGCAGTATGAGATAAGATGAGATCAAACTCAGGATCAGATGTTTGTAGTGCGTAATTGGGCAGTGC
1.119883929833543 TTGGTAACAGATGCTCTGAGGCGCTATCACTGTAAAATCACACAGATAAGCCCGTACAGTTATGAAGGCGCTCATATCAGTGCGAGCCAGCAAGGGCGGCCAGCCCGGACAGATGTTCTCTTGTAAACCGACCAAGCGATTTTCCGACTTCGAGCAGATAAGGATTGTGAGCTGTATCGATAGGGATGGATCTTATACCT
1.759736490046667 TTTACGAACGCGCGGTAGATCCGAGTGAAATTGCCACACTGTTTGTTATATTCAACCATAGAGGAGGAAGTTTGGACATCGCGTAACGTTACAAGCCGATGGCCACCGGGAAGATAAGGTGTTAAGCCCAAGAACAACGGTCCCTTCAACAGATGGTCGGCGATGTCAGGTTACACGATGCTTTTGTACAGTTCAGTAGG
1.757941183739624 TATGCTCAAGAGATAAGAGTGAGGACACACTCAGCCCAACACGTGTCGTTACACTACGAGGCATACTCGCAGGACCAGATGGTCGCTCACAATCTTTAGATTTATCCCAATTAGCCAACAGATGTTCACCCACTTCTCAGTACTCGAGCGCATTTGTCACGCTTTCCTTGGATCCTCGGAAAGCAGAGACGGAATAGTTT
2.401106111712576 GTCGAATCAAGTGTACAGATGGTCAATTCATACAGATAAGCGACTCTCTGTGAACTCAAACTACGTTGACTTGGGACATTCCCCGACCGTAAACACCCAATAGAGGAACTCTTCTGCCCAAATTTTCTCAAAATTCTGGACAGATGTCCACTTGGGGTAAGTGACTGACCGATTATGCACGTTGGATAACACTATGTAGG
2.79268665019434 GTAACGAACCTATCTTTAACGCCGTCGACGTTATGGGGCATCCGTTCCATTATATCCGTTTGAATGGTTATCCCAGATAAGGACCTTGTTGCTGAGCTCGACAGGCACCTGACAGGTGGTCGCCGCCCGGGTCGAATACGTTGGCGGTCTTATGATTAGCTAAGTGCTTCAGTAGTCGACCTATGCCTCGGTTTGTATTG
1.735271260529077 TATGCTTTCATCATCGAGGGTTCACCACTATGTTCCTGCAAGTGGCGTTGCCCTCCAGGTGTTAATAATAACAAGATCTGTGTTGGCCGGGTAGCCCTGCTCTTTTGACGAGATGTGATCTACCAGTGTGAGTCGGATGTGATAAGGTCAGACGCCTGATAAGAGAACTGATAAGACGTTTTTCGACGATCGCGCCAGTG
2.172984924862953 TGTCTGGGGTCCCTCATAAACCAAACTATTATGTAAGAAAATGTACTGCCCGGGGGAAGAAGCGAATGCAATCAGATTACAACGAGTAGCGCCAACAGATGGCCCCTCCCTCCTTTAACAGATGGCCCGCAAAAATCTGTTTCTCTAGGAGTCACGCTGCCGGTGGTATCTAGTTGACAAAGCCTACGTCAATTTCCCAC
2.281298493981639 GGCTCCCACACGTAAAAAGATATCGTTGCTCTACCGCGGACTGTTCACGGCCTTATTGTCGTGGATGGCCAGAAGTTCCGAGAGAGACAGTGTTCCGCTATAATTAAAACCTTCATTAATCCTCGGCCCTTTGGTAACCATCGATTCTATGCAGTAGCATACAGATGTTCTGACACACTGAGATGAGATAAGGTCGACCC
3.011948788233625 ATCAGAATTTGCTACTCCTTCTGTTAGTTAGGGTACCATCTAAGCTACAATAAGAGATAATATTTTGCGTTGCAACATAACGAAAAGTTACTATTGTGCTCGCGTTAGCAGATTAGGAGACGACTTGCATGATCGTGATCCAAAGTCAATCTGGGACCCCACTCTGTATGGTATACTAACAGGTGACGGATGCAAGCTCC
2.198968620109434 CGCTAAAAAGCATTGATAAGGCTTTTCACTATTCAGTTCCCTCGTCACTTTACGACCAGATGGTAGTCTGGGAGCTCCCTTGTTGTGTAGGTTGTACCAAGTTTAGTACCTCAGGCACGCTAGACATTGACTTGTGATTGGTGTCGTTGCAACCCCCCTGGCCTAGTTAGACCAGATGGTCCCATACGCATTTCAGAGAC
2.778084702073382 CAGTGGAAGCAGACTGGATCAGATGTGGACTGACAACCAACTTTATACTGGAGATAAGATTTCTCACTAACTAAGTTAAGGTCCGAGATACGAGTTGCTCCAAGAAGCGTACTAATAATCCACGGCACAATCTTATACAATATACGAATACGTTGAGGGGAATCCCGTACAGATGGTTGGTTTAACCTCATCTCTCAAGC
1.33435334772951 ATGGAACGTTAAAAAAGTGGGAATTGAGACAAATGACAGGTGGTGGAAAGTGTCTGGCGAGGCGGAAATGGTTCATAGGCGCAGTTGTCATGGTCGGACGGGAGCAGATAAGCTCATAGCCTATTCAATTGGCTCGTGTTTACTGTCACGGTTCGAACTAGTAATGAACAGATGGGCGTTGTTATTATTCCTTCCTTATC
1.586492170852648 GGACTTACGCTGCGGTCCAGATGGTTACACATTTGACTGCTTAAAACTAGATCATTGGGGAGATCAGGTTACCAGCGAAGGTATGCCTGCCCGGAACTATAGGGTATAGTATTTATTAGTCAATTCTCGGACATATCGCTCAGATAAGGGTAATGAGTACGCGTATAGAAAGATTACGATTAAAACAGATAAGGCCTTTG
1.094400352747063 CTTGTATATTCGACCACTTGAAGACAAAACCGGACACTTTACAGCGGGTAGTGACAAGGCTATCAGATGGTACCGCATCAAAGCAGATACGGACAGATAACATTCCTCCTTCTCCGGGAACAGATGTTTGATTTGGTTCTGCCTCTTTTTTGAGTCGTTGAGGAAATGTGACCTATAGGAACCCTAGTTCAAAGTAAACC
3.279044500796351 TGGATGTCTTGTGACTATGACCCCGATAGAGTAGCGCTGAAGGTGAGGATACAATCCAAGCGTCTCGACCAGATGGTTTTCGCGCTTAATCGGCTAAAAACTTGAACGCGATTCCTTAAACTCATCTGAAATTAAGGTCAGATTAGGAACTAAGTCGGAGCATCATTTAGTATATCGACATCCTCGACAATCTCTCTCGC
1.548399015453819 AGTTCTCCAAAGCGTATTAGGGAAGGCTAATAGCAAGCTCCCATCTTCATGCGGACCGTGCTACGAGACCCCACAACCACCCGAGATAAGCGATATGAATAGCCATGAAAAGGATAGTCATGGAGGTGGCCGGGATCATCAAAAGCATGGCAATGACAGTCAGCTTATGACACTCGCTGATAACAGATGGCCATTCTGAG
2.631273255782544 CCGAGACCAGATGTTACGGCCATTGCTGTTAATATAAACAGATAAGGCTTGTGCTAATAATCTCGAATGGCTTTGCCGCTAGAATGTAATAACAACGCGCAGACTCGACGGTGTATATGTTGACGAATGGCACTGCTATCTAGATTATCATCTTCGATTAATCTAACCCCGGAAAGGGTACTTAAATTCCCCGATGTTTT
0.8495406200326687 GTATCAACTATCGCCTAGATAAGAATAATGGGGCCCAATCGTGCTTGAAATTTGGTTTGGAATTATTTATGTGCGTCTTATCAGATGTTCCTCGTCCGCCAAGTAACCCGTCTTCGTTCTGGGTACAGATGTTCCGAGGAGAGACCCTCTAAGGTTCCCACAAATAAAGCACTGGAGCGTAACTCCATCAATAGCTCCCT
0.8782179258580792 AAGTTGTTTTTCTTGGAAACTGACGAATGAAAGAACGCCTTTTTTGCAACCAGATGTTCGGTTGTTCCCCCGCAGTAGAATGTGGCCTTTACGGACCGTACGTAGGCATGCCAGATGGTTCTGCTGATGATTTCAGATGGTTTAGGATTGGCAATTGACGACTACTACCCTAGCAAGATAAGGGAGCCAACTGCGGTAAA
2.163028131760412 ACGAACTTGCTAACGATGAACCCAAGTTGACGGTCTAGACAAGGCCGTAAGTGTTCGCACAGGACACAACGAGATAAGGAACGTTACAGTAACAATATATGGTTTGTACTAATCCGAGACACTATGCGAGATAAGCCAGTGACATCATGTACAGATGTTCAGTATCTCAGCACTGGCTATTACTTGCTCTGTCCGTCATA
2.141325664203773 CCTAAATGGAGAATCCGTTAATGGAATCCCCCTGTTAGGTAGGTTTTCGTCATCTCCTACGCGGCTTTTAATTTCCTATAAGTAATGGCAATGGACAGATGGTGCTGGGAGAAGTTACGGTTTAGCTGTAGTTCTCCCAGATAACCTCAATAATTGGGATTCAGATAAGGTTCAGCAACCCGCAGGGTTTCGAGAAGTCA
0.8296817597508745 CGTCTCGGTCTATTTAAGCTCATCAGATGGTGTATGTGTAGCAGTCGGTGTCCGTAGATAAGGGGTCTGTAACCAGATGGTAGACTGTGTCCGCACTAGCGGATAAGATCAGTAGTAGAGGCGAAGCTAGAGTGACAACGCTTTGAGTTGATTTAGACAGATGGTAGGAGAATCGAGCCCTGCTGTACCGGTGAAAATGG
3.609066981717624 AATAAAATTTTCGATCTATTGCATTCTACAAAAGGTGACTGCTTTATAAACTAAAAACATGAGCGTTTTGACGGATTGCTTTTTGTAACCGACAGACCAGTTGTCTCCTCACTCCTGAGCGATGATTAGCTTCAAATCCACGTCGAACTACCTTTAGGTACACATAAGGTTCGAAATCTCGTTCTACAAGATAAGAACGC
2.958445861912738 CGTAGTTACGACGCACATAGGAACGCACATAGCCTGAGGGATCACCGGTTCTAATGGCCTAATTATGATAAGGTACACGACGTGGTTCGATCTGTCACGCAGGCGAACAGATGTTCCTTTTGATAGTAGAGTCATCTAACGGGTGATAGTGGTCCAATTGCCACCAGATGGACGGCTTTGTACCATAGAGTAACGTCACG
1.52946319612509 CTACATCGTCACAGATAACCTCGACTGTTTGAGCCATATCACTTAGCCGACCACACAACAGATGCTAGAGATTCGACTGACAGATAAGGCGCTACTTTATCCGCACTTAGACCCTAGATCTCTCGTTCTTGATTTCAGAATTGGAAGTATGAGCTCTGAGGAATTATTCCATAGATGAATCATTGTGAGCTGATGGTGTC
1.156311989427987 CCTGTAAACTGATCCTTTTTTGACTGGTATGTTGCACTGATAAGGGTCGCTTGAAATAGGCAAAGAGATACTTCGAACAGATGGTCTCAGCAAGTGAAAGCAAGTTACCGGTCCCAAGGACAGCGCAAGTCATACGGTGTTCAGGATACAGCAGCGAGTAATAGGCGGCAAATCTGGCGAAGGCTGAACAGATGTTCCCT
0.6114011148874561 CTGTGAAATTGAACTTCCAGATGGTGGTGTCTGTCAGTAATCCACCATAAATGAAGATAACCGGCGTTCGGAGCTAGCTGCAAAAGTTTAGACAGATGTTAGTACTTTCTAACCAGATGTTGGTCTAGGTCTTTCACCAATTAGCAGATAAGATAAATCCGTACCTCTAACTCGAAGTGGTAGCTGAGAGTGATCCTGAA
2.458087352082211 ATGAACACCTTGGAAACATTAGATCTTCCGTGTTACAGATGGCCGCTTCATGCCCTGGGAGATAAGGACCAGCGGATGTTTACACAGTATACGTTAATTGTCTGTGCGAGGACTGCCTTTCTACATGCGTTCCGACCCATAGTACTTCTGCTGAATGATTCAAATGTAACGACAGTTCCTAAAATTTAAATCTAGCTCGT
2.567131678273072 CGTACCTTATCGACAATCGGACCCAAGTTCCGGGTAAACCAGGACAAGGGCACTGGTAGACGTCCTCAGCCTTATGGTGGGCAACGATGAGATTAGGCCCATGGAAACAGATGGCCTCCGCGAATAACTCGGCTAGTTTCACCCTATGCCCATTCCCCTGGATCGTTCTCATGATAATATGGGGGACTCGTCCCATCGTG
2.754428508306732 CGACTGATAAGGGCTTTAAACACGATAACTCAGTCGGGACGAAAGCAGATAAGAGTCCTCCGCGTTTCTTAAGCCTCGTCGCCCTAACATGTTTCAGAGACAATGTCGCGTTGGAAGTTGGGCGCGATTCTTACAACTCCACAAGGACGAGAATCCGGTCACACTGCACCGATAAGACCCGTGGCACAGATGTTTTCCAT
0.8947154342468775 TATAGCTTTTCAGACAGTAAAAACACCGGAATTAGAAAGGACTGTCCGTCCGACAATGTAGCGGGGTCAGATGATCATTTGACAGTACAGATTAGCAACGTTCCTGGTGCGACACAGCCAGTTTCGCGCGCCCTTCCAGATGTATTATATAACACATCTACGGTTTTGGAATGACGCCCGAGATAAGGGGCTCAACAGCG
1.892769946004665 TAAGTTAGAGCTAATCGAGAGCTCGCCTAATTGTTCGTGAAGAAGTCAGTAAGCGAAGATAAGACCAATGCAGGCATCAGATGTTCCCCAACAGATTAGCGGACATTACGCTTAAGTCCCGTGGTACTCACAGATTCCTATATGAAAACTAAGGTAATCCGATTCCGGATCTATACGTATCAACTGCCCAGCTTAAAGGT
1.477052809310065 AATGCCCGCCTACAGATGACTCAGAGGGGTGACTCGGAGAACGGGGCCCGCCTTTCGAGTGGATTATACACAGATGGTGGTCTTAGGCGTCTATCGAGACCTGACGTTTTGTGGAGAGATAGGTAGGGCGTACCATAACCCGGTATTCCTAAGGGGGGATAATACAGATAAGCCTCCCCACGGGTTAGTGTCCCAGTAAC
1.67368822411675 ATTCGTAGTCAGCTACCCACCAGTTGTATTGATTATAATATAGGTACCAGATGGTCCCATGGATGCGCGCGTAGGTCGTTATATGTTTGCACAGCTGATCGGGACAGATGGTCGTTGGGGGTATAAAGAACATGACGAATAAGTATTTTAGGTTCACCGTTCGAAAATTTATGCAATACAGATAAGGGGGCTATTTTCCT
2.012179872320725 GGATACATACTAATACAAGAATGCCGTTTGCAAGGACTCCAATCTACCAGCGCTGGTAAACTTATGTAGTCTCCAGATAAGGTACATGCACTAAGTTTTCCTGATATTTGCTCACTCGGATGACTTACAAATAAACAGGTGTTCGCTTGTGCTTATAAAAGGAGCGGCCAGATGTTTTCGGCGCGCACAGATGGTCTAAA
3.258416448393156 TTGATGGGTTGATTGGATATTGGCGATCTGATTCATAGGTACGGACACTACCTAAGCATTTCTCAATCGTGGACGTGCCCTCCAAAAACATATTCAAACAGAAGGTCCGTGCCCTAACTACCAGATGTTCGTGAAAGATTTTAATATGTCCAAGAACGGATTTAGTTTATATACAGATAAGACCAGTTAGGTATTATAGA
1.900482757928852 GAGTAGTACTTCCCACACCGGGAACCGGGCTATTAGGAAGCCTAAGAGCTGATAAGAAACAGACGCTGAAAGTCTACTTGTATCTGCTAGGAACCAGATGCCGGAATCGATTGGTTACCGTACCCTCATTATGGTGATGATAAGGTGGTCCATAAAGGTCTTTGTCGGTCCGGGTGGTGCTGTTGACATGAACTTAATTG
0.4432367062035117 GAAAAAGCCACCAATGGTTTTGGCCCCCCGATTGGATAAAAGCAGAGTCGTTGGCAGATAAGCCTCGGCAGTAATTTAGGACGGGCTCCCCGGCCAACAGATGTTTTGATCCATAAATGAACTAGCGGATGAAACTTGATAAGGCTCCAAGTAGCTATCTGACACGCATCTGGTGTTAGGATTAAATTAGATAAATTAGT
2.461140146736914 AAGCCGTCTTGCCAATTACGGTCCTTGCTAGCAAGACTTAAATCCCGAGACAATGGCTAATGTAGAATAACGAACTATAATCCTTATCGTTTTACCCGGATGCTCGCCCCTATAACAACTTTTCTTGTTCCGTACGGCGATAAGGGAGCTGAGTCTCGTTTCCCGCTTGTTGGCCGGGCCGGGCCAGATGGTCTGTTGCA
2.279852987625163 GTCCGCTCTCCTCAACTAACGTGGGGGGCCGACCGCAAATCATCATGGAATCTATTGCTCCTTGTATCCCGACGGAACTACGACAGATGTTCCGGACCTACTCCCAGATGAAGGTCATATACCCCGCTGAACGATTGGCTCCAGTTGTAGGGTTGCTGATTAGAAGGTATCATACCAGATAATAGCATCAATGCGCCGGT
1.937206677736724 TTTCGGAGAGGCATACTTTGAGATGGAAAAGCTAATCAGATGGTTCAGCTGAGATAAGCTGGATTAAAACGAAATGACACACGAGATAAGATGTCAACCTATTGCTCCATAACGCACAAACTCCTGCAGCTACCCCCGTTTTCATGATGATGGGTTCTCTCAACGCGATATAAAGAAGTACGGAATTACTACAATGATAC
1.048835670201934 CAATTCGATTCAAGTACCCGCCTCGTCCATGGTTGTCCCTGCCATATAACATCTTCAGGGTATATACCGTCCGAGCAATTCTGACATTAGCGGCGGGTGATTGAAGCCTATTGGACATAGAGATAAGGATAGTCACGTCCGGCCAGATGTTAGGTCTCAGTAGCAGATAAGGGGGAATGCTGCCTGAGAGCGAAAGCATA
2.415045840388758 GCGGCTGTTAAAAATAATAACTGAGTAGGAGATAAGCCAAAAGACGGTCTTAGTCTTTATGGCTCCATGGAGACCAAGTGCCTCCAAGGCCCGTGGTCGTAGTTGTGCTTTAGCGCGTCAAGATGTTATTTTGAGATATGGTGATGAGCAGTTGGCTACATGTGTGTCTTGTGGCACCAGATGGGATCGAAGAATTCTGA
2.824797187963024 AGGGGTCGAGGTGGTCGGAATGGGTACCGTTCACGTCCATTTGTCAACAGATGTTGAGCTGGCGCCCTCTGCCTCGATATTAAAATTTCTATTCATTGTTAGTACCCTAAGGAGGTTATAGGTCCTCGCTCCATGGAATGACAAGAAGGGGTGTGCTACAGAACGATGGAAGATAAGGGCAGCCCACACATATCTAAGGA
1.601995373777235 AATAATATTATCCCAGTGCGTACCAGATGGTCAAAACGCTCAAGCGTTAAGAGTATTGCTCTCAGATAAGAGTCAGTCTAAACGGATACCTCAACAGATGGCCGCGATTAAAGGGACGAAATCCTCGCAAAGTATCTGCTACTACGGATGTTCGCACTAGCTGACCCTAGGTAACGCCTGGTAGCATGATGAAAACTCGA
1.761913953875783 TTTCTCCGATGCCTAAAATATGGGAGAAGCAGACTCCCACAATAGATGATAAGGTTACTGAGGGTGGGACATCCCCCTTTGAACATGCAATGTCTAGTAAACTACATTGTAACTGTTGTAACATGGAGATAAGCACCCCTAATCTTATACCAGAAGAGATTGCGAGCCTAAGCGGGTGCACAGGTGGTCGATTTCCCAGA
0.1779841267024533 ACTGGACGCTAGGTGGAGCCCCCAACAGATGTTGCCGACTCATTCCAGGTGGTTAGACGTGGATATTTATTATCAGAGTTACTAATTACTGATAAGCTTGAATACTCATGAACCGGAGATAAAGAGCTTGGATACACCCTCACCGAGCAAAATAACGCAGACCAGATGGTTACTCTATAGTACGGTTTATCTACTGATTC
2.087137426564559 TTGATGTCCTACAACGGCTATTGTACAGGTGGTAGCAAAACCCATCTTGTGCACTCGGAGTAGACCTAGTTGGACGCCTCTGATAAGATTATTCCTCGACCAGATGGTGGATGGCTCGTACTGCTCGTTTGATGGCTATTAAGAGCTTCTAGCGCCTGGAAGCGGTGGCCTTATACACGCTGCATCTTTTCTCGCAGTAT
1.710253713041614 GGTTTATGCCCGCGGCCCAAACCCAGGAGGAAAGTATTCCGTCATTGAGCGTCGCTGGAATGCTTAGCTCCCCCCCGGGTAACTAACAGGTGGTAGAGCCTAAGGGCTCATCTTAGCGCCAGGTGGCCGCAGATTTAAGGTAAACCCCTAACAGATAAGGAAACAGAGTCTGCACAGAAAATCAGGTGAGCATTGATGCA
0.4714877644001844 CGGCAGGTGAAAATCTTTCCCAACCAGCCATACTCATGGCATCTCTCGTTCCCCACCACCTGAGGCAACAGATGGTACGAAGTCACAGATAAGAAGGGAGCTACCTCGCTGCCGACTATCTTAGCTATAGTGAGTAGGATAGCTCTTACCTTCCGCATAGAGACACTTTTATTCCGTCCCCAAAGACGGTAGGGTGTTTC
0.4235386271860817 GCGAGCATTGAATTGACATCTCCCCCTTACAGATGTTTGGCAGACTGTTGAGCCCTTCTAAAGTATCACTATGTTTCCGGGAGAAGCAGTAGCGTTGCGAAGATAAGGCGGGGGTTTGACACGAATCATCAAAACTACATCGGAACAGATGGTCATCGCCAGTCGCGGCGCCGACAAGATTTGTATAATCTTTTGAGCTC
0.2477905117768225 CCGTGCGCGACCAAACATGTTACCGCTCCCCCCCTGAGGTTCAATGACAGATAAGACTAGATCGAAGTTTGGAATAAGTTGCCCTGTAGATAATCAATAATTCCACCCGAGGTGATAACCGAACAAACAGATGTTACGCTGCAACTATATGGAACGATAGTGACCAAAGATAAGCAGGTGATATCCTAACCATCTACCGC
1.133689509034376 CTTGAGTCTAACAGATGTTCACTTGCTCGATGGCCGAAATTAGCGGTCAGATGTAGCACAGAATTCGCATCACTATGTAAACGAATTTAGTAGGTGTGTTCACGAGATAAGGCCACTCCCCAGTCTTTCTTAAAGCTGATTAGAATTTTCGAAAATCATAATAGTATGGACTGAGCCATTTCTCCGAATCGCACTCTATA
2.766227172183533 GATGGGATGACCAGATGTCCGCAGCGAGTCGCCTCAATTTTAACGAGTATTTTGAGGGCAGGAAGCTTGGTCGCGATCTCTATCTTGAGTGGAGGGAAATTTTAGTTAACCGGAGGGTAGGAAGGTGTGATAAGACATGTCTAGTGTGCTTTCCTGAGGTACGCTACGGCTGAGATTAGGCCCTCCTGCCGGTCATCTCA
1.984610155631371 GCTCGACCACTTAGAATTGTCGAGATAAGGCAATGCATAGACACTTAACTAGATTGTTCCCAGATGGTTGTTGGCCAGTTGAGCCAGCTGGTGATACCTGGGCTCGAATGTCACTCTAAGGTGTAAGGGATGGGGGTGCTTCCTCAGACTAAGCTCTGACGTGCTTAAAAAGCAACCACGGGAGTTGCTTTTGTTACCTC
1.513254802906839 CTACGGGAACCGGACGTCACGTCCCACGGAGAAGTTGCTAGGGGTGAACACCGCATGCATCAGTTAACATAAGGAGGATATTATTCTACTGATAAGGGGGGCAGTACTTTGGGAGAGCAGATAAGGCTTTAATTGGGTTACTGGTACGATTGTTTAGAACCGAGGTTTTGCACAGGTGGTCGATAAGGCCTTCGAAAGGA
1.68780672938282 TTTACGTGATACGGAGCTCATCATATCAGCTATACATGTACACCGATCTCCACCGGAGGCCCGATCGAATCAATCCACAGTTGGTCCGCGTTGTTTTCAGTAACCCGAGCGGCACCCGACCAGATGGTTGCGTATATGACAAATCATCGCGATCCAGATGTTCAGTAGCTCCTCTTAAACTCGGGTCGAGATATTTAAGG
0.3492902487286122 ACTTGGTCTTCTAACCTGACAGTTCTGGTATTGTTGTTTGAGCTTGGCAATGTAATGAGCACGACGATAAAACACCGAACATACGGCATCTATAATTCGGCGGCTTTACAGGTAAGGCAGTGTGGCGTGATTACAAAAGGTTTCGTAGCGATAAGAAAGTTAATTATCTTTGGAGATAAGGGGGCACCAGATGTTCGATC
3.344128885349725 CCGGCTTAACAGATGGTGACATCGCTGAAGGCGTAGGATTGATTAGCCCTAGGTATCAGCATTTTGAACGTCAGAATGGTCAGATTGGAACGATACGTACCTACCAATGATTAGGTTTAATTTAGCCCTGTCTAAAACTAAGGGGTTCTTCTGCTGGGGTGGCTTTTTTCGATGACGTTGGAAATAAGCAATTGTGGTAA
2.407421201488326 CTGCGCATCAAGCATGGTCTCAGGTTTTCATGCACTTTGTATTAGGAGCTTGTTAGAAGCAGTATTATCTAGGCCTAGGTATCCGTAAGCAAGGGACATTTTAGCCATATGAAGCCGATAAGGTCTTTTTCGACAGATGGACCCGATGGCGTGATAGAAGTCCGACAACGAGCGAGGATTAATGTACTAAATCATTATTA
1.784652551028163 AGATGGCCTATATTAATATCTGGTTGTCAAACAGGTGGCTAGAAATAAAACGTCAAAAGCGGTCATCTTCCAAACTCCGTGTCATAAGATTGGTCTTGGAGCGATTAGACCTCATGACAGTAATAAAAGCCAGCCCCACGGGTAAGATCCTGATGTCGTAATTGTTTGTTATCGCCTTATCATTCAATATGATAAGGAGG
2.328779684405491 CTGTTAAATCGAAGAACCGACCAGATGTTATGTGACAATCATATTTGACCAGATTATTATACCACGAACCCGGTCTAACACCGTAGCGATAGCTTACAGCGATGATCAAGACTTACTCCCGGGTTCCAGATAAGGAAAAACATATCAGACACCAAAACCATGCTGATGGAATACGATCCAGCTATCCCTACGTCAATGGT
1.380643794501131 TAGATTGTTTTAGGTGGTGAAACAGTAGGCCCTACCTCATCTGTACAGATGGTGTGATTTGAATTTCTGAAGCCTGAATCAGCCGCAATAAAGCAACATCCAAAGGATCTATCAAGTCATAATAGATAAGGATAAGGAGGACATTTAACCAATAAAGACCAGATGGTGGCGGGCCCGATCTGTCACCTAAGTGTTGCGAT
0.1326493518088399 AGATGTAAATCATACACTACTTGGCCTACCGATCGGCTCACCTGATTAATAAACCATCCATTCCTAACATTACGGGAAAAATTATCGCCCGGAACAGATGTGCTGTGGAAATGAATTTATAGCATTATCAGCTAGCAGATAAGCCCGCAGATAAGCCTTTGGAGGTTGTGGGTGATGGCGTGATAAGCGGTGATGTGCGA
2.01974068674699 AGCTTGGTATTCCAAACGCTGAGGAACCCGAGACAGATGGCTGGGTTCTAGAGCTGGACATTCCTTAAGGCACGGGACAACTTTATTTGGCCCTTGTGGTCATTGGCCACTGGGTGAAACGGATATTTCTAATACGTGATAATCGTGACCAACCTGCAGATAAGACTTACCCTCTTGTTTATGAGAAAGGTCGTTCTGTT
0.2010863942308521 CTACATGCAGCATTATACGCTAGGTCTCGAATGTAGAGATAAGATGTGGAATAGGTCGTGTATTGGGACATTCGGAGCTGCCAGATGGTGTTGCGTAGGGCAATAAATCGTTTAACAGGTGGTCGGACGGAACATCTGACGATTGTAATTCGAGACGGCCGTCGAACAGATGGTCAGTTCTAATCTACTTTGAGTATTAG
2.193892030709658 TCGTCGTGTCAAAGGCACAAGTCATCCGCAATAGATGCTTAAATGGAGTTAGGAGATAAGCAGGGTCATGATAGATTCACCGATATTCCGAATCTTGACTCCAACCCCTATATAGCTTGCACCAGATCACATGTGTTGAAGTCTTCCATCACACATTGTGATAAGAGACGGATGGCGCATAGCCCACCAGATGGCTATTG
1.039619452879987 ACCGCTACTCCGATAAGCAATAGTACCAGATGGTAAGGGTACAAAAGAACAAGTAACTGCCTTAATCTAGGGTAAGTTTCCCAGAAATGGAATTTGCAGGATAAATGGACCCGGGGGCCGATACTTCTCAAGTATTGAAACCTCTTGCTTATATCCGCTGGACAGATGTTAAGTCTTGGTACCCTACGCAAGATAACAAG
0.968673730219812 TACGCTTATCCCTAAGTAAGCTTTACCTATCATATATGGGTCCCCGTGAGCAGATGGGCAACTCGAGAGCACGACACCCCAAAAGTTGTTTAACAATCAGACAACAGATGTTAGGAAATCGTAATTACATGACGTGCATGCAGTCAAGAGATAAGGTCGACCGTACATGGTTGCGTCTGGCGAAAGAATAGAGATACACG
2.269381048124419 ACTAACGCACATGCGTTTAATCCCTTTGGTCACTAATTAGAACTAACAGATGGTGACTCCAATGAGCAAAAATTTAGCGGCATAGAGCCAGCCATAGCTGACAACATAAGTTCAGGTTCGAAGACAGGGTAACAGATGGAAACTGTATTTGAATTATCCTGATAAGGTTTGGGCTTGCTTACAGTCATGGAGTCTTAACA
0.1834832930050942 TCTAATGGGCCCGCGTCTCAACAGATGTTCAGGATGGTGATGGACCCTTTGTACATCATTGATAAGGACGTGATAATATATTGTCCAGCATTTTAGTCCCCCCTTGCCAAGCATCGACAACCAATGGAGCCAGATTTGCCGAGCGCGATATATTTTTTTGTTCGCCTAAGCAGATAAGGGTTTCATCGTATGAGCTTGCT
2.34304468088602 GAATTAGCTCTGAGCTCGCATTATGGTGTCAAGTAGAAACCCTCAATGGCTGTTTCCCTTACATCATGGGGCAGAGTTGCAGATACCCTTCTAGGGCCCGATAAGATATTGATCCGTCAGCGAGGCGATATAAATTAATTGCCCGACCTCTAACCATCGCTCAGTCACAAGCATTGATCAGAGGACAGATGGTCGCAGTA
1.856801832503681 GCAAGATAGACCTCGTGATAGTGGCCGATAAGGACCAACCAAATGGCATTGGCATGACGTTGCACCAGCTGTTTGAACCAGCCGCTACCTTTCATGGGCTACGAGATATCACCTAAACAGATGGTCGTCGTTGATTCGGCCGTAACCTGTAATCATGGCAGTAACGTAACAGATGTTTATATTCGACGGACTGAAGGCTA
3.518006041710684 CAAATGTCCTGTATCACTCCTCGCTCCGATAACGATTTCCGGGAAAGGTTTAGCGGCCGTGGGGGACCACGACTCCATATTAAACGTACGTGATACTCTTTGATCTTACCACTGTTTCCATATTCTGGTAAAGAGCACGCCGAACAGATGGTCTTCAGGTTGGCTAATTTTATGTTACACTAGACCTTTTGGTACTAAGG
2.895770225157039 GCCAATTGACCAGCTAGTAAATTATTCTGGTGATAAGGGACCCAAGATGAAGCGATATCCGAAGGTGAGAGTAGTGAGTAGGACTGCCCGACAGATGGTTCACCCTGACAGTTCAGTTCTAAATAATAGTATAGTAATAACTTGCTGAAACACTTGAACCTCTTAAAACCAGATAACGCCGCTCTTAGTGTCGGGACTCA
2.847992969234033 TCTGAGAATGACTGTACGAGAGAGAACTCCAAGATTCATGTGATAGCAGGTAATGTTTGTCTCGATCGCGGTCTGACGGGGCATCAGCTGCACATCGCCTCCGAAACCAAGTACAGATAAGCGAACGGTATACCTTCACATTATCAGAACAGATGCTATCTCGGAGTGGTGAGAAGGTCGAATGCTCTCGTTATGTGTGA
2.749121042097983 ACCGGGCAGAACTATGATCATTGGTAGTCCCCCGCGTCGGCGCGATCTTGAGCCGACCCTTTGATATCGTGTGCAAATATTAGCGCAAAGCCTTCCAGATGTTCATGTCTATCCCGAAATTTTGGAGATAAGAGTGACAAGCCCCAACGGGCGTAGTTCTTTTAAAGAGCACATGCATCAGTGCATAAACAACGTTTATT
2.323637010158675 TATTGCCGTGGCCCGATCATGCACGTGGCGATAAGGCTTTGTGGAAGGTGCCGGAGACAAACTGCGACCAGATGTTTAAACTCTAAGGACTCAGGATAAAGCAGTAATTCAATTCTCCGGCACGGGCTCGGAATCATCCCACGCTTACTTAGGTTAAACCAGATGACAACCATCAATACATGCGACCAGATGGATGGCTG
2.387342793572445 GCCATGGTTCATCTTTACTAACTTGTGCGAAAATAAGATTCAGGAAAGGATTTTAGTAGTCAACTACATTCCAGTTGGTCAATAGCGAACAGATGGTAAGCACACAGTGTAGGATAGATTAGGATATGACGTTGATAAAGACATTCTCCCCTCGTGTCTGCGATGCCTGACTAATCGTTAGATTGAATCACTATTTTGTT
2.070034109072287 CCGGTTTAACGACCCAGATAAGCGCGCCGCACAGATGGTCAGTGAGATTTATTATACCTGATCATGGGCTCCCCGTAGAATTATCTTAGTACCGTATCTGTATCTTGACAGTGGGGTCCTCCCAAACATAGATGCAGTCAACTTAGAGCTTTGTCGTTATGAAGCCTTCAGTGCTTCGGTGGTTAACAGATGGTGGCGAT
2.511460905086659 TCTTGCGAGCAAGTCAAAGAGTACAACCGGGCATCACGCGGAGTCAAGCCAAGATTAGGGTAGCAAGTATTTAGCCATGGGAGCCAGATGGTCATAAGATGGAGGTGTACGGAGAAGAACTTGTCGGCCGTAGTATGCCACCAGATGCTATTAGTTCAATCTCACAGACTCAACAGATGGTTCCGAGGGGATAGTACCGG
2.428778180059445 TTAGCAATCGGACGATAAGATCTACGCTTAACAGATGTTCAGACACTCACAAGGTTCTCATGCCAGAATCAAAAACTGGATATGTCTCTTATCCACCGTTCTACTGGGATCTGATTCAAGTGAAAGTGCCTCCTGAGCATTAGACTTACGAGGGAGAAACAGATGTTCATCCACGCTTGAATCGACATGCAGTTACGATT
1.501008166560429 AGGGGTACCCCAGATAAGCCGTAACGTTTAATTTGGAGTCGATCTTCAGCGCTCGGAATGAGTGGCGCGCGATAAGCGTCTCGGTTTTGGTAGTACCCTTGTTGACAACCCGGGTAGGATACTTGCATGACTATTATTGCTGAGATCTAACAGATGTGCGCCAGTTATCCGTACTGTATATTTACGACAAGGTGTTGTTT
1.969928525961632 CTTAACATTACTCAAGAGCTGGAGTCACTAAGGGATGGTCCTCTCACCCCCAGGTGGTCCCGCTGATAAGGAGTAGATCCAGGGTCATAAGAAGTCTATGAGTTGAATGATATGTGAGATAAGGTTATACATATACCGAATCGACATATTATAAGCGTTCCGCACCCGTGATCGGCGCTAGCATTCTCGTACGTTAATAG
1.378034900185331 CCTATTACATAGAACTAACATAGACGGTAGAACTCTTACGGGCGAACGAGTCGAACAGATGTTAGAGCAAAGTAATAGACGCTTAACATCGCATAATTGGAGTCTCATAGCTGAGCATGTAAAAACCCTAGGTCTGTTAAGAACAGGTGTCGGTGGGCAGATAAGCTGCGGTATGTCTCATTAAAGGGCCGCCCCTAGAT
2.231078309892646 TATAGCTATGTCCAGGCTCTATGTATGAATTGGCCAACCCTTCCTCAACGCGTCCCCACCGGGGGCCTTCAGTATCTGTCAGTAGTGGTAGCCGGGAACGCATGGATGTTACCCCGTATGTACGACACCTTGCTGATAAGGAAAATGGGTTTTAGTCGACAGATGTTTACTCTTTTCTTTCATGACTGGGCCTCATGCAT
2.461138663038133 TACGGAAAGGACGTTACGATGCTTACCAGATGTTCGCGCATGCAGATAAGACATTCAAAGGCTCATTCTGAGAAGAGTTCTAATACTATAACTGTCAGTGTCTAGACTTATCCCGCCTTAACAATGTATCGCGACGTCCGGGGTATTTAATTGCCTGAGTAGATGTCAAAGCGTCGGTCTCACTGAAGCTCCTTATGTGC
1.865642658916831 ATCTATAATCCGGATTGTAGGAAAATGAACTTAAGCGAAGACTCAGTTAGTCCCGGGAAGTCTATTGATGGTGGAGATAAGGACCCAAGACGCGCATCCTCAACGAGAAATGGAGTTAGTACAGATGTTCCGCATTGGCATGGGGAAGGATCAGTGTATTCACTGCTGACGCAGGTTTGACCAAGTTTATCCAGACCCAG
2.826944188139638 GAAGCTTGCCACAGTTTAACTACCATTGCGCAGATCATCTACCGCGCAACAGTTATATAACCTTCCGGACGATAGCAAAGGCTGCCTGCTGATAAGGGGGCAGCAAGGTGGTCGTGACAGATGACACATGCGATCTTTGGGGTACAGTTGTGGAAGATCAAGTGTATACCAATCAAATTTGTCTCTATTTTAGATTGGTA
1.227219663929837 TAGATGATAAGCAGTCAGACTAGGCTTCTTCGCAACAGATGGTGAACATGGCACAGGGAACAGATGTTCTAAATATCTTGATAAGATTGTCTTTAGAGACGAAGTCATCAAAGCAACCGATGGCAATATATATAGCCACCGACATGCCAGATGTTCTCTTTGAAAGTATACATGAGGACCAGCTTACTGGAGGATAAACA
1.261688571347808 AATGGGACAACACTGTCTTCTTTCCTCACACGAACGGAACGAGTCTACACCAGATGGTCGTCAGTGACTATTTGCAGATTAGGTTCTTCGTCACACCTAGGCATAGATACTTAGATTTGCTGGTCTATCCTAATATTCTCGTGGGACCTGGACAGATGGTACTTATGGAATCTACTTCCGACACCAATGCGCAGATAAGA
2.394061972559498 CTATCGGTTACTGAAATCCCTCTTGTAGCCTTTTACAATCCTGCACTTCTAATCACGCCACGACGATGGGGTGAGACAGCGCCAGGTGGTCACGGGGCTGTGTAGCTACAGATAAGGGTCTTAATGAGGTCTTAAAGGATAGGGCACGACATTGGTTCACTAATTGTTGTATAGTGTAGCTGGAAGCGTTTTTTACTGTC
1.417045217038527 TTTCGACGGTCTTTATGCATCCACCACCCAGGGATCTGAGTTAAATACATACCGGCCTGAGTTCGCCCCCGGAACTGAACAGATGGTTGGCTTTATTCATGCTCCACTCCTCCCAGATAAGGTCATTTATCTAACAGGATCGAATGTCAAACATAAGACCGACCAGTGGACTGATAAGATAGGAGTAGTGAAAAGTTGAG
1.414633894079125 TCTTAACAGATGGTGAGACACCAGACGTGCCAGTGTGGCAAAGTTGTGACATATCTCCTACTAATAGCGGAGGTCAGATAAGGGGCCCCGCATCTTTGTGAACGTCAAGAATCTATCAACTGAGCTACCGTCGAATCGTCCTATCCGGTGCCCATGTACACGTAAGAGACGCACTTACGTGCCCGAGACTTTCTCCCTAC
2.445663625533958 ATTGAATGACAAATGTATACACAGACGCCTAGCCACACTCGACTCCTCCACACGAGTTGATGTCAACTGTGATAAGGTGGTAGTTCACTGGCCCAAGCATGTATAGTGTTCCTATTTTGATTTGTGATTAGCTACGAGCAGTCATTATGGGTATACGGATCAGATGGTGTAGTTACTTAACCATTTCGTCCCTCGGCCAG
2.340298222934155 AGGCGATAAACAGATGGTCTAAAATTCCTGTGGCGTTTTTAGATGAAACGTTGACACAAACCCTGTGGAACACACAACGATTGTGTGTATAAGGCTAGAATAAAAATACTCGAGGCTCCCGAGATAAGGTGCCCGGTTCATGCTACCTGAAGCCAATGGCGGGGTCCTGGAGGCAAGGAGATTCGCAGGGAGTCACGTCC
3.576174429698039 GTCCACAACAGATGGCCATTCGATTAAGACAAATACAAAGTCCGCGCCAGCAGATTAGGGATGAATGCGTGGCAGGATACCCGCAATTTGATACAGGTCCTGAACAGATGTTTTGCAGCAACAGATGGTCAGACCCCGAAGTAACTAGAAACCTAAACTTGTAGTCTGTTACTACATACGATAGCTTGAAGCCGTGGGTA
2.864874270951691 ACGAGAGCACCGGGCTGAACGAGGTATCTGCCGCAATTGTCCCACCCCACCAGATGTTATGTTCTCCACAAATTAGGCATGACATACAGAGTCGCAGTTATAGTCAGCGGGGCTCTAAACCCGTACCGTACATACGTCGCCGGTTTGTGTAATTTTCGCTCTAACTTCTTGTCAGCGGTTCACTAAAGATAAGCGATCCT
1.790879660476633 CTGTTAATTAAGTTTAAGAATCGGACAGATAAGCTCCTATGTACAACTGTCCTGAGTTTGACGTTAGCCCCCTGCTGGGGATTTCGACAACAGATGGTCAATATCTACCTAACGAAATCAGAGACATCATAGTCAACTAAACGTCCAACCGTGTCCAGATGCGGGTTAGCAAAGCTTGAAGCTTCAGTCATATTATTAGG
1.745700784390245 GCGCTACCATATAGACGATTCGTTGAGACTCTGACACGGTCGCTGACGAGGTTTACGCAGCAAACTCACCGGTGCCAGGGGTTATCAATATCTATAAAGTAGTAGGTTGATAGTCGTCGTATATATTGTCCAATCAGGGCTTTAGAGTTTAGCCAAAGATAAGGTCGTCCGTAAGGGAACAGATGTTCATAGTCGTAGTA
1.431551572224597 TCGGAGCCAGGTGTTCAAAAACAAGTGTACGCGTCTAGGCTCATTGGATGAAGGCCAATACTACAAACTGGAACAGTTCTGCTCGGGATATGCTGATAACGTAGAGACTCGGCCAGATGTTAATTCTTGATCATATTAGATTCGCCCCCTTATCGGTGCCGCCGCCTTTCAATACGACACTGATAAGGCGTAGGCCGCGG
2.448947029986974 AGCAAATACGGTTTAATTAACAGATGTTCTACGGTGACGATACTATGCGAATGCTTGCCATGCAGATTAGATAAAATCAGGAGTTGGCGCATTAAAACCACAATTAGCAGTGACGAATGGTCTGACGTTAGCTCAAAGGATCAGATCGCGATTCGCCTGCTTGCTCGCGCGCCTGGATTTGTAATGTATATAACGTCTGA
3.687864998452404 AGCAACCAGATGTTGGCAAATGAGAACTGTTCCGTGATAAGGACACGAAGTAAAGTAAATATCTAATACAGATCCGTCCCAAAGACGGCGATGGGGTGTGAAATCCAATACATTAAATCTGACCCCTTTCCGAAAACTAGCGTCGCTTGTCGTACCACTGGGGAATCTTGCGTGAGACGCGCAATCTACTAAGTTAAGGC
2.606724439605461 TCAGCATAGCCCAGGAGGTACAGTTACAAACAGACAAAAGAGATAAGCTCACTTTCATAAATCGGTCCGGACTTGTTAAAGGTCACATCCCCTGCGTGGTTCAATTACTATACGACCTCTTACTAGCACAGATGTTATCGAAACGCCGAGCGAATATTACAGAGACGTGTATGTCAAATAGTGGTAGGGGGATGTACTTT
3.183239102431888 GGTCGCGGGTGTCCGGTATGCGTCTTCGAGATAGCTACAGCTACGTCTATGAGAAACTATAACGGCCCAGTAAACCCTGAATCTCCATACAACGGAAGAAGGAACCAGATGGCTGGCCCAAAATCTTGGCACGCGGAGAGCTGGTATGTTGTTAGCAATCAACTTAGTGTCTCCTCGGAGATTAGACAGACGATTCAATA
1.927668280047623 ACGTCTTAGCTTGACTGCTACCACTGACGTATCAACAGAATCAGGACAGATGTTTGCCTTCACGGTTGAGGACACCTAGATGATCCCGAGTGCGGAGTCCGGAGTTCGACGCAACTTATAGGCCACTTCATGGAATGATTACGCTAACCCAGATTAGCTGAGAGTTTTCTGCCTTATTGACGAACAGATGTTAGCGCCTG
1.527192203845312 TACCCGATGCAGGTCAGATGGTCCTAGGAGGTTGACGGGTGACTTTAGAACCGAGGAGACAGAAAGGTTCAGATAAGGGGCTACTCTGTGGAAACTAGCTGGCTATGACGCAAAGGTTTTAGTAGTGAAGCTATAACCTAGAGCGATTATGTACATAACATATCATATGTGGCCCGATCTTTGGGCACCCCTTCCCGTGT
1.9996614496552 CGAACCACTGATTAGGCAGTGAACACGCTGTGCATCACTGCCAGTTTATGTCGGTGTTTTGCAAACAGATGGTCTTTCTATCGAGGGAGTATCTAGCCCGCGTGAGGTTATGTCTAGGTCCAGACCGGAACAGATGTTGGATTTCAAGGTGAAGAATCCTAATCTCGTCGATGTTGAAGATGAAGCTGGACTTATCCCGA
